{"learner":{"attributes":{"best_iteration":"308","best_score":"754.1212224459609","scikit_learn":"{\"_estimator_type\": \"regressor\"}"},"feature_names":[],"feature_types":[],"gradient_booster":{"model":{"cats":{"enc":[],"feature_segments":[],"sorted_idx":[]},"gbtree_model_param":{"num_parallel_tree":"1","num_trees":"329"},"iteration_indptr":[0,1,2,3,4,5,6,7,8,9,10,11,12,13,14,15,16,17,18,19,20,21,22,23,24,25,26,27,28,29,30,31,32,33,34,35,36,37,38,39,40,41,42,43,44,45,46,47,48,49,50,51,52,53,54,55,56,57,58,59,60,61,62,63,64,65,66,67,68,69,70,71,72,73,74,75,76,77,78,79,80,81,82,83,84,85,86,87,88,89,90,91,92,93,94,95,96,97,98,99,100,101,102,103,104,105,106,107,108,109,110,111,112,113,114,115,116,117,118,119,120,121,122,123,124,125,126,127,128,129,130,131,132,133,134,135,136,137,138,139,140,141,142,143,144,145,146,147,148,149,150,151,152,153,154,155,156,157,158,159,160,161,162,163,164,165,166,167,168,169,170,171,172,173,174,175,176,177,178,179,180,181,182,183,184,185,186,187,188,189,190,191,192,193,194,195,196,197,198,199,200,201,202,203,204,205,206,207,208,209,210,211,212,213,214,215,216,217,218,219,220,221,222,223,224,225,226,227,228,229,230,231,232,233,234,235,236,237,238,239,240,241,242,243,244,245,246,247,248,249,250,251,252,253,254,255,256,257,258,259,260,261,262,263,264,265,266,267,268,269,270,271,272,273,274,275,276,277,278,279,280,281,282,283,284,285,286,287,288,289,290,291,292,293,294,295,296,297,298,299,300,301,302,303,304,305,306,307,308,309,310,311,312,313,314,315,316,317,318,319,320,321,322,323,324,325,326,327,328,329],"tree_info":[0,0,0,0,0,0,0,0,0,0,0,0,0,0,0,0,0,0,0,0,0,0,0,0,0,0,0,0,0,0,0,0,0,0,0,0,0,0,0,0,0,0,0,0,0,0,0,0,0,0,0,0,0,0,0,0,0,0,0,0,0,0,0,0,0,0,0,0,0,0,0,0,0,0,0,0,0,0,0,0,0,0,0,0,0,0,0,0,0,0,0,0,0,0,0,0,0,0,0,0,0,0,0,0,0,0,0,0,0,0,0,0,0,0,0,0,0,0,0,0,0,0,0,0,0,0,0,0,0,0,0,0,0,0,0,0,0,0,0,0,0,0,0,0,0,0,0,0,0,0,0,0,0,0,0,0,0,0,0,0,0,0,0,0,0,0,0,0,0,0,0,0,0,0,0,0,0,0,0,0,0,0,0,0,0,0,0,0,0,0,0,0,0,0,0,0,0,0,0,0,0,0,0,0,0,0,0,0,0,0,0,0,0,0,0,0,0,0,0,0,0,0,0,0,0,0,0,0,0,0,0,0,0,0,0,0,0,0,0,0,0,0,0,0,0,0,0,0,0,0,0,0,0,0,0,0,0,0,0,0,0,0,0,0,0,0,0,0,0,0,0,0,0,0,0,0,0,0,0,0,0,0,0,0,0,0,0,0,0,0,0,0,0,0,0,0,0,0,0,0,0,0,0,0,0,0,0,0,0,0,0,0,0,0,0,0,0,0,0,0,0,0,0,0,0,0,0,0,0],"trees":[{"base_weights":[-1.953439E1,-3.044491E3,6.27344E3,-5.82739E3,-7.4553796E2,4.14049E3,1.0459639E4,-7.656642E3,-4.4217056E3,-1.8566888E3,4.7617178E2,3.076444E3,5.964252E3,8.522025E3,6.181259E2,-4.081994E2,-6.172018E3,-5.671317E3,-3.186142E3,-3.3396697E3,-1.1478389E3,-7.285364E2,1.390806E3,1.9910226E3,4.4475977E3,4.6792104E3,3.7155713E2,3.616867E2,4.7611237E2,-3.2186298E2,-1.9376842E2,-3.066575E2,-2.3569926E2,-2.0306313E2,-2.8077837E3,-1.9708763E2,-2.7671245E3,-1.6827898E3,-6.120916E2,-1.4707098E3,-1.6926E2,7.6362286E2,2.0514004E3,5.534907E2,2.6208962E3,2.847721E3,5.003054E3,1.8784406E2,2.5693417E2,-1.5322386E2,-1.0633809E2,-1.5851653E2,-1.0018971E2,-9.5079124E1,-4.7358746E1,-5.7531887E1,-1.2591675E1,-9.315825E1,-5.6191982E1,-3.417056E1,1.9115591E1,1.8937956E1,5.461558E1,7.261376E1,1.1541117E2,4.1412797E0,5.6831966E1,1.0038944E2,1.5085423E2,9.320153E1,1.6004898E2,1.9746747E2,2.6961255E2],"categories":[],"categories_nodes":[],"categories_segments":[],"categories_sizes":[],"default_left":[0,0,0,0,0,0,0,0,0,0,0,0,0,0,0,0,0,0,0,0,0,0,0,0,0,0,0,0,0,0,0,0,0,0,0,0,0,0,0,0,0,0,0,0,0,0,0,0,0,0,0,0,0,0,0,0,0,0,0,0,0,0,0,0,0,0,0,0,0,0,0,0,0],"id":0,"left_children":[1,3,5,7,9,11,13,15,17,19,21,23,25,27,-1,-1,29,31,33,35,37,39,41,43,45,47,-1,-1,-1,-1,-1,-1,-1,-1,49,-1,51,53,55,57,59,61,63,65,67,69,71,-1,-1,-1,-1,-1,-1,-1,-1,-1,-1,-1,-1,-1,-1,-1,-1,-1,-1,-1,-1,-1,-1,-1,-1,-1,-1],"loss_changes":[2.7735476E10,6.2910454E9,4.1800868E9,1.1103949E9,7.339364E8,5.929293E8,4.8088474E8,9.422848E7,3.7409894E8,2.936587E8,2.852951E8,2.9028826E8,1.8200346E8,3.678003E7,0E0,0E0,7.337856E6,2.6353152E7,3.1640448E7,2.0461504E7,5.428325E7,4.623987E7,5.933731E7,1.0177187E8,6.3954176E7,7.815936E6,0E0,0E0,0E0,0E0,0E0,0E0,0E0,0E0,9.914624E6,0E0,9.035776E6,1.3649504E7,1.8723624E7,4.440096E6,1.8694738E7,9.32666E6,7.57216E6,9.786571E6,1.3131392E7,2.720192E6,4.949504E6,0E0,0E0,0E0,0E0,0E0,0E0,0E0,0E0,0E0,0E0,0E0,0E0,0E0,0E0,0E0,0E0,0E0,0E0,0E0,0E0,0E0,0E0,0E0,0E0,0E0,0E0],"parents":[2147483647,0,0,1,1,2,2,3,3,4,4,5,5,6,6,7,7,8,8,9,9,10,10,11,11,12,12,13,13,16,16,17,17,18,18,19,19,20,20,21,21,22,22,23,23,24,24,25,25,34,34,36,36,37,37,38,38,39,39,40,40,41,41,42,42,43,43,44,44,45,45,46,46],"right_children":[2,4,6,8,10,12,14,16,18,20,22,24,26,28,-1,-1,30,32,34,36,38,40,42,44,46,48,-1,-1,-1,-1,-1,-1,-1,-1,50,-1,52,54,56,58,60,62,64,66,68,70,72,-1,-1,-1,-1,-1,-1,-1,-1,-1,-1,-1,-1,-1,-1,-1,-1,-1,-1,-1,-1,-1,-1,-1,-1,-1,-1],"split_conditions":[5.2121E4,4.7271E4,5.7856E4,4.4041E4,4.9616E4,1.131E3,6.0802E4,2.7E2,-2.67E2,-6.2E2,2.7E2,5.4659E4,5.5159E4,-7.6E1,6.181259E2,-4.081994E2,1.146E3,4.6299E4,4.5227E4,4.8402E4,4.8565E4,-1.078E3,5.0745E4,-1.2E3,-1.551E3,5.3111E4,3.7155713E2,3.616867E2,4.7611237E2,-3.2186298E2,-1.9376842E2,-3.066575E2,-2.3569926E2,-2.0306313E2,1.346E3,-1.9708763E2,-1.381E3,1.176E3,3.38E2,5.0597E4,5.0639E4,4.8897457E4,1.5E1,5.335E4,-4.8E1,5.5636E4,5.5519E4,1.8784406E2,2.5693417E2,-1.5322386E2,-1.0633809E2,-1.5851653E2,-1.0018971E2,-9.5079124E1,-4.7358746E1,-5.7531887E1,-1.2591675E1,-9.315825E1,-5.6191982E1,-3.417056E1,1.9115591E1,1.8937956E1,5.461558E1,7.261376E1,1.1541117E2,4.1412797E0,5.6831966E1,1.0038944E2,1.5085423E2,9.320153E1,1.6004898E2,1.9746747E2,2.6961255E2],"split_indices":[4,4,4,4,4,14,4,14,14,14,14,4,4,14,0,0,14,4,4,4,4,14,4,14,14,4,0,0,0,0,0,0,0,0,14,0,14,14,14,4,4,11,0,4,14,4,4,0,0,0,0,0,0,0,0,0,0,0,0,0,0,0,0,0,0,0,0,0,0,0,0,0,0],"split_type":[0,0,0,0,0,0,0,0,0,0,0,0,0,0,0,0,0,0,0,0,0,0,0,0,0,0,0,0,0,0,0,0,0,0,0,0,0,0,0,0,0,0,0,0,0,0,0,0,0,0,0,0,0,0,0,0,0,0,0,0,0,0,0,0,0,0,0,0,0,0,0,0,0],"sum_hessian":[1.455E3,9.83E2,4.72E2,4.44E2,5.39E2,3.14E2,1.58E2,1.91E2,2.53E2,2.82E2,2.57E2,2E2,1.14E2,8.1E1,7.7E1,1.39E2,5.2E1,1.24E2,1.29E2,9E1,1.92E2,1.11E2,1.46E2,1.13E2,8.7E1,6.3E1,5.1E1,3.9E1,4.2E1,4.5E1,7E0,8E1,4.4E1,3.6E1,9.3E1,4.1E1,4.9E1,9.5E1,9.7E1,4.7E1,6.4E1,7.6E1,7E1,3.5E1,7.8E1,2.4E1,6.3E1,2.4E1,3.9E1,6.5E1,2.8E1,3E1,1.9E1,7.2E1,2.3E1,3.8E1,5.9E1,2E1,2.7E1,3.3E1,3.1E1,3.6E1,4E1,2.3E1,4.7E1,2E1,1.5E1,3.3E1,4.5E1,8E0,1.6E1,2E1,4.3E1],"tree_param":{"num_deleted":"0","num_feature":"16","num_nodes":"73","size_leaf_vector":"1"}},{"base_weights":[-4.5698677E1,-2.936172E3,5.90609E3,-5.6182607E3,-9.5040186E2,3.8711824E3,1.0069085E4,-7.195686E3,-4.330633E3,-1.9091769E3,2.800565E2,2.814415E3,5.540846E3,8.450521E3,5.932491E2,-3.8718518E2,-5.6451055E3,-5.551352E3,-3.175008E3,-3.2480225E3,-1.137511E3,-8.245932E2,1.2486884E3,1.5192928E3,3.8158228E3,4.0702283E3,3.4164868E2,3.5157617E2,4.6989206E2,-3.0303366E2,-1.8774081E2,-2.9909167E2,-4.759894E3,-3.629876E3,-2.5434133E3,-3.7200378E3,-2.6459282E3,-1.6689789E3,-6.001004E2,-1.527618E3,-2.2951486E2,7.006378E2,1.8200431E3,5.423548E2,2.0678564E3,2.905604E3,2.27054E2,1.5146011E2,2.2765532E2,-2.5391887E2,-1.7436993E2,-1.9683841E2,-1.404622E2,-1.4534618E2,-8.603942E1,-2.1150931E2,-1.5877481E2,-1.516513E2,-9.9615616E1,-9.375899E1,-5.4618355E1,-4.01029E1,2.7003627E0,-9.870382E1,-5.8646847E1,-3.3372578E1,1.1463827E1,1.0480151E1,4.2245907E1,9.8273636E1,5.130253E1,-2.6681876E0,6.7732445E1,7.8125626E1,1.4496727E2,1.18951355E2,1.7104068E2],"categories":[],"categories_nodes":[],"categories_segments":[],"categories_sizes":[],"default_left":[0,0,0,0,0,0,0,0,0,0,0,0,0,0,0,0,0,0,0,0,0,0,0,0,0,0,0,0,0,0,0,0,0,0,0,0,0,0,0,0,0,0,0,0,0,0,0,0,0,0,0,0,0,0,0,0,0,0,0,0,0,0,0,0,0,0,0,0,0,0,0,0,0,0,0,0,0],"id":1,"left_children":[1,3,5,7,9,11,13,15,17,19,21,23,25,27,-1,-1,29,31,33,35,37,39,41,43,45,47,-1,-1,-1,-1,-1,-1,49,51,53,55,57,59,61,63,65,67,69,71,73,75,-1,-1,-1,-1,-1,-1,-1,-1,-1,-1,-1,-1,-1,-1,-1,-1,-1,-1,-1,-1,-1,-1,-1,-1,-1,-1,-1,-1,-1,-1,-1],"loss_changes":[2.4945193E10,5.1928463E9,3.9764204E9,8.117596E8,6.635447E8,5.4902784E8,3.5028275E8,1.1348787E8,3.0824397E8,3.227776E8,2.6531942E8,2.5099725E8,2.0591514E8,4.8178176E7,0E0,0E0,1.8090496E7,9.344256E6,2.5529472E7,2.283904E7,5.669272E7,4.8178384E7,4.005787E7,4.6038544E7,6.008051E7,1.6368256E7,0E0,0E0,0E0,0E0,0E0,0E0,1.2064E5,6.065472E6,1.1145024E7,3.78976E6,7.619488E6,9.96E6,1.35178E7,6.076784E6,1.3012054E7,4.711216E6,5.373104E6,1.6041074E7,1.899984E7,5.968672E6,0E0,0E0,0E0,0E0,0E0,0E0,0E0,0E0,0E0,0E0,0E0,0E0,0E0,0E0,0E0,0E0,0E0,0E0,0E0,0E0,0E0,0E0,0E0,0E0,0E0,0E0,0E0,0E0,0E0,0E0,0E0],"parents":[2147483647,0,0,1,1,2,2,3,3,4,4,5,5,6,6,7,7,8,8,9,9,10,10,11,11,12,12,13,13,16,16,17,17,18,18,19,19,20,20,21,21,22,22,23,23,24,24,25,25,32,32,33,33,34,34,35,35,36,36,37,37,38,38,39,39,40,40,41,41,42,42,43,43,44,44,45,45],"right_children":[2,4,6,8,10,12,14,16,18,20,22,24,26,28,-1,-1,30,32,34,36,38,40,42,44,46,48,-1,-1,-1,-1,-1,-1,50,52,54,56,58,60,62,64,66,68,70,72,74,76,-1,-1,-1,-1,-1,-1,-1,-1,-1,-1,-1,-1,-1,-1,-1,-1,-1,-1,-1,-1,-1,-1,-1,-1,-1,-1,-1,-1,-1,-1,-1],"split_conditions":[5.1995E4,4.695E4,5.8027E4,4.4041E4,4.9616E4,5.5159E4,6.1241E4,2.7E2,-2.67E2,-5.28E2,2.87E2,1.48E2,2.04E2,-7.6E1,5.932491E2,-3.8718518E2,1.176E3,4.573E4,1.306E3,4.8402E4,4.8531E4,-1.109E3,5.0639E4,-1.599E3,5.3207E4,-1.551E3,3.4164868E2,3.5157617E2,4.6989206E2,-3.0303366E2,-1.8774081E2,-2.9909167E2,-1.175E3,4.6147E4,4.3658332E4,-1.551E3,-1.381E3,5.0578082E4,1.176E3,5.0482E4,5.0639E4,6.78E2,5.5795E4,5.3767E4,5.3875E4,1.131E3,2.27054E2,1.5146011E2,2.2765532E2,-2.5391887E2,-1.7436993E2,-1.9683841E2,-1.404622E2,-1.4534618E2,-8.603942E1,-2.1150931E2,-1.5877481E2,-1.516513E2,-9.9615616E1,-9.375899E1,-5.4618355E1,-4.01029E1,2.7003627E0,-9.870382E1,-5.8646847E1,-3.3372578E1,1.1463827E1,1.0480151E1,4.2245907E1,9.8273636E1,5.130253E1,-2.6681876E0,6.7732445E1,7.8125626E1,1.4496727E2,1.18951355E2,1.7104068E2],"split_indices":[4,4,4,4,4,4,4,14,14,14,14,14,14,14,0,0,14,4,14,4,4,14,4,14,4,14,0,0,0,0,0,0,14,4,10,14,14,11,14,4,4,14,9,4,4,14,0,0,0,0,0,0,0,0,0,0,0,0,0,0,0,0,0,0,0,0,0,0,0,0,0,0,0,0,0,0,0],"split_type":[0,0,0,0,0,0,0,0,0,0,0,0,0,0,0,0,0,0,0,0,0,0,0,0,0,0,0,0,0,0,0,0,0,0,0,0,0,0,0,0,0,0,0,0,0,0,0,0,0,0,0,0,0,0,0,0,0,0,0,0,0,0,0,0,0,0,0,0,0,0,0,0,0,0,0,0,0],"sum_hessian":[1.448E3,9.75E2,4.73E2,4.14E2,5.61E2,3.19E2,1.54E2,1.84E2,2.3E2,3.15E2,2.46E2,1.97E2,1.22E2,8.4E1,7E1,1.33E2,5.1E1,1.1E2,1.2E2,1.14E2,2.01E2,1.15E2,1.31E2,8.7E1,1.1E2,5.9E1,6.3E1,3.7E1,4.7E1,4E1,1.1E1,6.7E1,4.3E1,6.7E1,5.3E1,6.1E1,5.3E1,1E2,1.01E2,5.2E1,6.3E1,6.8E1,6.3E1,3.2E1,5.5E1,5.1E1,5.9E1,2.1E1,3.8E1,3.2E1,1.1E1,4.6E1,2.1E1,3.5E1,1.8E1,2.8E1,3.3E1,3.1E1,2.2E1,7.2E1,2.8E1,7.7E1,2.4E1,2.1E1,3.1E1,3.2E1,3.1E1,1.6E1,5.2E1,5.2E1,1.1E1,1.9E1,1.3E1,3.6E1,1.9E1,2.8E1,2.3E1],"tree_param":{"num_deleted":"0","num_feature":"16","num_nodes":"77","size_leaf_vector":"1"}},{"base_weights":[-1.1441369E2,-2.913626E3,5.4783823E3,-5.5845845E3,-1.0854521E3,3.3422021E3,9.080144E3,-6.791441E3,-4.336285E3,-2.2630193E3,-8.079229E1,2.4460662E3,5.118973E3,7.430211E3,1.0739604E4,-3.6552307E2,-5.4394346E3,-5.2523896E3,-3.183519E3,-3.5224885E3,-1.5330032E3,-1.0885104E3,8.889282E2,1.5130612E3,3.4809966E3,3.8178284E3,3.0570648E2,3.0732935E2,4.2394052E2,4.6511472E2,5.867171E2,-2.9584433E2,-1.9699373E2,-2.783112E2,-2.1947374E2,-1.780642E2,-2.4787925E3,-2.039441E2,-2.8927078E3,-2.0700452E3,-1.1337579E3,-1.8029282E3,-4.6536563E2,1.3265955E2,1.4504531E3,4.3109055E2,2.1687268E3,2.1832832E3,3.9641567E3,1.4856133E2,2.0851526E2,-1.4643944E2,-8.9474556E1,-1.5580173E2,-9.81525E1,-1.15434975E2,-7.221996E1,-6.916781E1,-2.7483805E1,-1.173755E2,-5.605984E1,-4.058639E1,1.5593078E1,-1.8280287E1,1.596746E1,5.1140186E1,9.18636E1,-2.6115025E1,3.0225006E1,8.835789E1,1.3324695E2,1.248412E2,5.436581E1,1.5028789E2,2.1504338E2],"categories":[],"categories_nodes":[],"categories_segments":[],"categories_sizes":[],"default_left":[0,0,0,0,0,0,0,0,0,0,0,0,0,0,0,0,0,0,0,0,0,0,0,0,0,0,0,0,0,0,0,0,0,0,0,0,0,0,0,0,0,0,0,0,0,0,0,0,0,0,0,0,0,0,0,0,0,0,0,0,0,0,0,0,0,0,0,0,0,0,0,0,0,0,0],"id":2,"left_children":[1,3,5,7,9,11,13,15,17,19,21,23,25,27,29,-1,31,33,35,37,39,41,43,45,47,49,-1,-1,-1,-1,-1,-1,-1,-1,-1,-1,51,-1,53,55,57,59,61,63,65,67,69,71,73,-1,-1,-1,-1,-1,-1,-1,-1,-1,-1,-1,-1,-1,-1,-1,-1,-1,-1,-1,-1,-1,-1,-1,-1,-1,-1],"loss_changes":[2.2387562E10,4.647415E9,3.6396943E9,5.535713E8,6.7060883E8,4.667387E8,4.048261E8,9.706906E7,1.8709632E8,2.3457152E8,3.009695E8,1.8978278E8,1.0614042E8,7.171533E7,1.3800448E7,0E0,1.8213376E7,4.272384E6,1.4599168E7,2.1488896E7,3.3459456E7,6.638381E7,6.647963E7,7.56812E7,5.0909696E7,1.335104E6,0E0,0E0,0E0,0E0,0E0,0E0,0E0,0E0,0E0,0E0,5.30472E6,0E0,3.848192E6,7.116864E6,1.3526416E7,2.3355744E7,2.2327768E7,6.442176E6,1.3008608E7,7.2594805E6,8.640864E6,6.90644E6,9.015808E6,0E0,0E0,0E0,0E0,0E0,0E0,0E0,0E0,0E0,0E0,0E0,0E0,0E0,0E0,0E0,0E0,0E0,0E0,0E0,0E0,0E0,0E0,0E0,0E0,0E0,0E0],"parents":[2147483647,0,0,1,1,2,2,3,3,4,4,5,5,6,6,7,7,8,8,9,9,10,10,11,11,12,12,13,13,14,14,16,16,17,17,18,18,19,19,20,20,21,21,22,22,23,23,24,24,25,25,36,36,38,38,39,39,40,40,41,41,42,42,43,43,44,44,45,45,46,46,47,47,48,48],"right_children":[2,4,6,8,10,12,14,16,18,20,22,24,26,28,30,-1,32,34,36,38,40,42,44,46,48,50,-1,-1,-1,-1,-1,-1,-1,-1,-1,-1,52,-1,54,56,58,60,62,64,66,68,70,72,74,-1,-1,-1,-1,-1,-1,-1,-1,-1,-1,-1,-1,-1,-1,-1,-1,-1,-1,-1,-1,-1,-1,-1,-1,-1,-1],"split_conditions":[5.1995E4,4.658E4,5.7269E4,4.4041E4,4.9009E4,1.131E3,6.0533E4,2.7E2,-5.9E1,-5.37E2,2.87E2,5.4118E4,5.4229E4,-7.6E1,6.2481E4,-3.6552307E2,4.3406E4,4.573E4,1.253E3,-1.779E3,4.7739E4,-1.06E3,5.004E4,-6.7E2,-1.599E3,5.279E4,3.0570648E2,3.0732935E2,4.2394052E2,4.6511472E2,5.867171E2,-2.9584433E2,-1.9699373E2,-2.783112E2,-2.1947374E2,-1.780642E2,4.3326E4,-2.039441E2,1.2E1,1.212E3,1.035E3,5.0337E4,5.0639E4,4.8670992E4,1.09E3,5.2314E4,5.2909E4,6.695968E3,5.4659E4,1.4856133E2,2.0851526E2,-1.4643944E2,-8.9474556E1,-1.5580173E2,-9.81525E1,-1.15434975E2,-7.221996E1,-6.916781E1,-2.7483805E1,-1.173755E2,-5.605984E1,-4.058639E1,1.5593078E1,-1.8280287E1,1.596746E1,5.1140186E1,9.18636E1,-2.6115025E1,3.0225006E1,8.835789E1,1.3324695E2,1.248412E2,5.436581E1,1.5028789E2,2.1504338E2],"split_indices":[4,4,4,4,4,14,4,14,14,14,14,4,4,14,4,0,4,4,14,14,4,14,4,14,14,4,0,0,0,0,0,0,0,0,0,0,10,0,0,14,14,4,4,12,14,4,4,13,4,0,0,0,0,0,0,0,0,0,0,0,0,0,0,0,0,0,0,0,0,0,0,0,0,0,0],"split_type":[0,0,0,0,0,0,0,0,0,0,0,0,0,0,0,0,0,0,0,0,0,0,0,0,0,0,0,0,0,0,0,0,0,0,0,0,0,0,0,0,0,0,0,0,0,0,0,0,0,0,0,0,0,0,0,0,0,0,0,0,0,0,0,0,0,0,0,0,0,0,0,0,0,0,0],"sum_hessian":[1.428E3,9.52E2,4.76E2,3.86E2,5.66E2,3E2,1.76E2,1.94E2,1.92E2,2.6E2,3.06E2,2.01E2,9.9E1,9.1E1,8.5E1,1.37E2,5.7E1,1.05E2,8.7E1,9.4E1,1.66E2,1.5E2,1.56E2,1.07E2,9.4E1,4.5E1,5.4E1,4.4E1,4.7E1,3.9E1,4.6E1,4.1E1,1.6E1,7.3E1,3.2E1,5.4E1,3.3E1,4.7E1,4.7E1,6.9E1,9.7E1,6.9E1,8.1E1,6.7E1,8.9E1,4.1E1,6.6E1,2.7E1,6.7E1,1.6E1,2.9E1,1.8E1,1.5E1,3.6E1,1.1E1,4.8E1,2.1E1,6.7E1,3E1,3.7E1,3.2E1,5.6E1,2.5E1,1.8E1,4.9E1,4.4E1,4.5E1,6E0,3.5E1,3.9E1,2.7E1,2E1,7E0,2E1,4.7E1],"tree_param":{"num_deleted":"0","num_feature":"16","num_nodes":"75","size_leaf_vector":"1"}},{"base_weights":[7.14367E0,-2.6816868E3,5.4179854E3,-5.410634E3,-9.9756305E2,3.5594844E3,9.012041E3,-6.8668086E3,-4.4330913E3,-1.9160306E3,1.9952736E2,2.6304778E3,5.277885E3,7.9439175E3,5.8012683E2,-3.655587E2,-2.8436163E2,-5.3916836E3,-3.1713467E3,-3.2679976E3,-1.2463839E3,-8.2881244E2,1.1444529E3,1.788725E3,3.9593547E3,4.1200024E3,3.244555E2,6.8446616E3,4.4309268E2,-5.6233013E3,-2.1859573E2,-3.628307E3,-2.5072974E3,-3.6723408E3,-1.2485131E2,-1.6417968E3,-5.7303516E2,-1.5140448E3,-2.8434128E2,5.818066E2,1.732005E3,4.7406244E2,2.226579E3,1.3705116E2,4.288503E3,1.7513687E2,2.275323E2,2.0080867E2,3.516092E2,-3.0726273E2,-2.50066E2,-1.9820303E2,-1.4319798E2,-1.4442299E2,-8.660032E1,-2.0581766E2,-1.570537E2,-1.0444628E2,-6.7267E1,-5.191363E1,-1.5497815E1,-9.474236E1,-5.604256E1,-3.258929E1,1.2590192E1,1.3023239E1,4.479552E1,6.419362E1,1.0011977E2,-1.8939852E1,3.981239E1,8.260643E1,1.3139566E2,1.840113E2,2.407327E2],"categories":[],"categories_nodes":[],"categories_segments":[],"categories_sizes":[],"default_left":[0,0,0,0,0,0,0,0,0,0,0,0,0,0,0,0,0,0,0,0,0,0,0,0,0,0,0,0,0,0,0,0,0,0,0,0,0,0,0,0,0,0,0,0,0,0,0,0,0,0,0,0,0,0,0,0,0,0,0,0,0,0,0,0,0,0,0,0,0,0,0,0,0,0,0],"id":3,"left_children":[1,3,5,7,9,11,13,15,17,19,21,23,25,27,-1,-1,-1,29,31,33,35,37,39,41,43,45,-1,47,-1,49,-1,51,53,55,-1,57,59,61,63,65,67,69,71,-1,73,-1,-1,-1,-1,-1,-1,-1,-1,-1,-1,-1,-1,-1,-1,-1,-1,-1,-1,-1,-1,-1,-1,-1,-1,-1,-1,-1,-1,-1,-1],"loss_changes":[2.1299479E10,4.489377E9,3.2141834E9,5.0051277E8,6.666728E8,5.0015846E8,3.643781E8,3.5994624E7,2.5624678E8,3.06458E8,2.574786E8,2.2893875E8,1.3033856E8,6.0427776E7,0E0,0E0,0E0,5.411328E6,2.1246528E7,2.6055808E7,6.056291E7,4.6951656E7,4.461267E7,7.435181E7,2.07264E7,8.768E3,0E0,3.05024E6,0E0,1.729024E6,0E0,3.274496E6,7.999232E6,4.053568E6,0E0,1.6409696E7,1.0326336E7,6.260688E6,1.4348418E7,7.033828E6,5.547296E6,9.644136E6,1.8251488E7,0E0,2.123008E6,0E0,0E0,0E0,0E0,0E0,0E0,0E0,0E0,0E0,0E0,0E0,0E0,0E0,0E0,0E0,0E0,0E0,0E0,0E0,0E0,0E0,0E0,0E0,0E0,0E0,0E0,0E0,0E0,0E0,0E0],"parents":[2147483647,0,0,1,1,2,2,3,3,4,4,5,5,6,6,7,7,8,8,9,9,10,10,11,11,12,12,13,13,17,17,18,18,19,19,20,20,21,21,22,22,23,23,24,24,25,25,27,27,29,29,31,31,32,32,33,33,35,35,36,36,37,37,38,38,39,39,40,40,41,41,42,42,44,44],"right_children":[2,4,6,8,10,12,14,16,18,20,22,24,26,28,-1,-1,-1,30,32,34,36,38,40,42,44,46,-1,48,-1,50,-1,52,54,56,-1,58,60,62,64,66,68,70,72,-1,74,-1,-1,-1,-1,-1,-1,-1,-1,-1,-1,-1,-1,-1,-1,-1,-1,-1,-1,-1,-1,-1,-1,-1,-1,-1,-1,-1,-1,-1,-1],"split_conditions":[5.2069E4,4.645E4,5.8027E4,4.3406E4,4.9541E4,1.131E3,6.2718E4,2.5E1,-8.3E1,-5.96E2,2.87E2,5.4774E4,5.5159E4,3.4E1,5.8012683E2,-3.655587E2,-2.8436163E2,-9.03E2,4.5287E4,4.8402E4,4.8565E4,-1.109E3,5.0745E4,-1.36E3,-1.551E3,5.335E4,3.244555E2,4.9791E4,4.4309268E2,4.5126E4,-2.1859573E2,1.253E3,-7.55E2,-1.779E3,-1.2485131E2,4.7491E4,3.38E2,5.0597E4,5.0639E4,4.8897457E4,3.7331465E3,4.6346E4,-4.8E1,1.3705116E2,5.6215E4,1.7513687E2,2.275323E2,2.0080867E2,3.516092E2,-3.0726273E2,-2.50066E2,-1.9820303E2,-1.4319798E2,-1.4442299E2,-8.660032E1,-2.0581766E2,-1.570537E2,-1.0444628E2,-6.7267E1,-5.191363E1,-1.5497815E1,-9.474236E1,-5.604256E1,-3.258929E1,1.2590192E1,1.3023239E1,4.479552E1,6.419362E1,1.0011977E2,-1.8939852E1,3.981239E1,8.260643E1,1.3139566E2,1.840113E2,2.407327E2],"split_indices":[4,4,4,4,4,14,4,14,14,14,14,4,4,14,0,0,0,14,4,4,4,14,4,14,14,4,0,9,0,4,0,14,15,14,0,4,14,4,4,11,13,9,14,0,4,0,0,0,0,0,0,0,0,0,0,0,0,0,0,0,0,0,0,0,0,0,0,0,0,0,0,0,0,0,0],"split_type":[0,0,0,0,0,0,0,0,0,0,0,0,0,0,0,0,0,0,0,0,0,0,0,0,0,0,0,0,0,0,0,0,0,0,0,0,0,0,0,0,0,0,0,0,0,0,0,0,0,0,0,0,0,0,0,0,0,0,0,0,0,0,0,0,0,0,0,0,0,0,0,0,0,0,0],"sum_hessian":[1.462E3,9.77E2,4.85E2,3.72E2,6.05E2,3.21E2,1.64E2,1.47E2,2.25E2,3.42E2,2.63E2,2.1E2,1.11E2,1.19E2,4.5E1,1.03E2,4.4E1,1.26E2,9.9E1,1.12E2,2.3E2,1.26E2,1.37E2,1.3E2,8E1,5.9E1,5.2E1,5.8E1,6.1E1,9.9E1,2.7E1,5.6E1,4.3E1,7.1E1,4.1E1,1.44E2,8.6E1,5.5E1,7.1E1,7.1E1,6.6E1,3.3E1,9.7E1,1.9E1,6.1E1,2.8E1,3.1E1,5E0,5.3E1,4.9E1,5E1,3.6E1,2E1,2.7E1,1.6E1,3.5E1,3.6E1,5.5E1,8.9E1,3E1,5.6E1,2.6E1,2.9E1,4.2E1,2.9E1,3.6E1,3.5E1,2.7E1,3.9E1,9E0,2.4E1,4.2E1,5.5E1,3.2E1,2.9E1],"tree_param":{"num_deleted":"0","num_feature":"16","num_nodes":"75","size_leaf_vector":"1"}},{"base_weights":[6.038786E0,-2.6117917E3,5.072112E3,-5.0609966E3,-9.730161E2,3.3344292E3,8.612705E3,-6.407323E3,-4.1473643E3,-2.096144E3,-4.939828E1,2.3069253E3,4.7002476E3,6.9452964E3,5.0207358E2,-3.6291562E2,-5.8556616E3,-3.2184102E3,-5.02499E3,-1.5684681E3,-2.8801133E3,4.7088818E2,-1.161602E3,2.7688682E3,8.228675E2,5.3900127E3,3.4027676E3,3.6358545E2,2.2720213E2,-2.3782954E2,-3.1243262E2,-3.5966208E3,-2.5014827E3,-5.2297803E3,-1.7026913E2,-1.9516107E3,-1.1008561E3,-3.5099465E3,-2.288824E3,-3.3623943E0,1.4812982E3,-1.450378E3,-1.1921033E2,2.144344E3,3.4536985E3,-4.5780903E1,1.3166309E3,2.351772E2,3.056223E2,8.700381E1,1.878607E2,-1.5909499E2,-2.0747472E2,-1.3882768E2,-8.265575E1,-2.7617096E2,-2.1282335E2,-1.07176674E2,-6.52288E1,-6.466508E1,-1.35253315E1,-1.8737854E2,-1.0319167E2,-1.371681E2,-8.495033E1,-1.6235395E1,2.0598253E1,5.016736E1,8.916148E1,-8.7745125E1,-3.6120262E1,-3.258064E1,2.11559E1,1.2912589E2,7.598541E1,1.9327882E2,1.3198386E2,1.5722208E1,-3.2839184E1,7.7874504E1,1.5136172E1],"categories":[],"categories_nodes":[],"categories_segments":[],"categories_sizes":[],"default_left":[0,0,0,0,0,0,0,0,0,0,0,0,0,0,0,0,0,0,0,0,0,0,0,0,0,0,0,0,0,0,0,0,0,0,0,0,0,0,0,0,0,0,0,0,0,0,0,0,0,0,0,0,0,0,0,0,0,0,0,0,0,0,0,0,0,0,0,0,0,0,0,0,0,0,0,0,0,0,0,0,0],"id":4,"left_children":[1,3,5,7,9,11,13,15,17,19,21,23,25,27,-1,-1,29,31,33,35,37,39,41,43,45,47,49,-1,-1,-1,-1,51,53,55,-1,57,59,61,63,65,67,69,71,73,75,77,79,-1,-1,-1,-1,-1,-1,-1,-1,-1,-1,-1,-1,-1,-1,-1,-1,-1,-1,-1,-1,-1,-1,-1,-1,-1,-1,-1,-1,-1,-1,-1,-1,-1,-1],"loss_changes":[1.923006E10,3.8321705E9,3.0105805E9,4.4453376E8,5.9532986E8,4.5648307E8,3.161948E8,2.9323776E7,1.7215488E8,1.0262566E8,1.8340506E8,1.2934682E8,1.0874214E8,2.809216E7,0E0,0E0,1.2605184E7,2.2184832E7,2.0996096E7,2.5979712E7,3.0324416E7,1.0350963E8,3.0229712E7,5.50368E7,2.0219026E7,1.6378112E7,2.4107008E7,0E0,0E0,0E0,0E0,3.533952E6,5.444096E6,5.640704E6,0E0,7.758592E6,1.1315176E7,8.759296E6,1.0351872E7,1.9886372E7,8.167808E6,1.6245168E7,6.9166805E6,1.769712E7,1.2594432E7,4.168329E6,6.854596E6,0E0,0E0,0E0,0E0,0E0,0E0,0E0,0E0,0E0,0E0,0E0,0E0,0E0,0E0,0E0,0E0,0E0,0E0,0E0,0E0,0E0,0E0,0E0,0E0,0E0,0E0,0E0,0E0,0E0,0E0,0E0,0E0,0E0,0E0],"parents":[2147483647,0,0,1,1,2,2,3,3,4,4,5,5,6,6,7,7,8,8,9,9,10,10,11,11,12,12,13,13,16,16,17,17,18,18,19,19,20,20,21,21,22,22,23,23,24,24,25,25,26,26,31,31,32,32,33,33,35,35,36,36,37,37,38,38,39,39,40,40,41,41,42,42,43,43,44,44,45,45,46,46],"right_children":[2,4,6,8,10,12,14,16,18,20,22,24,26,28,-1,-1,30,32,34,36,38,40,42,44,46,48,50,-1,-1,-1,-1,52,54,56,-1,58,60,62,64,66,68,70,72,74,76,78,80,-1,-1,-1,-1,-1,-1,-1,-1,-1,-1,-1,-1,-1,-1,-1,-1,-1,-1,-1,-1,-1,-1,-1,-1,-1,-1,-1,-1,-1,-1,-1,-1,-1,-1],"split_conditions":[5.1995E4,4.658E4,5.8027E4,4.3406E4,4.9009E4,5.4659E4,6.0533E4,4.1877E4,4.7255332E4,4.9071668E4,5.0432332E4,5.35855E4,5.5058332E4,6.1705E4,5.0207358E2,-3.6291562E2,4.3518168E4,4.5479E4,5.2883082E4,4.7785E4,4.7785E4,5.0639E4,5.6167E4,5.3111E4,5.3207E4,5.6215E4,4.8608E4,3.6358545E2,2.2720213E2,-2.3782954E2,-3.1243262E2,4.4545668E4,-7.55E2,4.573E4,-1.7026913E2,5.0699832E4,5.0365918E4,5.5248875E4,4.8626E4,4.8827082E4,4.8982E4,5.1094E4,5.0745E4,5.0501832E4,5.1560832E4,5.1504E3,5.7643668E4,2.351772E2,3.056223E2,8.700381E1,1.878607E2,-1.5909499E2,-2.0747472E2,-1.3882768E2,-8.265575E1,-2.7617096E2,-2.1282335E2,-1.07176674E2,-6.52288E1,-6.466508E1,-1.35253315E1,-1.8737854E2,-1.0319167E2,-1.371681E2,-8.495033E1,-1.6235395E1,2.0598253E1,5.016736E1,8.916148E1,-8.7745125E1,-3.6120262E1,-3.258064E1,2.11559E1,1.2912589E2,7.598541E1,1.9327882E2,1.3198386E2,1.5722208E1,-3.2839184E1,7.7874504E1,1.5136172E1],"split_indices":[4,4,4,4,4,4,4,4,10,10,10,10,10,10,0,0,10,4,11,4,4,4,9,4,4,4,9,0,0,0,0,10,15,4,0,11,11,11,8,11,11,4,4,10,10,13,10,0,0,0,0,0,0,0,0,0,0,0,0,0,0,0,0,0,0,0,0,0,0,0,0,0,0,0,0,0,0,0,0,0,0],"split_type":[0,0,0,0,0,0,0,0,0,0,0,0,0,0,0,0,0,0,0,0,0,0,0,0,0,0,0,0,0,0,0,0,0,0,0,0,0,0,0,0,0,0,0,0,0,0,0,0,0,0,0,0,0,0,0,0,0,0,0,0,0,0,0,0,0,0,0,0,0,0,0,0,0,0,0,0,0,0,0,0,0],"sum_hessian":[1.448E3,9.55E2,4.93E2,3.82E2,5.73E2,3.32E2,1.61E2,1.52E2,2.3E2,2.58E2,3.15E2,1.91E2,1.41E2,7.7E1,8.4E1,5.5E1,9.7E1,1.14E2,1.16E2,1.56E2,1.02E2,2.15E2,1E2,1.45E2,4.6E1,9E1,5.1E1,6.6E1,1.1E1,2.9E1,6.8E1,7.2E1,4.2E1,1.01E2,1.5E1,8.4E1,7.2E1,4.7E1,5.5E1,1.47E2,6.8E1,7.8E1,2.2E1,7.8E1,6.7E1,1.7E1,2.9E1,5E1,4E1,1E1,4.1E1,4.5E1,2.7E1,3E1,1.2E1,7.4E1,2.7E1,6.3E1,2.1E1,5.8E1,1.4E1,3.9E1,8E0,2.9E1,2.6E1,8.3E1,6.4E1,2.8E1,4E1,5.4E1,2.4E1,1.1E1,1.1E1,4.4E1,3.4E1,4.2E1,2.5E1,1.1E1,6E0,2.3E1,6E0],"tree_param":{"num_deleted":"0","num_feature":"16","num_nodes":"81","size_leaf_vector":"1"}},{"base_weights":[6.0374043E1,-2.3861472E3,4.8260767E3,-4.5172495E3,-6.43486E2,3.3069004E3,8.154857E3,-5.865797E3,-3.4604355E3,-1.4691943E3,3.1030353E2,2.311154E3,4.6482856E3,7.240221E3,5.1592346E2,-6.1596973E3,-2.0057999E2,-4.624602E3,-2.7912395E3,-2.6945232E3,-8.8029193E2,-6.140503E2,1.1022653E3,1.189503E3,3.1818298E3,3.4853428E3,2.8225693E2,6.1621074E3,4.1520224E2,-3.293985E2,-2.732246E2,-2.5272859E2,-2.0115483E2,-3.445572E3,-2.342114E3,-1.5456248E2,-2.2581887E3,-1.2548401E3,-4.4324905E2,-1.2959237E3,-1.7934962E2,6.643703E2,1.5776727E3,3.6221405E2,1.6475897E3,2.609864E3,1.9073851E2,1.2623537E2,3.8455168E3,2.0513257E2,3.200024E2,-1.818923E2,-1.1029594E2,-1.344956E2,-8.610845E1,-1.2486227E2,-8.119958E1,-8.098158E1,-4.8785744E1,-4.6967052E1,-1.2717123E1,-9.458074E1,-4.6751045E1,-2.6571253E1,1.1488681E1,1.4482764E1,4.8700363E1,4.1642586E1,8.667681E1,-1.1495107E0,4.1299927E1,6.349484E1,1.1414109E2,1.0260128E2,1.4907823E2,1.5804433E2,2.213483E2],"categories":[],"categories_nodes":[],"categories_segments":[],"categories_sizes":[],"default_left":[0,0,0,0,0,0,0,0,0,0,0,0,0,0,0,0,0,0,0,0,0,0,0,0,0,0,0,0,0,0,0,0,0,0,0,0,0,0,0,0,0,0,0,0,0,0,0,0,0,0,0,0,0,0,0,0,0,0,0,0,0,0,0,0,0,0,0,0,0,0,0,0,0,0,0,0,0],"id":5,"left_children":[1,3,5,7,9,11,13,15,17,19,21,23,25,27,-1,29,-1,31,33,35,37,39,41,43,45,47,-1,49,-1,-1,-1,-1,-1,51,53,-1,55,57,59,61,63,65,67,69,71,73,-1,-1,75,-1,-1,-1,-1,-1,-1,-1,-1,-1,-1,-1,-1,-1,-1,-1,-1,-1,-1,-1,-1,-1,-1,-1,-1,-1,-1,-1,-1],"loss_changes":[1.7185802E10,3.6143227E9,2.5015327E9,6.0392346E8,4.233714E8,4.5006592E8,2.340014E8,7.937382E7,1.802967E8,2.054482E8,1.8369013E8,1.9153357E8,1.49579E8,7.843072E7,0E0,1.2530176E7,0E0,2.682112E6,3.894989E7,9.117632E6,3.1527568E7,3.415109E7,2.7055712E7,3.313136E7,3.0589568E7,1.4510272E7,0E0,3.14368E6,0E0,0E0,0E0,0E0,0E0,6.990848E6,1.6497472E7,0E0,3.221296E6,9.110816E6,8.38275E6,7.905416E6,1.0493178E7,8.071592E6,5.985744E6,5.914577E6,1.0776288E7,6.736896E6,0E0,0E0,5.511936E6,0E0,0E0,0E0,0E0,0E0,0E0,0E0,0E0,0E0,0E0,0E0,0E0,0E0,0E0,0E0,0E0,0E0,0E0,0E0,0E0,0E0,0E0,0E0,0E0,0E0,0E0,0E0,0E0],"parents":[2147483647,0,0,1,1,2,2,3,3,4,4,5,5,6,6,7,7,8,8,9,9,10,10,11,11,12,12,13,13,15,15,17,17,18,18,19,19,20,20,21,21,22,22,23,23,24,24,25,25,27,27,33,33,34,34,36,36,37,37,38,38,39,39,40,40,41,41,42,42,43,43,44,44,45,45,48,48],"right_children":[2,4,6,8,10,12,14,16,18,20,22,24,26,28,-1,30,-1,32,34,36,38,40,42,44,46,48,-1,50,-1,-1,-1,-1,-1,52,54,-1,56,58,60,62,64,66,68,70,72,74,-1,-1,76,-1,-1,-1,-1,-1,-1,-1,-1,-1,-1,-1,-1,-1,-1,-1,-1,-1,-1,-1,-1,-1,-1,-1,-1,-1,-1,-1,-1],"split_conditions":[5.2121E4,4.7165E4,5.8401E4,4.4041E4,4.9616E4,5.499E4,6.2481E4,7.22E2,-1.06E3,-6.2E2,2.87E2,1.48E2,3.2E2,5.36E2,5.1592346E2,4.2628E4,-2.0057999E2,4.573E4,4.5479E4,4.8402E4,4.8565E4,-1.314E3,5.0745E4,-1.599E3,1.346E3,-1.551E3,2.8225693E2,5.499E4,4.1520224E2,-3.293985E2,-2.732246E2,-2.5272859E2,-2.0115483E2,1.526E3,1.035E3,-1.5456248E2,-1.381E3,4.98E2,1.89E2,5.0242E4,5.0639E4,4.8881332E4,6.96E2,5.3466E4,5.3946E4,5.2909E4,1.9073851E2,1.2623537E2,5.6718E4,2.0513257E2,3.200024E2,-1.818923E2,-1.1029594E2,-1.344956E2,-8.610845E1,-1.2486227E2,-8.119958E1,-8.098158E1,-4.8785744E1,-4.6967052E1,-1.2717123E1,-9.458074E1,-4.6751045E1,-2.6571253E1,1.1488681E1,1.4482764E1,4.8700363E1,4.1642586E1,8.667681E1,-1.1495107E0,4.1299927E1,6.349484E1,1.1414109E2,1.0260128E2,1.4907823E2,1.5804433E2,2.213483E2],"split_indices":[4,4,4,4,4,4,4,14,14,14,14,14,14,14,0,4,0,4,4,4,4,14,4,14,14,14,0,7,0,0,0,0,0,14,14,0,14,14,14,4,4,11,14,4,4,4,0,0,4,0,0,0,0,0,0,0,0,0,0,0,0,0,0,0,0,0,0,0,0,0,0,0,0,0,0,0,0],"split_type":[0,0,0,0,0,0,0,0,0,0,0,0,0,0,0,0,0,0,0,0,0,0,0,0,0,0,0,0,0,0,0,0,0,0,0,0,0,0,0,0,0,0,0,0,0,0,0,0,0,0,0,0,0,0,0,0,0,0,0,0,0,0,0,0,0,0,0,0,0,0,0,0,0,0,0,0,0],"sum_hessian":[1.472E3,9.73E2,4.99E2,4.37E2,5.36E2,3.44E2,1.55E2,1.9E2,2.47E2,2.87E2,2.49E2,1.99E2,1.45E2,1.12E2,4.3E1,1.62E2,2.8E1,8.8E1,1.59E2,9.2E1,1.95E2,1.15E2,1.34E2,8.8E1,1.11E2,6.9E1,7.6E1,5.9E1,5.3E1,9.5E1,6.7E1,4.7E1,4.1E1,6.2E1,9.7E1,4.5E1,4.7E1,1.04E2,9.1E1,4.4E1,7.1E1,7.1E1,6.3E1,3.2E1,5.6E1,6.1E1,5E1,2.1E1,4.8E1,8E0,5.1E1,5.2E1,1E1,6E1,3.7E1,3.2E1,1.5E1,4.3E1,6.1E1,2.4E1,6.7E1,1.5E1,2.9E1,3.8E1,3.3E1,3.3E1,3.8E1,1.2E1,5.1E1,1.8E1,1.4E1,3.7E1,1.9E1,2.7E1,3.4E1,2.5E1,2.3E1],"tree_param":{"num_deleted":"0","num_feature":"16","num_nodes":"77","size_leaf_vector":"1"}},{"base_weights":[-6.249105E1,-2.3685469E3,4.544985E3,-4.3949746E3,-7.2403894E2,2.7284556E3,7.2934126E3,-5.601844E3,-3.3349924E3,-1.9762323E3,-1.20155556E2,1.6769375E3,3.8197188E3,6.441573E3,4.9285205E2,-6.1335664E3,-4.3949536E3,-4.1436167E3,-2.3440544E3,-2.7088262E3,-1.1212618E3,-6.803692E2,1.0295266E3,9.125433E2,2.5029724E3,3.1027393E3,2.4719739E2,5.4334663E3,3.7664255E2,-3.344118E2,-2.8072473E2,-2.294207E2,-1.3406819E2,-2.2193925E2,-1.7318889E2,-1.4951044E2,-1.9884196E3,-2.8449397E3,-9.056838E1,-1.5948427E3,-5.8412836E2,-1.0610984E3,-1.21507164E2,4.8209818E2,1.3928276E3,-2.7609375E0,1.3788843E3,9.016376E2,2.746708E3,1.2276546E2,1.7172449E2,4.5667026E3,3.1586795E2,-1.2205082E2,-8.3976814E1,-1.4735341E2,-1.0145621E2,-8.964089E1,-4.279614E1,-6.204171E0,-4.5938114E1,-7.080297E1,-3.7749527E1,-2.7797659E1,1.0133767E1,1.2064439E1,5.059201E1,4.0098354E1,7.81993E1,-1.3163101E1,2.1187773E1,3.6277065E1,7.5697464E1,2.4359356E1,5.8289925E1,1.6721957E2,1.1406054E2,1.4018726E2,2.3856395E2],"categories":[],"categories_nodes":[],"categories_segments":[],"categories_sizes":[],"default_left":[0,0,0,0,0,0,0,0,0,0,0,0,0,0,0,0,0,0,0,0,0,0,0,0,0,0,0,0,0,0,0,0,0,0,0,0,0,0,0,0,0,0,0,0,0,0,0,0,0,0,0,0,0,0,0,0,0,0,0,0,0,0,0,0,0,0,0,0,0,0,0,0,0,0,0,0,0,0,0],"id":6,"left_children":[1,3,5,7,9,11,13,15,17,19,21,23,25,27,-1,29,31,33,35,37,39,41,43,45,47,49,-1,51,-1,-1,-1,-1,-1,-1,-1,-1,53,55,-1,57,59,61,63,65,67,69,71,73,75,-1,-1,77,-1,-1,-1,-1,-1,-1,-1,-1,-1,-1,-1,-1,-1,-1,-1,-1,-1,-1,-1,-1,-1,-1,-1,-1,-1,-1,-1],"loss_changes":[1.5417156E10,3.2193213E9,2.3965174E9,5.352361E8,4.043179E8,3.298066E8,3.557929E8,1.0203034E8,1.7698867E8,1.0594656E8,2.3385291E8,9.305942E7,9.992448E7,1.2078746E8,0E0,1.89184E6,9.244416E6,1.0108928E7,1.8641792E7,6.206848E6,1.9927032E7,5.1788064E7,2.29952E7,3.4151456E7,2.5624896E7,1.089728E7,0E0,3.2439552E7,0E0,0E0,0E0,0E0,0E0,0E0,0E0,0E0,5.965376E6,6.01664E5,0E0,4.755592E6,6.043756E6,1.4685856E7,1.4196693E7,6.006504E6,5.925792E6,3.2225662E6,3.578256E6,6.36171E5,9.619776E6,0E0,0E0,2.490816E6,0E0,0E0,0E0,0E0,0E0,0E0,0E0,0E0,0E0,0E0,0E0,0E0,0E0,0E0,0E0,0E0,0E0,0E0,0E0,0E0,0E0,0E0,0E0,0E0,0E0,0E0,0E0],"parents":[2147483647,0,0,1,1,2,2,3,3,4,4,5,5,6,6,7,7,8,8,9,9,10,10,11,11,12,12,13,13,15,15,16,16,17,17,18,18,19,19,20,20,21,21,22,22,23,23,24,24,25,25,27,27,36,36,37,37,39,39,40,40,41,41,42,42,43,43,44,44,45,45,46,46,47,47,48,48,51,51],"right_children":[2,4,6,8,10,12,14,16,18,20,22,24,26,28,-1,30,32,34,36,38,40,42,44,46,48,50,-1,52,-1,-1,-1,-1,-1,-1,-1,-1,54,56,-1,58,60,62,64,66,68,70,72,74,76,-1,-1,78,-1,-1,-1,-1,-1,-1,-1,-1,-1,-1,-1,-1,-1,-1,-1,-1,-1,-1,-1,-1,-1,-1,-1,-1,-1,-1,-1],"split_conditions":[5.1995E4,4.7021E4,5.7168E4,4.4041E4,-5.28E2,3.85E2,6.2481E4,2.04E2,1.26E2,4.9303E4,5.0078E4,5.4118E4,5.4597E4,1.7E1,4.9285205E2,4.2233E4,1.564E3,-1.069E3,4.5227E4,1.1E1,5.0597E4,4.906E4,7.22E2,-1.438E3,-2.657E3,1.222E3,2.4719739E2,5.9233E4,3.7664255E2,-3.344118E2,-2.8072473E2,-2.294207E2,-1.3406819E2,-2.2193925E2,-1.7318889E2,-1.4951044E2,4.7847625E4,5.4947332E4,-9.056838E1,5.3859E4,5.3656E4,4.98E2,4.58E2,4.9877457E4,5.0529E4,5.3207E4,5.2403E4,5.499E4,3E0,1.2276546E2,1.7172449E2,4.9791E4,3.1586795E2,-1.2205082E2,-8.3976814E1,-1.4735341E2,-1.0145621E2,-8.964089E1,-4.279614E1,-6.204171E0,-4.5938114E1,-7.080297E1,-3.7749527E1,-2.7797659E1,1.0133767E1,1.2064439E1,5.059201E1,4.0098354E1,7.81993E1,-1.3163101E1,2.1187773E1,3.6277065E1,7.5697464E1,2.4359356E1,5.8289925E1,1.6721957E2,1.1406054E2,1.4018726E2,2.3856395E2],"split_indices":[4,4,4,4,14,14,4,14,14,4,4,4,4,0,0,4,14,14,4,0,4,4,14,14,14,14,0,4,0,0,0,0,0,0,0,0,11,11,0,12,6,14,14,11,4,4,4,4,0,0,0,9,0,0,0,0,0,0,0,0,0,0,0,0,0,0,0,0,0,0,0,0,0,0,0,0,0,0,0],"split_type":[0,0,0,0,0,0,0,0,0,0,0,0,0,0,0,0,0,0,0,0,0,0,0,0,0,0,0,0,0,0,0,0,0,0,0,0,0,0,0,0,0,0,0,0,0,0,0,0,0,0,0,0,0,0,0,0,0,0,0,0,0,0,0,0,0,0,0,0,0,0,0,0,0,0,0,0,0,0,0],"sum_hessian":[1.449E3,9.66E2,4.83E2,4.32E2,5.34E2,2.92E2,1.91E2,2E2,2.32E2,1.73E2,3.61E2,1.5E2,1.42E2,1.46E2,4.5E1,1.36E2,6.4E1,1.26E2,1.06E2,9.2E1,8.1E1,2.43E2,1.18E2,7.9E1,7.1E1,8.9E1,5.3E1,7.9E1,6.7E1,6E1,7.6E1,5.6E1,8E0,8.4E1,4.2E1,3.5E1,7.1E1,7.8E1,1.4E1,4.2E1,3.9E1,1.44E2,9.9E1,4.8E1,7E1,2.7E1,5.2E1,1E1,6.1E1,3.3E1,5.6E1,4.3E1,3.6E1,2.6E1,4.5E1,6.7E1,1.1E1,3.2E1,1E1,1.7E1,2.2E1,6.5E1,7.9E1,4.2E1,5.7E1,3.4E1,1.4E1,1.7E1,5.3E1,1.7E1,1E1,1E1,4.2E1,5E0,5E0,2.4E1,3.7E1,6E0,3.7E1],"tree_param":{"num_deleted":"0","num_feature":"16","num_nodes":"79","size_leaf_vector":"1"}},{"base_weights":[-3.336314E1,-2.2038896E3,4.348036E3,-4.6080396E3,-9.5180554E2,2.8475085E3,7.554705E3,-5.531333E3,-3.752605E3,-1.9940393E3,-1.7178279E2,2.0039971E3,4.2106772E3,6.164143E3,8.582542E3,-2.9798303E2,-2.2391922E2,-2.3538504E2,-3.004174E3,-2.9224697E3,-1.415671E3,-1.0393593E3,5.3157996E2,8.457149E2,2.7881426E3,3.2143633E3,2.626524E2,2.4353352E2,3.416485E2,3.6228293E2,4.7000912E2,-1.6603113E2,-2.2418813E3,-3.2721072E3,-2.4028867E3,-1.8471508E3,-1.1014473E3,-1.5658354E3,-6.3915845E2,2.977464E1,1.159887E3,2.2779555E2,1.3646488E3,2.3200383E3,1.7606352E2,1.1070623E2,3.51016E3,-1.18531944E2,-7.1248146E1,-1.7672537E2,-1.2599218E2,-1.2952238E2,-8.945687E1,-1.0600537E2,-6.893618E1,-6.6163055E1,-2.487276E1,-1.004526E2,-4.6456593E1,-4.4258167E1,6.7866898E0,-1.7425934E1,1.5299701E1,2.9305296E1,6.671679E1,1.3665982E0,6.795919E1,5.6953552E1,9.8941765E1,9.09778E1,1.3994882E2,1.1863554E2,1.867601E2],"categories":[],"categories_nodes":[],"categories_segments":[],"categories_sizes":[],"default_left":[0,0,0,0,0,0,0,0,0,0,0,0,0,0,0,0,0,0,0,0,0,0,0,0,0,0,0,0,0,0,0,0,0,0,0,0,0,0,0,0,0,0,0,0,0,0,0,0,0,0,0,0,0,0,0,0,0,0,0,0,0,0,0,0,0,0,0,0,0,0,0,0,0],"id":7,"left_children":[1,3,5,7,9,11,13,15,17,19,21,23,25,27,29,-1,-1,-1,31,33,35,37,39,41,43,45,-1,-1,-1,-1,-1,-1,47,49,51,53,55,57,59,61,63,65,67,69,-1,-1,71,-1,-1,-1,-1,-1,-1,-1,-1,-1,-1,-1,-1,-1,-1,-1,-1,-1,-1,-1,-1,-1,-1,-1,-1,-1,-1],"loss_changes":[1.392263E10,2.9425966E9,2.3121582E9,2.438313E8,5.2402022E8,3.7331072E8,1.6720282E8,4.5019136E7,1.1238016E8,1.4406746E8,2.263343E8,1.856519E8,1.1396838E8,2.641024E7,2.5893376E7,0E0,0E0,0E0,1.7160064E7,1.121184E7,2.128512E7,3.397451E7,6.459934E7,2.694502E7,3.404109E7,1.2050624E7,0E0,0E0,0E0,0E0,0E0,0E0,9.2624E4,2.93664E6,6.60208E5,6.154704E6,1.300688E7,1.8169072E7,1.8420436E7,1.2123214E7,8.326432E6,9.034799E6,4.118808E6,1.3603232E7,0E0,0E0,3.935552E6,0E0,0E0,0E0,0E0,0E0,0E0,0E0,0E0,0E0,0E0,0E0,0E0,0E0,0E0,0E0,0E0,0E0,0E0,0E0,0E0,0E0,0E0,0E0,0E0,0E0,0E0],"parents":[2147483647,0,0,1,1,2,2,3,3,4,4,5,5,6,6,7,7,8,8,9,9,10,10,11,11,12,12,13,13,14,14,18,18,19,19,20,20,21,21,22,22,23,23,24,24,25,25,32,32,33,33,34,34,35,35,36,36,37,37,38,38,39,39,40,40,41,41,42,42,43,43,46,46],"right_children":[2,4,6,8,10,12,14,16,18,20,22,24,26,28,30,-1,-1,-1,32,34,36,38,40,42,44,46,-1,-1,-1,-1,-1,-1,48,50,52,54,56,58,60,62,64,66,68,70,-1,-1,72,-1,-1,-1,-1,-1,-1,-1,-1,-1,-1,-1,-1,-1,-1,-1,-1,-1,-1,-1,-1,-1,-1,-1,-1,-1,-1],"split_conditions":[5.1995E4,4.599E4,5.8401E4,4.3406E4,4.8719E4,5.5159E4,6.0802E4,2.5E1,-9.03E2,-5.37E2,1.48E2,-4.8E1,7.79E2,-7.6E1,1.12E2,-2.9798303E2,-2.2391922E2,-2.3538504E2,1.253E3,4.7739E4,4.7271E4,-1.259E3,5.0242E4,-1.36E3,1.442E3,-1.551E3,2.626524E2,2.4353352E2,3.416485E2,3.6228293E2,4.7000912E2,-1.6603113E2,4.4069332E4,9E0,-1.109E3,4.9232793E4,1.176E3,5.038E4,5.0639E4,4.9261E4,4E0,5.439E4,5.4333E4,5.3022E4,1.7606352E2,1.1070623E2,5.5519E4,-1.18531944E2,-7.1248146E1,-1.7672537E2,-1.2599218E2,-1.2952238E2,-8.945687E1,-1.0600537E2,-6.893618E1,-6.6163055E1,-2.487276E1,-1.004526E2,-4.6456593E1,-4.4258167E1,6.7866898E0,-1.7425934E1,1.5299701E1,2.9305296E1,6.671679E1,1.3665982E0,6.795919E1,5.6953552E1,9.8941765E1,9.09778E1,1.3994882E2,1.1863554E2,1.867601E2],"split_indices":[4,4,4,4,4,4,4,14,14,14,14,14,14,14,14,0,0,0,14,4,4,14,4,14,14,14,0,0,0,0,0,0,10,0,14,11,14,4,4,4,0,4,4,4,0,0,4,0,0,0,0,0,0,0,0,0,0,0,0,0,0,0,0,0,0,0,0,0,0,0,0,0,0],"split_type":[0,0,0,0,0,0,0,0,0,0,0,0,0,0,0,0,0,0,0,0,0,0,0,0,0,0,0,0,0,0,0,0,0,0,0,0,0,0,0,0,0,0,0,0,0,0,0,0,0,0,0,0,0,0,0,0,0,0,0,0,0,0,0,0,0,0,0,0,0,0,0,0,0],"sum_hessian":[1.462E3,9.78E2,4.84E2,3.34E2,6.44E2,3.31E2,1.53E2,1.58E2,1.76E2,2.75E2,3.69E2,2.06E2,1.25E2,6.8E1,8.5E1,1.09E2,4.9E1,7.5E1,1.01E2,1.04E2,1.71E2,1.65E2,2.04E2,8.4E1,1.22E2,6.6E1,5.9E1,2.6E1,4.2E1,3.6E1,4.9E1,6.9E1,3.2E1,5.9E1,4.5E1,7E1,1.01E2,7E1,9.5E1,1.14E2,9E1,3.9E1,4.5E1,7.7E1,4.5E1,1.7E1,4.9E1,2.6E1,6E0,4.1E1,1.8E1,3.2E1,1.3E1,4.2E1,2.8E1,7.3E1,2.8E1,4E1,3E1,7.2E1,2.3E1,4.8E1,6.6E1,2.2E1,6.8E1,3.4E1,5E0,3.5E1,1E1,4E1,3.7E1,1E1,3.9E1],"tree_param":{"num_deleted":"0","num_feature":"16","num_nodes":"73","size_leaf_vector":"1"}},{"base_weights":[2.9242358E0,-2.0630806E3,4.101059E3,-3.9520134E3,-6.972369E2,2.7951348E3,7.053496E3,-4.9982803E3,-3.0447227E3,-1.4446165E3,1.7930354E2,2.0093029E3,3.9735505E3,6.298295E3,4.4769797E2,-2.76854E2,-4.0186118E3,-3.9070134E3,-2.3069219E3,-2.4296873E3,-8.97244E2,-5.940218E2,8.887628E2,1.1254264E3,2.8325305E3,3.1369458E3,2.5316711E2,5.4174136E3,3.6421704E2,-2.461718E2,-3.4065195E3,-2.1294518E2,-1.6911406E2,-2.7411582E3,-1.9940791E3,-2.7505298E3,-1.9547506E3,-1.1779862E3,-4.5382855E2,-1.2029199E3,-1.988253E2,5.637212E2,1.3034135E3,2.8534143E2,1.510894E3,2.145142E3,3.2166257E3,2.090934E3,3.4113257E3,2.0427678E2,2.9148877E2,-1.775018E2,-1.0601349E2,-1.459418E2,-9.824403E1,-1.2253959E2,-8.1349106E1,-1.5148993E2,-1.1381481E2,-1.07835365E2,-7.357427E1,-7.621421E1,-4.3075634E1,-2.9052372E1,1.1347708E1,-8.650524E1,-4.3439205E1,-2.2419209E1,1.0354651E1,2.3226454E1,8.382941E1,1.8241842E1,6.917803E1,-7.0724044E0,3.2443157E1,5.510638E1,1.0722688E2,6.558046E1,1.20352356E2,1.2673638E2,1.7499826E2,6.0700764E1,1.20113625E2,1.3306438E2,1.8692805E2],"categories":[],"categories_nodes":[],"categories_segments":[],"categories_sizes":[],"default_left":[0,0,0,0,0,0,0,0,0,0,0,0,0,0,0,0,0,0,0,0,0,0,0,0,0,0,0,0,0,0,0,0,0,0,0,0,0,0,0,0,0,0,0,0,0,0,0,0,0,0,0,0,0,0,0,0,0,0,0,0,0,0,0,0,0,0,0,0,0,0,0,0,0,0,0,0,0,0,0,0,0,0,0,0,0],"id":8,"left_children":[1,3,5,7,9,11,13,15,17,19,21,23,25,27,-1,-1,29,31,33,35,37,39,41,43,45,47,-1,49,-1,-1,51,-1,-1,53,55,57,59,61,63,65,67,69,71,73,75,77,79,81,83,-1,-1,-1,-1,-1,-1,-1,-1,-1,-1,-1,-1,-1,-1,-1,-1,-1,-1,-1,-1,-1,-1,-1,-1,-1,-1,-1,-1,-1,-1,-1,-1,-1,-1,-1,-1],"loss_changes":[1.2327605E10,2.4946716E9,1.8618445E9,3.7018317E8,3.6908512E8,3.0686797E8,1.5745331E8,7.64544E7,1.3094989E8,1.6173664E8,1.431751E8,1.467038E8,1.0719859E8,5.6080896E7,0E0,0E0,2.1995904E7,4.059264E6,1.0971008E7,1.1079936E7,2.3988864E7,2.9839992E7,1.759496E7,3.2275088E7,2.108576E7,1.5539904E7,0E0,1.0232576E7,0E0,0E0,7.79232E5,0E0,0E0,8.84864E5,8.41888E6,1.313952E6,1.413216E6,1.1837856E7,6.887361E6,7.128064E6,7.8930215E6,7.831194E6,3.933272E6,5.211691E6,1.5507968E7,5.793088E6,3.87968E6,2.2706E6,5.021824E6,0E0,0E0,0E0,0E0,0E0,0E0,0E0,0E0,0E0,0E0,0E0,0E0,0E0,0E0,0E0,0E0,0E0,0E0,0E0,0E0,0E0,0E0,0E0,0E0,0E0,0E0,0E0,0E0,0E0,0E0,0E0,0E0,0E0,0E0,0E0,0E0],"parents":[2147483647,0,0,1,1,2,2,3,3,4,4,5,5,6,6,7,7,8,8,9,9,10,10,11,11,12,12,13,13,16,16,17,17,18,18,19,19,20,20,21,21,22,22,23,23,24,24,25,25,27,27,30,30,33,33,34,34,35,35,36,36,37,37,38,38,39,39,40,40,41,41,42,42,43,43,44,44,45,45,46,46,47,47,48,48],"right_children":[2,4,6,8,10,12,14,16,18,20,22,24,26,28,-1,-1,30,32,34,36,38,40,42,44,46,48,-1,50,-1,-1,52,-1,-1,54,56,58,60,62,64,66,68,70,72,74,76,78,80,82,84,-1,-1,-1,-1,-1,-1,-1,-1,-1,-1,-1,-1,-1,-1,-1,-1,-1,-1,-1,-1,-1,-1,-1,-1,-1,-1,-1,-1,-1,-1,-1,-1,-1,-1,-1,-1],"split_conditions":[5.2069E4,4.6894E4,5.8401E4,4.4165E4,4.9541E4,5.5159E4,6.2718E4,2.5E1,-3.84E2,-5.96E2,2.7E2,3.85E2,9.18E2,8.06E2,4.4769797E2,-2.76854E2,4.2474E4,-1.471E3,4.5479E4,4.8402E4,4.8565E4,-1.293E3,5.0745E4,-1.599E3,1.222E3,-1.551E3,2.5316711E2,5.7039E4,3.6421704E2,-2.461718E2,1.688E3,-2.1294518E2,-1.6911406E2,1.564E3,4.7718E4,-1.471E3,-1.527E3,4.98E2,5.0365918E4,5.038E4,5.0639E4,2.538E3,4.6901E4,5.3207E4,5.3849E4,5.2403E4,5.3111E4,5.6321E4,5.6076E4,2.0427678E2,2.9148877E2,-1.775018E2,-1.0601349E2,-1.459418E2,-9.824403E1,-1.2253959E2,-8.1349106E1,-1.5148993E2,-1.1381481E2,-1.07835365E2,-7.357427E1,-7.621421E1,-4.3075634E1,-2.9052372E1,1.1347708E1,-8.650524E1,-4.3439205E1,-2.2419209E1,1.0354651E1,2.3226454E1,8.382941E1,1.8241842E1,6.917803E1,-7.0724044E0,3.2443157E1,5.510638E1,1.0722688E2,6.558046E1,1.20352356E2,1.2673638E2,1.7499826E2,6.0700764E1,1.20113625E2,1.3306438E2,1.8692805E2],"split_indices":[4,4,4,4,4,4,4,14,14,14,14,14,14,14,0,0,4,14,4,4,4,14,4,14,14,14,0,7,0,0,14,0,0,14,11,14,14,14,11,4,4,14,8,4,4,4,4,4,4,0,0,0,0,0,0,0,0,0,0,0,0,0,0,0,0,0,0,0,0,0,0,0,0,0,0,0,0,0,0,0,0,0,0,0,0],"split_type":[0,0,0,0,0,0,0,0,0,0,0,0,0,0,0,0,0,0,0,0,0,0,0,0,0,0,0,0,0,0,0,0,0,0,0,0,0,0,0,0,0,0,0,0,0,0,0,0,0,0,0,0,0,0,0,0,0,0,0,0,0,0,0,0,0,0,0,0,0,0,0,0,0,0,0,0,0,0,0,0,0,0,0,0,0],"sum_hessian":[1.454E3,9.67E2,4.87E2,4.05E2,5.62E2,3.39E2,1.48E2,1.86E2,2.19E2,3.03E2,2.59E2,2.05E2,1.34E2,1.09E2,3.9E1,1.17E2,6.9E1,9.9E1,1.2E2,1.07E2,1.96E2,1.24E2,1.35E2,1E2,1.05E2,7.8E1,5.6E1,6.1E1,4.8E1,2.5E1,4.4E1,5.5E1,4.4E1,4.7E1,7.3E1,6.1E1,4.6E1,1.19E2,7.7E1,4.8E1,7.6E1,7.7E1,5.8E1,3.2E1,6.8E1,4E1,6.5E1,1.8E1,6E1,1.7E1,4.4E1,3.8E1,6E0,3.6E1,1.1E1,3E1,4.3E1,3.5E1,2.6E1,3E1,1.6E1,5.5E1,6.4E1,6.5E1,1.2E1,1.7E1,3.1E1,4.7E1,2.9E1,7.2E1,5E0,5E0,5.3E1,1.5E1,1.7E1,4.3E1,2.5E1,1.1E1,2.9E1,2.2E1,4.3E1,6E0,1.2E1,2.1E1,3.9E1],"tree_param":{"num_deleted":"0","num_feature":"16","num_nodes":"85","size_leaf_vector":"1"}},{"base_weights":[1.5901519E1,-2.0391006E3,3.8137737E3,-4.294867E3,-9.3837225E2,2.5113748E3,6.8967397E3,-2.663178E2,-3.7479563E3,-1.8862711E3,-2.0084816E2,1.7607686E3,3.7986018E3,5.7506406E3,4.079408E2,-2.1889635E2,-2.9790637E3,-2.673096E3,-1.4023627E3,1.3910756E2,-1.0487694E3,9.3286957E2,2.4235679E3,3.043422E3,4.7256157E3,2.4440385E2,3.2881674E2,-1.6834357E2,-2.3358794E3,-1.137321E3,-2.8425166E3,-1.7657893E3,-1.085382E3,-3.1640692E2,7.928569E2,-1.6246342E3,-6.015334E2,1.4766285E3,2.790473E2,1.9324962E3,3.0425415E3,2.2713262E3,3.4807996E3,1.9123349E2,2.5546207E2,-8.585842E1,-1.3458116E2,-8.135346E1,-2.775241E1,-1.5378752E2,-1.1736605E2,-1.0168795E2,-7.115707E1,-1.2660018E1,-6.130444E1,-6.8183327E0,-5.190102E1,2.2832783E1,6.3349495E1,-1.02958694E2,-4.722443E1,-4.5233376E1,-4.960417E-1,4.2451447E1,1.0158325E2,-1.0751647E1,3.7110325E1,1.1067663E2,5.6559315E1,1.5769444E2,9.2217674E1,1.2528704E2,5.7156513E1,1.816098E2,9.330529E1],"categories":[],"categories_nodes":[],"categories_segments":[],"categories_sizes":[],"default_left":[0,0,0,0,0,0,0,0,0,0,0,0,0,0,0,0,0,0,0,0,0,0,0,0,0,0,0,0,0,0,0,0,0,0,0,0,0,0,0,0,0,0,0,0,0,0,0,0,0,0,0,0,0,0,0,0,0,0,0,0,0,0,0,0,0,0,0,0,0,0,0,0,0,0,0],"id":9,"left_children":[1,3,5,7,9,11,13,-1,15,17,19,21,23,25,-1,-1,27,29,31,33,35,37,39,41,43,-1,-1,-1,45,47,49,51,53,55,57,59,61,63,65,67,69,71,73,-1,-1,-1,-1,-1,-1,-1,-1,-1,-1,-1,-1,-1,-1,-1,-1,-1,-1,-1,-1,-1,-1,-1,-1,-1,-1,-1,-1,-1,-1,-1,-1],"loss_changes":[1.1269865E10,2.3225275E9,2.0184105E9,1.532247E8,4.4075187E8,3.3921075E8,1.7005005E8,0E0,8.577075E7,1.0133837E8,1.02765E8,1.2284947E8,7.732518E7,2.6254592E7,0E0,0E0,1.5830912E7,2.3826752E7,1.8012608E7,7.6187944E7,2.5292352E7,3.620651E7,3.2418816E7,1.7420672E7,1.5872E5,0E0,0E0,0E0,3.9616E6,2.518685E6,3.520768E6,4.35904E6,1.0813296E7,1.947617E7,1.6158676E7,1.105904E7,1.0571872E7,1.7781848E7,1.1143866E7,1.3935104E7,1.387008E6,5.069216E6,4.466432E6,0E0,0E0,0E0,0E0,0E0,0E0,0E0,0E0,0E0,0E0,0E0,0E0,0E0,0E0,0E0,0E0,0E0,0E0,0E0,0E0,0E0,0E0,0E0,0E0,0E0,0E0,0E0,0E0,0E0,0E0,0E0,0E0],"parents":[2147483647,0,0,1,1,2,2,3,3,4,4,5,5,6,6,8,8,9,9,10,10,11,11,12,12,13,13,16,16,17,17,18,18,19,19,20,20,21,21,22,22,23,23,24,24,28,28,29,29,30,30,31,31,32,32,33,33,34,34,35,35,36,36,37,37,38,38,39,39,40,40,41,41,42,42],"right_children":[2,4,6,8,10,12,14,-1,16,18,20,22,24,26,-1,-1,28,30,32,34,36,38,40,42,44,-1,-1,-1,46,48,50,52,54,56,58,60,62,64,66,68,70,72,74,-1,-1,-1,-1,-1,-1,-1,-1,-1,-1,-1,-1,-1,-1,-1,-1,-1,-1,-1,-1,-1,-1,-1,-1,-1,-1,-1,-1,-1,-1,-1,-1],"split_conditions":[5.167E4,4.5761E4,5.8468E4,4.2628E4,4.8565E4,5.5159E4,6.1241E4,-2.663178E2,1.1E1,1.1E1,5.0501832E4,8E0,1.7E1,1.7E1,4.079408E2,-2.1889635E2,4.4508E4,3E0,4.7271E4,5.0078E4,4.9982E4,4E0,5.3111E4,5.6321E4,5.6076E4,2.4440385E2,3.2881674E2,-1.6834357E2,5E0,4.5357043E4,8E0,4.8846418E4,1.4E1,4.9545E4,4.2093735E3,8E0,5.2344E4,5.3022E4,5.3207E4,5.1995E4,5.4229E4,5.806247E3,5.5060375E4,1.9123349E2,2.5546207E2,-8.585842E1,-1.3458116E2,-8.135346E1,-2.775241E1,-1.5378752E2,-1.1736605E2,-1.0168795E2,-7.115707E1,-1.2660018E1,-6.130444E1,-6.8183327E0,-5.190102E1,2.2832783E1,6.3349495E1,-1.02958694E2,-4.722443E1,-4.5233376E1,-4.960417E-1,4.2451447E1,1.0158325E2,-1.0751647E1,3.7110325E1,1.1067663E2,5.6559315E1,1.5769444E2,9.2217674E1,1.2528704E2,5.7156513E1,1.816098E2,9.330529E1],"split_indices":[4,4,4,4,4,4,4,0,0,0,10,0,0,0,0,0,4,0,4,4,4,0,4,4,4,0,0,0,1,11,0,11,0,5,13,0,9,4,4,5,5,13,11,0,0,0,0,0,0,0,0,0,0,0,0,0,0,0,0,0,0,0,0,0,0,0,0,0,0,0,0,0,0,0,0],"split_type":[0,0,0,0,0,0,0,0,0,0,0,0,0,0,0,0,0,0,0,0,0,0,0,0,0,0,0,0,0,0,0,0,0,0,0,0,0,0,0,0,0,0,0,0,0,0,0,0,0,0,0,0,0,0,0,0,0,0,0,0,0,0,0,0,0,0,0,0,0,0,0,0,0,0,0],"sum_hessian":[1.442E3,9.36E2,5.06E2,3.06E2,6.3E2,3.57E2,1.49E2,1.03E2,2.03E2,2.75E2,3.55E2,2.27E2,1.3E2,8.1E1,6.8E1,1.09E2,9.4E1,1.03E2,1.72E2,2.54E2,1.01E2,1.02E2,1.25E2,7.4E1,5.6E1,4.3E1,3.8E1,5.6E1,3.8E1,1.1E1,9.2E1,7.8E1,9.4E1,1.5E2,1.04E2,4.3E1,5.8E1,5.5E1,4.7E1,7.2E1,5.3E1,2.9E1,4.5E1,2E1,3.6E1,1.6E1,2.2E1,5E0,6E0,5.9E1,3.3E1,4.1E1,3.7E1,1.4E1,8E1,1.21E2,2.9E1,6.2E1,4.2E1,2.5E1,1.8E1,3.8E1,2E1,2.7E1,2.8E1,2.3E1,2.4E1,5.2E1,2E1,4.7E1,6E0,2.3E1,6E0,4E1,5E0],"tree_param":{"num_deleted":"0","num_feature":"16","num_nodes":"75","size_leaf_vector":"1"}},{"base_weights":[-1.0111067E2,-1.7509113E3,3.247432E3,-3.1320557E3,-3.9736774E2,1.4428127E3,5.1395513E3,-3.802924E3,-1.6047169E3,-1.1590693E3,6.1287195E2,4.9089886E2,2.8320703E3,3.7337183E3,6.5745464E3,-4.7986606E3,-3.2110806E3,-2.998502E3,-6.6271533E2,-2.1166797E3,-4.9042245E2,8.694119E1,1.6196969E3,-3.4973257E2,1.7364034E3,2.1746118E3,3.9222144E3,2.232883E3,4.788918E3,5.557676E3,4.0503333E2,-2.4630452E2,-1.7364305E2,-4.402969E3,-2.658451E3,-3.4991501E3,-1.6637343E3,-1.1705345E3,6.1278625E2,-2.6951191E3,-1.447168E3,-1.0476498E3,4.283829E2,-3.122909E2,1.5478975E3,1.0428796E3,2.2697847E3,-1.2843859E3,2.0728867E2,5.289948E2,2.296695E3,1.742541E3,1.5909897E2,1.4419823E2,2.1318408E2,9.081729E2,2.8125142E3,3.6340642E3,2.7444803E2,2.5151213E2,3.4156052E2,-2.2841422E2,-1.327026E2,-1.5962039E2,-9.8142975E1,-1.90241E2,-1.2622926E2,-1.03451614E2,-2.541414E1,-8.09868E1,-2.6756922E1,-2.369467E1,5.61044E1,-1.4575903E2,-4.5015438E1,-8.235009E1,-1.9160282E1,-8.071353E1,-3.1552616E1,4.2821E-1,5.5511364E1,-4.541272E1,-1.6861801E0,5.5590607E1,1.1000264E2,9.671372E0,6.0860104E1,4.6371334E1,1.23818275E2,-9.183829E1,-4.406352E1,-1.2860077E1,3.7656757E1,8.9368925E0,5.7696194E1,7.2607124E1,1.3247725E2,6.931572E1,1.1448113E2,2.424148E1,6.1529846E1,7.809946E1,1.4844327E2,1.14011314E2,1.9805899E2],"categories":[],"categories_nodes":[],"categories_segments":[],"categories_sizes":[],"default_left":[0,0,0,0,0,0,0,0,0,0,0,0,0,0,0,0,0,0,0,0,0,0,0,0,0,0,0,0,0,0,0,0,0,0,0,0,0,0,0,0,0,0,0,0,0,0,0,0,0,0,0,0,0,0,0,0,0,0,0,0,0,0,0,0,0,0,0,0,0,0,0,0,0,0,0,0,0,0,0,0,0,0,0,0,0,0,0,0,0,0,0,0,0,0,0,0,0,0,0,0,0,0,0,0,0],"id":10,"left_children":[1,3,5,7,9,11,13,15,17,19,21,23,25,27,29,31,33,35,37,39,41,43,45,47,49,51,53,55,57,59,-1,-1,-1,61,63,65,67,69,71,73,75,77,79,81,83,85,87,89,91,93,95,97,-1,-1,-1,99,101,103,-1,-1,-1,-1,-1,-1,-1,-1,-1,-1,-1,-1,-1,-1,-1,-1,-1,-1,-1,-1,-1,-1,-1,-1,-1,-1,-1,-1,-1,-1,-1,-1,-1,-1,-1,-1,-1,-1,-1,-1,-1,-1,-1,-1,-1,-1,-1],"loss_changes":[7.9332393E9,1.7971553E9,1.6110833E9,4.8162662E8,3.7545754E8,3.2128806E8,4.4146227E8,1.7906586E8,1.910158E8,1.7696598E8,1.1105825E8,1.5347093E8,6.2425856E7,1.777641E8,1.3033933E8,3.334144E6,1.2661555E8,3.3604544E7,5.836479E7,4.024832E7,8.492613E7,8.155674E7,2.4631264E7,4.6081056E7,3.8698336E7,2.231104E7,4.65984E5,3.660536E7,3.5834624E7,1.3327104E7,0E0,0E0,0E0,6.667776E6,4.796E7,2.905344E6,7.377528E6,1.7399936E7,1.4921456E7,2.1073184E7,1.106252E7,2.329452E7,1.8024192E7,1.823103E7,6.08548E6,5.68756E6,6.85408E6,5.729252E6,1.4392015E7,4.171332E6,8.07208E6,5.985088E6,0E0,0E0,0E0,1.723633E6,2.205472E6,3.809984E6,0E0,0E0,0E0,0E0,0E0,0E0,0E0,0E0,0E0,0E0,0E0,0E0,0E0,0E0,0E0,0E0,0E0,0E0,0E0,0E0,0E0,0E0,0E0,0E0,0E0,0E0,0E0,0E0,0E0,0E0,0E0,0E0,0E0,0E0,0E0,0E0,0E0,0E0,0E0,0E0,0E0,0E0,0E0,0E0,0E0,0E0,0E0],"parents":[2147483647,0,0,1,1,2,2,3,3,4,4,5,5,6,6,7,7,8,8,9,9,10,10,11,11,12,12,13,13,14,14,15,15,16,16,17,17,18,18,19,19,20,20,21,21,22,22,23,23,24,24,25,25,26,26,27,27,28,28,29,29,33,33,34,34,35,35,36,36,37,37,38,38,39,39,40,40,41,41,42,42,43,43,44,44,45,45,46,46,47,47,48,48,49,49,50,50,51,51,55,55,56,56,57,57],"right_children":[2,4,6,8,10,12,14,16,18,20,22,24,26,28,30,32,34,36,38,40,42,44,46,48,50,52,54,56,58,60,-1,-1,-1,62,64,66,68,70,72,74,76,78,80,82,84,86,88,90,92,94,96,98,-1,-1,-1,100,102,104,-1,-1,-1,-1,-1,-1,-1,-1,-1,-1,-1,-1,-1,-1,-1,-1,-1,-1,-1,-1,-1,-1,-1,-1,-1,-1,-1,-1,-1,-1,-1,-1,-1,-1,-1,-1,-1,-1,-1,-1,-1,-1,-1,-1,-1,-1,-1],"split_conditions":[5.1995E4,4.7868E4,5.499E4,1.437E3,-5.2E2,-6.43E2,5.8468E4,4.3688E4,4.4031E4,4.7491E4,5.029E4,5.5892E4,1.197E3,7.29E2,6.48E2,1.236E3,-1.3E3,3.104E3,3.726E3,-3.389E3,4.27E2,2.316E3,1.212E3,-2.358E3,-2.538E3,5.5479E4,5.09845E4,5.3306E4,5.4774E4,6.373E4,4.0503333E2,-2.4630452E2,-1.7364305E2,1.4E1,4.6026E4,4.2823E4,4.576E3,4.6316E4,4.54905E4,5.3875E4,5.1094E4,-5.28E2,4.9593E4,2.95E2,3.435E3,-5.7E1,4.9274E4,5.3207E4,5.3849E4,5.8027E4,5.7168E4,3.85E2,1.5909897E2,1.4419823E2,2.1318408E2,-4.19E2,4.256037E3,-1.399E3,2.7444803E2,2.5151213E2,3.4156052E2,-2.2841422E2,-1.327026E2,-1.5962039E2,-9.8142975E1,-1.90241E2,-1.2622926E2,-1.03451614E2,-2.541414E1,-8.09868E1,-2.6756922E1,-2.369467E1,5.61044E1,-1.4575903E2,-4.5015438E1,-8.235009E1,-1.9160282E1,-8.071353E1,-3.1552616E1,4.2821E-1,5.5511364E1,-4.541272E1,-1.6861801E0,5.5590607E1,1.1000264E2,9.671372E0,6.0860104E1,4.6371334E1,1.23818275E2,-9.183829E1,-4.406352E1,-1.2860077E1,3.7656757E1,8.9368925E0,5.7696194E1,7.2607124E1,1.3247725E2,6.931572E1,1.1448113E2,2.424148E1,6.1529846E1,7.809946E1,1.4844327E2,1.14011314E2,1.9805899E2],"split_indices":[5,7,7,15,15,14,5,7,7,5,7,5,14,14,14,15,15,15,15,15,14,15,14,14,14,5,10,5,5,5,0,0,0,0,7,7,15,7,10,7,7,14,5,14,15,15,5,5,5,5,5,14,0,0,0,14,13,15,0,0,0,0,0,0,0,0,0,0,0,0,0,0,0,0,0,0,0,0,0,0,0,0,0,0,0,0,0,0,0,0,0,0,0,0,0,0,0,0,0,0,0,0,0,0,0],"split_type":[0,0,0,0,0,0,0,0,0,0,0,0,0,0,0,0,0,0,0,0,0,0,0,0,0,0,0,0,0,0,0,0,0,0,0,0,0,0,0,0,0,0,0,0,0,0,0,0,0,0,0,0,0,0,0,0,0,0,0,0,0,0,0,0,0,0,0,0,0,0,0,0,0,0,0,0,0,0,0,0,0,0,0,0,0,0,0,0,0,0,0,0,0,0,0,0,0,0,0,0,0,0,0,0,0],"sum_hessian":[1.434E3,9.61E2,4.73E2,4.75E2,4.86E2,2.43E2,2.3E2,3.29E2,1.46E2,2.77E2,2.09E2,1.45E2,9.8E1,1.18E2,1.12E2,1.2E2,2.09E2,5.8E1,8.8E1,1.13E2,1.64E2,1.38E2,7.1E1,8.7E1,5.8E1,6.3E1,3.5E1,5E1,6.8E1,7E1,4.2E1,1.07E2,1.3E1,6.4E1,1.45E2,4.1E1,1.7E1,6.3E1,2.5E1,5.9E1,5.4E1,1.02E2,6.2E1,1.09E2,2.9E1,3.9E1,3.2E1,3.2E1,5.5E1,1.9E1,3.9E1,4.6E1,1.7E1,1.1E1,2.4E1,1.6E1,3.4E1,2.8E1,4E1,5.3E1,1.7E1,5.7E1,7E0,8E1,6.5E1,2.9E1,1.2E1,1.2E1,5E0,3.6E1,2.7E1,8E0,1.7E1,5.2E1,7E0,4.5E1,9E0,4.2E1,6E1,3.9E1,2.3E1,3.4E1,7.5E1,1.9E1,1E1,7E0,3.2E1,5E0,2.7E1,1.2E1,2E1,3E1,2.5E1,1.3E1,6E0,1.3E1,2.6E1,3E1,1.6E1,8E0,8E0,5E0,2.9E1,7E0,2.1E1],"tree_param":{"num_deleted":"0","num_feature":"16","num_nodes":"105","size_leaf_vector":"1"}},{"base_weights":[-3.7388077E-1,-1.8561923E3,3.6320515E3,-3.62116E3,-6.9455316E2,2.0850093E3,5.64867E3,-4.4068706E3,-2.8841284E3,-1.334048E3,1.4231548E2,1.2289697E3,2.884956E3,4.577953E3,7.0071333E3,-2.4370398E2,-3.6188923E3,-3.4513752E3,-1.9526464E3,-2.1458682E3,-8.839681E2,-5.9422595E2,7.315847E2,6.115247E2,1.9882188E3,2.1442556E3,3.4842107E3,3.7623115E3,2.721032E2,2.8679526E2,3.9171692E2,-2.2017654E2,-3.232423E3,-1.9010284E2,-1.5163072E2,-1.18204E2,-1.5026797E3,-2.4850867E3,-1.6416115E3,-1.3288221E3,-5.1766504E2,-1.1446749E3,-2.3973909E2,3.5510355E2,1.1920662E3,-2.90063E0,1.00377496E3,1.1908888E2,1.5305205E3,5.354878E1,2.2923323E3,1.4708087E2,1.9183151E2,2.0685262E2,1.4670671E2,-1.6752702E2,-9.972183E1,-8.882251E1,-5.7004078E1,-1.3554263E2,-9.44903E1,-8.7336235E1,-4.357069E1,-8.3290596E1,-5.5407867E1,-4.7750088E1,-1.6203558E1,-7.6747086E1,-3.423168E1,-2.2484936E1,3.6301887E0,1.4262477E1,5.787179E1,6.6799095E1,3.6202705E1,-2.2067617E1,1.3015521E1,2.5153193E1,5.5456165E1,4.0695885E1,8.349722E1,6.0363655E1,1.1859579E2],"categories":[],"categories_nodes":[],"categories_segments":[],"categories_sizes":[],"default_left":[0,0,0,0,0,0,0,0,0,0,0,0,0,0,0,0,0,0,0,0,0,0,0,0,0,0,0,0,0,0,0,0,0,0,0,0,0,0,0,0,0,0,0,0,0,0,0,0,0,0,0,0,0,0,0,0,0,0,0,0,0,0,0,0,0,0,0,0,0,0,0,0,0,0,0,0,0,0,0,0,0,0,0],"id":11,"left_children":[1,3,5,7,9,11,13,15,17,19,21,23,25,27,29,-1,31,33,35,37,39,41,43,45,47,49,51,53,-1,-1,-1,-1,55,-1,-1,-1,57,59,61,63,65,67,69,71,73,75,77,-1,79,-1,81,-1,-1,-1,-1,-1,-1,-1,-1,-1,-1,-1,-1,-1,-1,-1,-1,-1,-1,-1,-1,-1,-1,-1,-1,-1,-1,-1,-1,-1,-1,-1,-1],"loss_changes":[9.808333E9,1.9718804E9,1.52316E9,2.085033E8,3.1166077E8,1.8819418E8,2.7773542E8,4.9732096E7,9.893619E7,1.1867955E8,1.1024211E8,6.300875E7,5.644544E7,6.55104E7,5.1805696E7,0E0,7.5984E6,6.53184E6,1.0887424E7,1.5933248E7,3.418352E7,2.1774784E7,2.4020656E7,1.8560664E7,7.34224E6,8.192768E6,3.628608E6,8.343872E6,0E0,0E0,0E0,0E0,9.20832E5,0E0,0E0,0E0,1.94516E6,4.01536E6,2.52552E6,5.29248E6,9.765604E6,6.848616E6,4.623244E6,4.097341E6,3.2758E6,3.6924722E6,1.921084E6,0E0,1.737816E6,0E0,2.144576E6,0E0,0E0,0E0,0E0,0E0,0E0,0E0,0E0,0E0,0E0,0E0,0E0,0E0,0E0,0E0,0E0,0E0,0E0,0E0,0E0,0E0,0E0,0E0,0E0,0E0,0E0,0E0,0E0,0E0,0E0,0E0,0E0],"parents":[2147483647,0,0,1,1,2,2,3,3,4,4,5,5,6,6,7,7,8,8,9,9,10,10,11,11,12,12,13,13,14,14,16,16,17,17,18,18,19,19,20,20,21,21,22,22,23,23,24,24,25,25,26,26,27,27,32,32,36,36,37,37,38,38,39,39,40,40,41,41,42,42,43,43,44,44,45,45,46,46,48,48,50,50],"right_children":[2,4,6,8,10,12,14,16,18,20,22,24,26,28,30,-1,32,34,36,38,40,42,44,46,48,50,52,54,-1,-1,-1,-1,56,-1,-1,-1,58,60,62,64,66,68,70,72,74,76,78,-1,80,-1,82,-1,-1,-1,-1,-1,-1,-1,-1,-1,-1,-1,-1,-1,-1,-1,-1,-1,-1,-1,-1,-1,-1,-1,-1,-1,-1,-1,-1,-1,-1,-1,-1],"split_conditions":[5.1995E4,4.645E4,5.7039E4,4.3688E4,4.9456E4,4.58E2,6.0533E4,-1.19E2,1.48E2,-5.28E2,2.87E2,5.4229E4,5.3849E4,1.7E1,1.12E2,-2.4370398E2,4.1942E4,-1.381E3,4.5227E4,4.8402E4,4.7882E4,-1.293E3,5.0745E4,-1.293E3,4E0,4E0,1.374E3,4E0,2.721032E2,2.8679526E2,3.9171692E2,-2.2017654E2,1.564E3,-1.9010284E2,-1.5163072E2,-1.18204E2,-7.55E2,9E0,1.9E1,4.27E2,2.7E2,5.0745E4,5.0639E4,2.371E3,5.5268E4,5.2626E4,5.2403E4,1.1908888E2,-2.657E3,5.354878E1,-3.746E3,1.4708087E2,1.9183151E2,2.0685262E2,1.4670671E2,-1.6752702E2,-9.972183E1,-8.882251E1,-5.7004078E1,-1.3554263E2,-9.44903E1,-8.7336235E1,-4.357069E1,-8.3290596E1,-5.5407867E1,-4.7750088E1,-1.6203558E1,-7.6747086E1,-3.423168E1,-2.2484936E1,3.6301887E0,1.4262477E1,5.787179E1,6.6799095E1,3.6202705E1,-2.2067617E1,1.3015521E1,2.5153193E1,5.5456165E1,4.0695885E1,8.349722E1,6.0363655E1,1.1859579E2],"split_indices":[4,4,4,4,4,14,4,14,14,14,14,4,4,0,14,0,4,14,4,4,4,14,4,14,0,0,14,0,0,0,0,0,14,0,0,0,15,0,0,14,14,4,4,14,9,4,4,0,14,0,15,0,0,0,0,0,0,0,0,0,0,0,0,0,0,0,0,0,0,0,0,0,0,0,0,0,0,0,0,0,0,0,0],"split_type":[0,0,0,0,0,0,0,0,0,0,0,0,0,0,0,0,0,0,0,0,0,0,0,0,0,0,0,0,0,0,0,0,0,0,0,0,0,0,0,0,0,0,0,0,0,0,0,0,0,0,0,0,0,0,0,0,0,0,0,0,0,0,0,0,0,0,0,0,0,0,0,0,0,0,0,0,0,0,0,0,0,0,0],"sum_hessian":[1.453E3,9.62E2,4.91E2,3.81E2,5.81E2,2.79E2,2.12E2,1.82E2,1.99E2,3.29E2,2.52E2,1.36E2,1.43E2,1.21E2,9.1E1,1.11E2,7.1E1,1.22E2,7.7E1,1.16E2,2.13E2,1.12E2,1.4E2,7.6E1,6E1,6.6E1,7.7E1,6.5E1,5.6E1,3.9E1,5.2E1,2E1,5.1E1,6.2E1,6E1,3.8E1,3.9E1,6.7E1,4.9E1,9.5E1,1.18E2,4.3E1,6.9E1,7.8E1,6.2E1,3E1,4.6E1,3E1,3E1,9E0,5.7E1,3.4E1,4.3E1,4.2E1,2.3E1,4.5E1,6E0,2E1,1.9E1,4.6E1,2.1E1,4.2E1,7E0,3.5E1,6E1,3.5E1,8.3E1,2.2E1,2.1E1,4.1E1,2.8E1,7.3E1,5E0,4.6E1,1.6E1,1.1E1,1.9E1,9E0,3.7E1,6E0,2.4E1,5E0,5.2E1],"tree_param":{"num_deleted":"0","num_feature":"16","num_nodes":"83","size_leaf_vector":"1"}},{"base_weights":[-1.118174E1,-1.7232068E3,3.3987422E3,-3.5471082E3,-7.1919775E2,2.306554E3,5.8388525E3,-4.175654E3,-2.6432175E3,-1.3348861E3,1.0671927E2,1.662408E3,3.2772239E3,5.3119985E3,3.9629486E2,-2.4428018E2,-3.7812756E3,-1.6481046E2,-1.9898024E3,-2.0075483E3,-9.408169E2,5.278317E2,-6.868431E2,9.070687E2,2.2052214E3,2.637735E3,1.983498E2,4.5593174E3,3.0588345E2,-2.1250735E2,-3.1211619E3,-1.4831481E3,-1.1807102E2,-6.844865E2,-2.2122432E3,-1.2707484E3,-6.1415094E2,1.8858344E2,1.1132672E3,-3.518977E2,-1.0851815E3,1.3729071E3,3.2538342E2,1.702999E3,2.6023608E3,1.5295901E2,1.9816538E3,4.820551E3,1.551687E2,-1.3099779E2,-1.731089E2,-4.7131924E1,-8.8642845E1,-4.594528E1,-2.15227E1,-1.2680115E2,-9.4198456E1,-3.9807354E1,-7.1733635E1,-3.7468513E1,-8.120462E0,-1.0988668E1,1.669557E1,2.8241608E1,6.2099365E1,-3.6757786E1,1.2443336E1,-6.920378E1,-4.016685E1,3.783076E1,8.9304504E1,-2.2746216E1,2.3823393E1,3.799671E1,9.2367485E1,1.3853104E2,5.3910168E1,6.760827E1,1.1805792E2,1.8476025E2,2.5750864E2],"categories":[],"categories_nodes":[],"categories_segments":[],"categories_sizes":[],"default_left":[0,0,0,0,0,0,0,0,0,0,0,0,0,0,0,0,0,0,0,0,0,0,0,0,0,0,0,0,0,0,0,0,0,0,0,0,0,0,0,0,0,0,0,0,0,0,0,0,0,0,0,0,0,0,0,0,0,0,0,0,0,0,0,0,0,0,0,0,0,0,0,0,0,0,0,0,0,0,0,0,0],"id":12,"left_children":[1,3,5,7,9,11,13,15,17,19,21,23,25,27,-1,-1,29,-1,31,33,35,37,39,41,43,45,-1,47,-1,-1,49,51,-1,53,55,57,59,61,63,65,67,69,71,73,75,-1,77,79,-1,-1,-1,-1,-1,-1,-1,-1,-1,-1,-1,-1,-1,-1,-1,-1,-1,-1,-1,-1,-1,-1,-1,-1,-1,-1,-1,-1,-1,-1,-1,-1,-1],"loss_changes":[8.453262E9,1.7627384E9,1.2764201E9,1.8326477E8,3.169428E8,2.0463654E8,1.217321E8,3.75232E7,5.445523E7,9.274291E7,8.95883E7,8.164109E7,4.8201984E7,4.6088704E7,0E0,0E0,2.7898496E7,0E0,1.0430144E7,3.396336E7,2.3684832E7,3.454633E7,1.2026192E7,2.3127624E7,1.9103168E7,1.3845376E7,0E0,1.0522112E7,0E0,0E0,1.012864E6,3.65264E6,0E0,7.3577E5,7.23232E6,7.571024E6,6.963968E6,6.720111E6,3.81636E6,1.2155888E7,2.426052E6,1.0871136E7,4.932453E6,6.083136E6,1.3425408E7,0E0,4.212664E6,1.369856E6,0E0,0E0,0E0,0E0,0E0,0E0,0E0,0E0,0E0,0E0,0E0,0E0,0E0,0E0,0E0,0E0,0E0,0E0,0E0,0E0,0E0,0E0,0E0,0E0,0E0,0E0,0E0,0E0,0E0,0E0,0E0,0E0,0E0],"parents":[2147483647,0,0,1,1,2,2,3,3,4,4,5,5,6,6,7,7,8,8,9,9,10,10,11,11,12,12,13,13,16,16,18,18,19,19,20,20,21,21,22,22,23,23,24,24,25,25,27,27,30,30,31,31,33,33,34,34,35,35,36,36,37,37,38,38,39,39,40,40,41,41,42,42,43,43,44,44,46,46,47,47],"right_children":[2,4,6,8,10,12,14,16,18,20,22,24,26,28,-1,-1,30,-1,32,34,36,38,40,42,44,46,-1,48,-1,-1,50,52,-1,54,56,58,60,62,64,66,68,70,72,74,76,-1,78,80,-1,-1,-1,-1,-1,-1,-1,-1,-1,-1,-1,-1,-1,-1,-1,-1,-1,-1,-1,-1,-1,-1,-1,-1,-1,-1,-1,-1,-1,-1,-1,-1,-1],"split_conditions":[5.1995E4,4.6299E4,5.8401E4,4.4165E4,4.9303E4,5.5159E4,6.3392E4,4.2004E4,1.1E1,1.1E1,5.0224668E4,7E0,6E0,1.9E1,3.9629486E2,-2.4428018E2,1.1E1,-1.6481046E2,5E0,3E0,4.7882E4,5.0639E4,5.3166668E4,4E0,5.3207E4,3E0,1.983498E2,4E0,3.0588345E2,-2.1250735E2,5E0,4.9753453E4,-1.1807102E2,4.66905E4,4.7685E4,1.4E1,4.762399E3,6E0,4E0,5.0745E4,5.0482E4,5.2984E4,5.2314E4,-6.094E3,5.4774E4,1.5295901E2,5.6439E4,5.9346E4,1.551687E2,-1.3099779E2,-1.731089E2,-4.7131924E1,-8.8642845E1,-4.594528E1,-2.15227E1,-1.2680115E2,-9.4198456E1,-3.9807354E1,-7.1733635E1,-3.7468513E1,-8.120462E0,-1.0988668E1,1.669557E1,2.8241608E1,6.2099365E1,-3.6757786E1,1.2443336E1,-6.920378E1,-4.016685E1,3.783076E1,8.9304504E1,-2.2746216E1,2.3823393E1,3.799671E1,9.2367485E1,1.3853104E2,5.3910168E1,6.760827E1,1.1805792E2,1.8476025E2,2.5750864E2],"split_indices":[4,4,4,4,4,4,4,4,0,0,10,0,0,0,0,0,0,0,1,0,4,4,10,0,4,0,0,0,0,0,1,12,0,11,4,0,13,0,0,4,4,4,4,15,5,0,4,4,0,0,0,0,0,0,0,0,0,0,0,0,0,0,0,0,0,0,0,0,0,0,0,0,0,0,0,0,0,0,0,0,0],"split_type":[0,0,0,0,0,0,0,0,0,0,0,0,0,0,0,0,0,0,0,0,0,0,0,0,0,0,0,0,0,0,0,0,0,0,0,0,0,0,0,0,0,0,0,0,0,0,0,0,0,0,0,0,0,0,0,0,0,0,0,0,0,0,0,0,0,0,0,0,0,0,0,0,0,0,0,0,0,0,0,0,0],"sum_hessian":[1.446E3,9.63E2,4.83E2,3.41E2,6.22E2,3.35E2,1.48E2,1.99E2,1.42E2,3.56E2,2.66E2,2.03E2,1.32E2,1.21E2,2.7E1,6.7E1,1.32E2,6.9E1,7.3E1,1.3E2,2.26E2,1.74E2,9.2E1,8.6E1,1.17E2,7.1E1,6.1E1,6.6E1,5.5E1,7.4E1,5.8E1,3.3E1,4E1,1.8E1,1.12E2,1.11E2,1.15E2,1.11E2,6.3E1,5.1E1,4.1E1,4.7E1,3.9E1,5.4E1,6.3E1,4.1E1,3E1,5.4E1,1.2E1,2.7E1,3.1E1,1.3E1,2E1,8E0,1E1,5.3E1,5.9E1,3E1,8.1E1,8.8E1,2.7E1,2.9E1,8.2E1,1.3E1,5E1,3.1E1,2E1,1.8E1,2.3E1,2E1,2.7E1,6E0,3.3E1,8E0,4.6E1,5.6E1,7E0,1.3E1,1.7E1,1.5E1,3.9E1],"tree_param":{"num_deleted":"0","num_feature":"16","num_nodes":"81","size_leaf_vector":"1"}},{"base_weights":[5.3340332E1,-1.4562397E3,3.0050278E3,-2.8760083E3,-4.398929E2,1.2743417E3,4.406525E3,-3.297685E3,-9.623889E2,-1.477388E3,1.5832993E2,4.025582E2,2.5484834E3,3.1399487E3,5.5610034E3,-4.027907E3,-2.755662E3,-2.4206465E3,-5.1837396E2,-2.1406287E3,-8.5573694E2,-7.3891986E2,1.069813E3,-3.1952127E2,1.1860442E3,1.7964015E3,3.260643E3,1.9229337E3,4.127419E3,4.363594E3,6.713179E3,-2.3833365E2,-3.688729E3,-3.3092483E3,-1.885899E3,-1.3664612E2,-6.963185E1,-9.2445685E2,3.6381506E2,-2.4754023E3,-8.5639813E2,-1.1916261E3,-1.789841E2,-1.3547869E3,-3.290886E2,5.288956E2,1.7409752E3,-1.0823627E3,1.0201039E2,4.6537668E2,1.7336335E3,1.2397457E3,1.20002335E2,7.02411E1,1.728749E2,9.1245483E2,2.261936E3,3.1456304E3,2.3768993E2,4.6493994E3,1.2735549E2,2.6144336E2,3.686965E2,-1.8829953E2,-9.317455E1,-2.0911766E2,-1.4850697E2,-1.1816137E2,-7.15928E1,-8.4506386E1,-3.5541145E1,-1.3125125E1,4.7688057E1,-1.4669234E2,-1.0170092E2,-6.737359E1,8.570103E0,-7.387689E1,-2.9750334E1,-2.2615515E1,1.0400981E1,-7.355795E1,-1.1995054E1,-2.961302E1,1.803385E1,6.912088E0,5.4384094E1,5.619767E1,1.02884605E2,-6.503329E1,-2.7486944E1,-1.0790069E1,2.0116686E1,4.095205E0,6.542132E1,6.0031403E1,1.1293572E2,2.5579365E1,7.163045E1,2.464326E1,5.4825344E1,8.199808E1,1.2742704E2,1.12795654E2,1.730938E2,2.0266075E2,2.7290848E2],"categories":[],"categories_nodes":[],"categories_segments":[],"categories_sizes":[],"default_left":[0,0,0,0,0,0,0,0,0,0,0,0,0,0,0,0,0,0,0,0,0,0,0,0,0,0,0,0,0,0,0,0,0,0,0,0,0,0,0,0,0,0,0,0,0,0,0,0,0,0,0,0,0,0,0,0,0,0,0,0,0,0,0,0,0,0,0,0,0,0,0,0,0,0,0,0,0,0,0,0,0,0,0,0,0,0,0,0,0,0,0,0,0,0,0,0,0,0,0,0,0,0,0,0,0,0,0],"id":13,"left_children":[1,3,5,7,9,11,13,15,17,19,21,23,25,27,29,31,33,35,37,39,41,43,45,47,49,51,53,55,57,59,61,-1,63,65,67,-1,-1,69,71,73,75,77,79,81,83,85,87,89,91,93,95,97,-1,-1,-1,99,101,103,-1,105,-1,-1,-1,-1,-1,-1,-1,-1,-1,-1,-1,-1,-1,-1,-1,-1,-1,-1,-1,-1,-1,-1,-1,-1,-1,-1,-1,-1,-1,-1,-1,-1,-1,-1,-1,-1,-1,-1,-1,-1,-1,-1,-1,-1,-1,-1,-1],"loss_changes":[6.4920335E9,1.3897646E9,1.1901809E9,3.2121114E8,3.4966182E8,2.4556602E8,3.8026547E8,1.1911706E8,4.6659024E7,8.310256E7,2.9357296E8,7.562236E7,4.2346304E7,1.506958E8,1.6523264E8,1.6995328E7,8.620454E7,1.651008E6,2.1114418E7,4.0442496E7,2.433648E7,4.523867E7,6.370067E7,2.2619838E7,2.4449304E7,1.2481232E7,1.158208E7,1.8831616E7,2.932352E7,2.5536128E7,3.0094592E7,0E0,6.942592E6,2.1922048E7,1.330384E7,0E0,0E0,5.341312E6,7.270812E6,9.815232E6,1.1335039E7,1.1402448E7,4.0079085E6,8.988304E6,2.0181588E7,2.1678714E7,1.3125216E7,2.191624E6,4.477372E6,9.268003E6,7.363128E6,2.918212E6,0E0,0E0,0E0,7.7226E5,3.841808E6,9.12224E5,0E0,7.288704E6,0E0,0E0,0E0,0E0,0E0,0E0,0E0,0E0,0E0,0E0,0E0,0E0,0E0,0E0,0E0,0E0,0E0,0E0,0E0,0E0,0E0,0E0,0E0,0E0,0E0,0E0,0E0,0E0,0E0,0E0,0E0,0E0,0E0,0E0,0E0,0E0,0E0,0E0,0E0,0E0,0E0,0E0,0E0,0E0,0E0,0E0,0E0],"parents":[2147483647,0,0,1,1,2,2,3,3,4,4,5,5,6,6,7,7,8,8,9,9,10,10,11,11,12,12,13,13,14,14,15,15,16,16,17,17,18,18,19,19,20,20,21,21,22,22,23,23,24,24,25,25,26,26,27,27,28,28,29,29,30,30,32,32,33,33,34,34,37,37,38,38,39,39,40,40,41,41,42,42,43,43,44,44,45,45,46,46,47,47,48,48,49,49,50,50,51,51,55,55,56,56,57,57,59,59],"right_children":[2,4,6,8,10,12,14,16,18,20,22,24,26,28,30,32,34,36,38,40,42,44,46,48,50,52,54,56,58,60,62,-1,64,66,68,-1,-1,70,72,74,76,78,80,82,84,86,88,90,92,94,96,98,-1,-1,-1,100,102,104,-1,106,-1,-1,-1,-1,-1,-1,-1,-1,-1,-1,-1,-1,-1,-1,-1,-1,-1,-1,-1,-1,-1,-1,-1,-1,-1,-1,-1,-1,-1,-1,-1,-1,-1,-1,-1,-1,-1,-1,-1,-1,-1,-1,-1,-1,-1,-1,-1],"split_conditions":[5.2121E4,4.7219E4,5.4484E4,2.227E3,4.7785E4,-5.96E2,5.8468E4,4.3566E4,4.3026E4,-2.463E3,5.68E2,5.5363E4,3.642E3,7.79E2,-1.9E2,-4.72E2,4.14E2,1.2E1,4.861E3,5.2835E4,4.9233E4,-5.28E2,5.0046E4,-2.293E3,-2.409E3,4.9829125E4,5.0481E4,5.3306E4,5.4659E4,4E0,5.7070586E3,-2.3833365E2,6.78E2,-2.281E3,4.5008E4,-1.3664612E2,-6.963185E1,4.4493E4,4.4806E4,4.9858E4,4.9275418E4,1.05E2,-4.72E2,5.5519E4,5.0207E4,1.241E3,1.123E3,5.4035E4,-1.36E3,5.8952E4,5.7269E4,-1.53E2,1.20002335E2,7.02411E1,1.728749E2,-4.19E2,-3.858E3,1.374E3,2.3768993E2,6.3044E4,1.2735549E2,2.6144336E2,3.686965E2,-1.8829953E2,-9.317455E1,-2.0911766E2,-1.4850697E2,-1.1816137E2,-7.15928E1,-8.4506386E1,-3.5541145E1,-1.3125125E1,4.7688057E1,-1.4669234E2,-1.0170092E2,-6.737359E1,8.570103E0,-7.387689E1,-2.9750334E1,-2.2615515E1,1.0400981E1,-7.355795E1,-1.1995054E1,-2.961302E1,1.803385E1,6.912088E0,5.4384094E1,5.619767E1,1.02884605E2,-6.503329E1,-2.7486944E1,-1.0790069E1,2.0116686E1,4.095205E0,6.542132E1,6.0031403E1,1.1293572E2,2.5579365E1,7.163045E1,2.464326E1,5.4825344E1,8.199808E1,1.2742704E2,1.12795654E2,1.730938E2,2.0266075E2,2.7290848E2],"split_indices":[5,7,7,15,5,14,5,7,7,15,14,5,15,14,14,15,15,0,15,7,7,14,5,14,14,11,10,5,5,0,13,0,14,15,7,0,0,7,7,7,11,15,15,7,5,14,14,5,14,5,5,14,0,0,0,14,15,14,0,5,0,0,0,0,0,0,0,0,0,0,0,0,0,0,0,0,0,0,0,0,0,0,0,0,0,0,0,0,0,0,0,0,0,0,0,0,0,0,0,0,0,0,0,0,0,0,0],"split_type":[0,0,0,0,0,0,0,0,0,0,0,0,0,0,0,0,0,0,0,0,0,0,0,0,0,0,0,0,0,0,0,0,0,0,0,0,0,0,0,0,0,0,0,0,0,0,0,0,0,0,0,0,0,0,0,0,0,0,0,0,0,0,0,0,0,0,0,0,0,0,0,0,0,0,0,0,0,0,0,0,0,0,0,0,0,0,0,0,0,0,0,0,0,0,0,0,0,0,0,0,0,0,0,0,0,0,0],"sum_hessian":[1.455E3,9.63E2,4.92E2,4.01E2,5.62E2,2.21E2,2.71E2,3.28E2,7.3E1,2.05E2,3.57E2,1.32E2,8.9E1,1.31E2,1.4E2,1.37E2,1.91E2,1.6E1,5.7E1,9.8E1,1.07E2,1.8E2,1.77E2,6.9E1,6.3E1,4.5E1,4.4E1,6E1,7.1E1,7.1E1,6.9E1,3.9E1,9.8E1,1.15E2,7.6E1,1.1E1,5E0,3.9E1,1.8E1,7.7E1,2.1E1,7.1E1,3.6E1,7.1E1,1.09E2,9.9E1,7.8E1,2.4E1,4.5E1,2.8E1,3.5E1,2.5E1,2E1,5E0,3.9E1,1.6E1,4.4E1,3E1,4.1E1,6E1,1.1E1,2.4E1,4.5E1,9.3E1,5E0,2.9E1,8.6E1,3.5E1,4.1E1,7E0,3.2E1,9E0,9E0,3.5E1,4.2E1,1.4E1,7E0,4.7E1,2.4E1,2.1E1,1.5E1,6.4E1,7E0,7.9E1,3E1,5.9E1,4E1,2.8E1,5E1,1.6E1,8E0,2.2E1,2.3E1,2E1,8E0,1.9E1,1.6E1,6E0,1.9E1,6E0,1E1,1.6E1,2.8E1,1E1,2E1,3.8E1,2.2E1],"tree_param":{"num_deleted":"0","num_feature":"16","num_nodes":"107","size_leaf_vector":"1"}},{"base_weights":[-2.1815755E0,-1.5396189E3,3.0663445E3,-3.1817698E3,-6.180608E2,2.0994207E3,5.3347783E3,-4.0015317E3,-2.601245E3,-1.1281057E3,1.8872351E2,1.5180392E3,3.091903E3,4.3103545E3,6.0783374E3,-2.1695488E2,-3.27229E3,-3.2963298E3,-2.054941E3,-1.8666705E3,-7.2285913E2,-6.01405E2,6.309981E2,9.216529E2,2.274222E3,2.5337925E3,2.0308728E2,2.279616E2,1.348367E2,2.52901E2,3.32072E2,-1.7726427E2,-1.2438252E2,-1.8155377E2,-1.4441652E2,-2.343516E3,-1.5347273E3,-2.13217E3,-1.4069932E3,-1.0538452E3,-3.9664273E2,-9.2761523E2,-2.7632632E2,3.5971472E2,9.9136786E2,2.3201204E2,1.2636427E3,1.5225073E3,2.52094E3,1.9358E3,1.4207797E2,-1.2742195E2,-9.19963E1,-8.997443E1,-5.3885365E1,-1.234858E2,-8.80368E1,-8.27199E1,-5.115566E1,-6.2948544E1,-3.6127743E1,-3.5846172E1,-1.2241349E1,-5.8521374E1,-2.2235577E1,-3.1547796E1,-3.8988178E0,7.090861E1,1.4038348E1,2.3781548E1,5.8029415E1,-1.4598427E1,2.0244156E1,5.1381298E1,8.9559715E1,4.013104E1,8.727401E1,1.0625063E2,1.4890031E2,8.115022E1,1.3881851E2],"categories":[],"categories_nodes":[],"categories_segments":[],"categories_sizes":[],"default_left":[0,0,0,0,0,0,0,0,0,0,0,0,0,0,0,0,0,0,0,0,0,0,0,0,0,0,0,0,0,0,0,0,0,0,0,0,0,0,0,0,0,0,0,0,0,0,0,0,0,0,0,0,0,0,0,0,0,0,0,0,0,0,0,0,0,0,0,0,0,0,0,0,0,0,0,0,0,0,0,0,0],"id":14,"left_children":[1,3,5,7,9,11,13,15,17,19,21,23,25,27,29,-1,31,33,35,37,39,41,43,45,47,49,-1,-1,-1,-1,-1,-1,-1,-1,-1,51,53,55,57,59,61,63,65,67,69,71,73,75,77,79,-1,-1,-1,-1,-1,-1,-1,-1,-1,-1,-1,-1,-1,-1,-1,-1,-1,-1,-1,-1,-1,-1,-1,-1,-1,-1,-1,-1,-1,-1,-1],"loss_changes":[6.8406195E9,1.4599168E9,1.0504064E9,1.5472486E8,2.5534062E8,1.9206669E8,8.348672E7,2.0756224E7,7.144973E7,1.1238474E8,8.459785E7,9.576566E7,5.736768E7,1.3406336E7,1.2944384E7,0E0,1.675936E6,1.666944E6,1.4117184E7,1.33536E7,2.6251216E7,8.96938E6,1.4796408E7,2.871624E7,1.378032E7,9.590304E6,0E0,0E0,0E0,0E0,0E0,0E0,0E0,0E0,0E0,2.947232E6,3.50544E6,6.057248E6,3.24572E6,7.380768E6,5.950966E6,4.5213E6,3.116064E6,7.12231E6,5.207856E6,3.92263E6,8.368944E6,2.772184E6,6.33872E6,3.644224E6,0E0,0E0,0E0,0E0,0E0,0E0,0E0,0E0,0E0,0E0,0E0,0E0,0E0,0E0,0E0,0E0,0E0,0E0,0E0,0E0,0E0,0E0,0E0,0E0,0E0,0E0,0E0,0E0,0E0,0E0,0E0],"parents":[2147483647,0,0,1,1,2,2,3,3,4,4,5,5,6,6,7,7,8,8,9,9,10,10,11,11,12,12,13,13,14,14,16,16,17,17,18,18,19,19,20,20,21,21,22,22,23,23,24,24,25,25,35,35,36,36,37,37,38,38,39,39,40,40,41,41,42,42,43,43,44,44,45,45,46,46,47,47,48,48,49,49],"right_children":[2,4,6,8,10,12,14,16,18,20,22,24,26,28,30,-1,32,34,36,38,40,42,44,46,48,50,-1,-1,-1,-1,-1,-1,-1,-1,-1,52,54,56,58,60,62,64,66,68,70,72,74,76,78,80,-1,-1,-1,-1,-1,-1,-1,-1,-1,-1,-1,-1,-1,-1,-1,-1,-1,-1,-1,-1,-1,-1,-1,-1,-1,-1,-1,-1,-1,-1,-1],"split_conditions":[5.1995E4,4.6299E4,5.8468E4,4.3406E4,4.9616E4,1.131E3,6.0533E4,-5.9E1,-1.023E3,-5.96E2,-9.4E1,5.4659E4,5.5795E4,6.1705E4,1.12E2,-2.1695488E2,4.2783E4,4.496E4,9.66E2,4.8402E4,4.8124E4,-1.293E3,5.0745E4,-1.06E3,-1.527E3,4.9787168E4,2.0308728E2,2.279616E2,1.348367E2,2.52901E2,3.32072E2,-1.7726427E2,-1.2438252E2,-1.8155377E2,-1.4441652E2,4.5287E4,4.3326E4,-1.722E3,-1.496E3,1.063E3,2.24E2,7E0,4.9733E4,4.7491E4,5E0,5.2626E4,5.3849E4,5.5636E4,5.6718E4,2E3,1.4207797E2,-1.2742195E2,-9.19963E1,-8.997443E1,-5.3885365E1,-1.234858E2,-8.80368E1,-8.27199E1,-5.115566E1,-6.2948544E1,-3.6127743E1,-3.5846172E1,-1.2241349E1,-5.8521374E1,-2.2235577E1,-3.1547796E1,-3.8988178E0,7.090861E1,1.4038348E1,2.3781548E1,5.8029415E1,-1.4598427E1,2.0244156E1,5.1381298E1,8.9559715E1,4.013104E1,8.727401E1,1.0625063E2,1.4890031E2,8.115022E1,1.3881851E2],"split_indices":[4,4,4,4,4,14,4,14,14,14,14,4,4,10,14,0,4,4,14,4,4,14,4,14,14,10,0,0,0,0,0,0,0,0,0,4,10,14,14,14,14,0,7,5,0,4,4,4,4,14,0,0,0,0,0,0,0,0,0,0,0,0,0,0,0,0,0,0,0,0,0,0,0,0,0,0,0,0,0,0,0],"split_type":[0,0,0,0,0,0,0,0,0,0,0,0,0,0,0,0,0,0,0,0,0,0,0,0,0,0,0,0,0,0,0,0,0,0,0,0,0,0,0,0,0,0,0,0,0,0,0,0,0,0,0,0,0,0,0,0,0,0,0,0,0,0,0,0,0,0,0,0,0,0,0,0,0,0,0,0,0,0,0,0,0],"sum_hessian":[1.448E3,9.65E2,4.83E2,3.46E2,6.19E2,3.4E2,1.43E2,1.41E2,2.05E2,3.79E2,2.4E2,2.16E2,1.24E2,6.3E1,8E1,9.3E1,4.8E1,8.8E1,1.17E2,1.33E2,2.46E2,8.6E1,1.54E2,1.22E2,9.4E1,8.1E1,4.3E1,5.3E1,1E1,3.2E1,4.8E1,3.3E1,1.5E1,4.4E1,4.4E1,7.3E1,4.4E1,8.2E1,5.1E1,1.21E2,1.25E2,4.2E1,4.4E1,8.9E1,6.5E1,4.1E1,8.1E1,2.5E1,6.9E1,3E1,5.1E1,4.9E1,2.4E1,2.6E1,1.8E1,4E1,4.2E1,2.9E1,2.2E1,7.3E1,4.8E1,3.9E1,8.6E1,2.7E1,1.5E1,1.5E1,2.9E1,5E0,8.4E1,1.7E1,4.8E1,1E1,3.1E1,5.8E1,2.3E1,7E0,1.8E1,4E1,2.9E1,2.4E1,6E0],"tree_param":{"num_deleted":"0","num_feature":"16","num_nodes":"81","size_leaf_vector":"1"}},{"base_weights":[-6.588507E1,-1.3343733E3,2.6968652E3,-2.510131E3,-4.3474323E2,1.7059354E3,4.642146E3,-3.506224E3,-1.7305867E3,-1.561408E3,5.0192603E2,6.251943E2,3.133999E3,3.5948726E3,5.8624785E3,-4.0607317E3,-3.0186624E3,-2.6681064E3,-1.1915363E3,-2.098918E3,-9.114043E2,-1.2544902E2,1.0836038E3,1.6360398E3,1.14472404E2,2.2589905E3,3.6071099E3,4.245356E3,2.0162073E3,2.4470097E2,3.3719806E2,-2.1592715E2,-1.6862283E2,-1.6971379E2,-2.4207803E3,-3.0081526E3,-1.6772588E3,-1.4896621E3,-5.368457E2,-2.4864558E3,-1.4477399E3,-1.5182502E3,-5.849209E2,-4.0002487E2,6.209721E2,4.0773364E2,1.5559772E3,9.683447E2,1.03310905E2,-5.6398804E2,5.1097757E2,7.617159E1,1.3568684E2,3.0031187E3,2.0836575E2,1.7531299E2,2.4118301E2,3.176515E1,1.15058365E2,-1.3345323E2,-9.347183E1,-1.7688968E2,-1.3274484E2,-4.8550243E1,-9.026336E1,-8.900905E1,-5.0455196E1,-3.744494E1,2.0372587E1,-1.320644E2,-8.966494E1,-8.971999E1,-5.2468575E1,-8.627816E1,-6.0714428E1,-4.0354504E1,-8.701821E0,-3.8240154E1,-5.4978623E0,-1.1064736E1,4.6859158E1,-6.7493377E0,3.2654995E1,6.1693287E1,1.090588E2,3.1599796E1,6.694809E1,-4.026869E1,1.1668793E1,5.2286906E0,4.2272118E1,1.3467273E2,1.954042E2],"categories":[],"categories_nodes":[],"categories_segments":[],"categories_sizes":[],"default_left":[0,0,0,0,0,0,0,0,0,0,0,0,0,0,0,0,0,0,0,0,0,0,0,0,0,0,0,0,0,0,0,0,0,0,0,0,0,0,0,0,0,0,0,0,0,0,0,0,0,0,0,0,0,0,0,0,0,0,0,0,0,0,0,0,0,0,0,0,0,0,0,0,0,0,0,0,0,0,0,0,0,0,0,0,0,0,0,0,0,0,0,0,0],"id":15,"left_children":[1,3,5,7,9,11,13,15,17,19,21,23,25,27,29,31,33,35,37,39,41,43,45,47,49,51,53,55,57,-1,-1,-1,-1,-1,59,61,63,65,67,69,71,73,75,77,79,81,83,85,-1,87,89,-1,-1,91,-1,-1,-1,-1,-1,-1,-1,-1,-1,-1,-1,-1,-1,-1,-1,-1,-1,-1,-1,-1,-1,-1,-1,-1,-1,-1,-1,-1,-1,-1,-1,-1,-1,-1,-1,-1,-1,-1,-1],"loss_changes":[5.13421E9,1.0608865E9,8.8072064E8,3.317084E8,6.023118E8,4.7185382E8,1.7701786E8,3.9109376E7,1.2114157E8,8.857696E7,1.1399423E8,9.067445E7,4.649587E7,7.975283E7,2.6751232E7,6.95424E5,1.5362752E7,2.494112E7,3.003856E7,3.1982144E7,2.2688616E7,3.1195716E7,5.1085984E7,1.4945344E7,3.2031724E7,1.225552E7,1.5906432E7,8.73152E6,9.16232E6,0E0,0E0,0E0,0E0,0E0,1.03304E6,2.76832E6,5.0696E5,1.3281328E7,1.0517472E7,4.600064E6,5.712128E6,4.88E5,7.071022E6,1.1660766E7,1.112716E7,9.143453E6,1.643984E7,2.27E6,0E0,8.656793E6,1.0106074E7,0E0,0E0,1.803456E6,0E0,0E0,0E0,0E0,0E0,0E0,0E0,0E0,0E0,0E0,0E0,0E0,0E0,0E0,0E0,0E0,0E0,0E0,0E0,0E0,0E0,0E0,0E0,0E0,0E0,0E0,0E0,0E0,0E0,0E0,0E0,0E0,0E0,0E0,0E0,0E0,0E0,0E0,0E0],"parents":[2147483647,0,0,1,1,2,2,3,3,4,4,5,5,6,6,7,7,8,8,9,9,10,10,11,11,12,12,13,13,14,14,15,15,16,16,17,17,18,18,19,19,20,20,21,21,22,22,23,23,24,24,25,25,26,26,27,27,28,28,34,34,35,35,36,36,37,37,38,38,39,39,40,40,41,41,42,42,43,43,44,44,45,45,46,46,47,47,49,49,50,50,53,53],"right_children":[2,4,6,8,10,12,14,16,18,20,22,24,26,28,30,32,34,36,38,40,42,44,46,48,50,52,54,56,58,-1,-1,-1,-1,-1,60,62,64,66,68,70,72,74,76,78,80,82,84,86,-1,88,90,-1,-1,92,-1,-1,-1,-1,-1,-1,-1,-1,-1,-1,-1,-1,-1,-1,-1,-1,-1,-1,-1,-1,-1,-1,-1,-1,-1,-1,-1,-1,-1,-1,-1,-1,-1,-1,-1,-1,-1,-1,-1],"split_conditions":[5.2314E4,4.7021E4,5.8027E4,2.5E1,1.4E1,1.31E2,-7.6E1,4.4041E4,4.3202E4,-1.175E3,4.9303E4,4E0,1.146E3,4E0,5.9133574E3,4.9150625E4,-1.131E3,1.176E3,1.564E3,5.0207E4,4.8912E4,1.176E3,8.06E2,5.499E4,-2.182E3,5.3207E4,5.4659E4,6.1981E4,-3.14E3,2.4470097E2,3.3719806E2,-2.1592715E2,-1.6862283E2,-1.6971379E2,4.573E4,4.1731E4,4.8440832E4,4.5926E4,4.4637E4,5.2554043E4,-2.045E3,4.9475168E4,5.0551E4,4.8189E4,4.6299E4,3.2187825E3,1.526E3,-1.65E2,1.03310905E2,5.6439E4,5.3946E4,7.617159E1,1.3568684E2,2E3,2.0836575E2,1.7531299E2,2.4118301E2,3.176515E1,1.15058365E2,-1.3345323E2,-9.347183E1,-1.7688968E2,-1.3274484E2,-4.8550243E1,-9.026336E1,-8.900905E1,-5.0455196E1,-3.744494E1,2.0372587E1,-1.320644E2,-8.966494E1,-8.971999E1,-5.2468575E1,-8.627816E1,-6.0714428E1,-4.0354504E1,-8.701821E0,-3.8240154E1,-5.4978623E0,-1.1064736E1,4.6859158E1,-6.7493377E0,3.2654995E1,6.1693287E1,1.090588E2,3.1599796E1,6.694809E1,-4.026869E1,1.1668793E1,5.2286906E0,4.2272118E1,1.3467273E2,1.954042E2],"split_indices":[5,5,5,14,14,14,14,5,5,14,5,0,14,0,13,11,14,14,14,5,5,14,14,5,14,6,5,5,14,0,0,0,0,0,5,5,12,5,6,11,14,10,5,5,6,13,14,14,0,5,5,0,0,14,0,0,0,0,0,0,0,0,0,0,0,0,0,0,0,0,0,0,0,0,0,0,0,0,0,0,0,0,0,0,0,0,0,0,0,0,0,0,0],"split_type":[0,0,0,0,0,0,0,0,0,0,0,0,0,0,0,0,0,0,0,0,0,0,0,0,0,0,0,0,0,0,0,0,0,0,0,0,0,0,0,0,0,0,0,0,0,0,0,0,0,0,0,0,0,0,0,0,0,0,0,0,0,0,0,0,0,0,0,0,0,0,0,0,0,0,0,0,0,0,0,0,0,0,0,0,0,0,0,0,0,0,0,0,0],"sum_hessian":[1.463E3,1.003E3,4.6E2,4.34E2,5.69E2,3.06E2,1.54E2,1.89E2,2.45E2,2.58E2,3.11E2,1.75E2,1.31E2,8.5E1,6.9E1,8.5E1,1.04E2,8.8E1,1.57E2,1.4E2,1.18E2,1.5E2,1.61E2,5.8E1,1.17E2,4.8E1,8.3E1,5.9E1,2.6E1,3.6E1,3.3E1,5.8E1,2.7E1,6.1E1,4.3E1,6.4E1,2.4E1,1.07E2,5E1,8.6E1,5.4E1,4E1,7.8E1,1.1E2,4E1,6.7E1,9.4E1,2.4E1,3.4E1,4.3E1,7.4E1,2E1,2.8E1,4.3E1,4E1,2.9E1,3E1,5E0,2.1E1,2.7E1,1.6E1,2.2E1,4.2E1,5E0,1.9E1,6.5E1,4.2E1,4.1E1,9E0,6.8E1,1.8E1,2.7E1,2.7E1,2.1E1,1.9E1,5E1,2.8E1,4.8E1,6.2E1,1.1E1,2.9E1,2.1E1,4.6E1,6.4E1,3E1,1.4E1,1E1,3.3E1,1E1,3.4E1,4E1,3.5E1,8E0],"tree_param":{"num_deleted":"0","num_feature":"16","num_nodes":"93","size_leaf_vector":"1"}},{"base_weights":[-9.792178E0,-1.4197885E3,2.766522E3,-2.714848E3,-4.1576498E2,1.820021E3,4.7449336E3,-3.476028E3,-2.1252808E3,-9.474987E2,1.438326E2,1.4055323E3,2.7687761E3,4.0260793E3,5.9918086E3,-3.8332004E3,-2.8313716E3,-2.6384502E3,-1.5289886E3,-1.5081062E3,-5.8907166E2,-3.7196222E2,6.431579E2,6.5004663E2,1.9099529E3,2.1279695E3,1.8116893E2,3.4250251E3,2.4015889E2,2.674961E2,3.673419E2,-2.1670386E2,-1.7379314E2,-2.9689934E3,-7.996429E1,-1.4609285E2,-2.298773E3,-1.7372003E3,-1.2151794E3,-1.0299621E2,-1.2765325E3,-9.954998E2,-3.342886E2,-8.606559E2,-2.2937222E2,3.916224E2,8.9638055E2,3.740047E2,1.2264658E3,1.3962169E3,2.2235889E3,7.309086E1,2.3627952E3,1.3949327E2,1.8558914E2,-1.6606462E2,-1.2529907E2,-1.3422032E2,-1.0256106E2,-8.940888E1,-5.2967396E1,-3.9596653E1,-7.213631E1,-7.2073265E1,-5.4626534E1,-6.8575775E1,-3.1700583E1,-2.5633566E1,9.047038E0,-5.1270718E1,-2.2253172E1,1.3128435E1,-1.8396967E1,1.4742885E1,6.792462E1,2.5241564E1,5.4703564E1,7.940802E-1,3.402554E1,6.846544E1,3.3123592E1,4.005899E1,7.6338264E1,9.526939E1,1.26298645E2,8.808698E1,1.27224464E2],"categories":[],"categories_nodes":[],"categories_segments":[],"categories_sizes":[],"default_left":[0,0,0,0,0,0,0,0,0,0,0,0,0,0,0,0,0,0,0,0,0,0,0,0,0,0,0,0,0,0,0,0,0,0,0,0,0,0,0,0,0,0,0,0,0,0,0,0,0,0,0,0,0,0,0,0,0,0,0,0,0,0,0,0,0,0,0,0,0,0,0,0,0,0,0,0,0,0,0,0,0,0,0,0,0,0,0],"id":16,"left_children":[1,3,5,7,9,11,13,15,17,19,21,23,25,27,29,31,33,35,37,39,41,43,45,47,49,51,-1,53,-1,-1,-1,-1,-1,55,-1,-1,57,59,61,-1,63,65,67,69,71,73,75,77,79,81,83,-1,85,-1,-1,-1,-1,-1,-1,-1,-1,-1,-1,-1,-1,-1,-1,-1,-1,-1,-1,-1,-1,-1,-1,-1,-1,-1,-1,-1,-1,-1,-1,-1,-1,-1,-1],"loss_changes":[5.625283E9,1.238028E9,8.976865E8,1.7929907E8,1.6022198E8,1.2548672E8,1.1570202E8,3.0591744E7,6.848717E7,5.456997E7,6.797475E7,8.678822E7,4.650483E7,3.1190016E7,8.531072E6,5.15968E6,6.781504E6,5.412352E6,5.20664E6,1.104328E7,1.7270756E7,8.861248E6,8.183888E6,1.449802E7,1.9130464E7,5.775008E6,0E0,7.54368E5,0E0,0E0,0E0,0E0,0E0,1.463392E6,0E0,0E0,4.12032E5,3.51504E5,3.480032E6,0E0,7.9204E5,7.965384E6,9.835046E6,1.529178E6,7.049636E6,6.054838E6,4.556292E6,7.123972E6,1.509548E6,3.049008E6,3.268992E6,0E0,1.03584E5,0E0,0E0,0E0,0E0,0E0,0E0,0E0,0E0,0E0,0E0,0E0,0E0,0E0,0E0,0E0,0E0,0E0,0E0,0E0,0E0,0E0,0E0,0E0,0E0,0E0,0E0,0E0,0E0,0E0,0E0,0E0,0E0,0E0,0E0],"parents":[2147483647,0,0,1,1,2,2,3,3,4,4,5,5,6,6,7,7,8,8,9,9,10,10,11,11,12,12,13,13,14,14,15,15,16,16,17,17,18,18,19,19,20,20,21,21,22,22,23,23,24,24,25,25,27,27,33,33,36,36,37,37,38,38,40,40,41,41,42,42,43,43,44,44,45,45,46,46,47,47,48,48,49,49,50,50,52,52],"right_children":[2,4,6,8,10,12,14,16,18,20,22,24,26,28,30,32,34,36,38,40,42,44,46,48,50,52,-1,54,-1,-1,-1,-1,-1,56,-1,-1,58,60,62,-1,64,66,68,70,72,74,76,78,80,82,84,-1,86,-1,-1,-1,-1,-1,-1,-1,-1,-1,-1,-1,-1,-1,-1,-1,-1,-1,-1,-1,-1,-1,-1,-1,-1,-1,-1,-1,-1,-1,-1,-1,-1,-1,-1],"split_conditions":[5.2121E4,4.6894E4,5.8027E4,4.3688E4,2.87E2,5.5636E4,6.1981E4,-9.4E1,-9.4E1,4.8771E4,4.9589E4,-4.8E1,1.7E1,1.7E1,6.4748E4,4.2004E4,1.176E3,-1.471E3,1.306E3,-1.97E3,-1.314E3,4.6800207E4,5.0745E4,5.439E4,5.3111E4,-1.527E3,1.8116893E2,5.9233E4,2.4015889E2,2.674961E2,3.673419E2,-2.1670386E2,-1.7379314E2,4.2628E4,-7.996429E1,-1.4609285E2,4.4698E4,6.4771313E3,4.8719E4,-1.0299621E2,4.7863E4,5.02E4,5.0639E4,4.7539E4,1.3E1,2.457E3,1.5E1,-1.36E3,5.1409957E4,4E0,1.322E3,7.309086E1,5.6215E4,1.3949327E2,1.8558914E2,-1.6606462E2,-1.2529907E2,-1.3422032E2,-1.0256106E2,-8.940888E1,-5.2967396E1,-3.9596653E1,-7.213631E1,-7.2073265E1,-5.4626534E1,-6.8575775E1,-3.1700583E1,-2.5633566E1,9.047038E0,-5.1270718E1,-2.2253172E1,1.3128435E1,-1.8396967E1,1.4742885E1,6.792462E1,2.5241564E1,5.4703564E1,7.940802E-1,3.402554E1,6.846544E1,3.3123592E1,4.005899E1,7.6338264E1,9.526939E1,1.26298645E2,8.808698E1,1.27224464E2],"split_indices":[4,4,4,4,14,4,4,14,14,4,4,14,0,0,4,4,14,14,14,14,14,11,4,4,4,14,0,4,0,0,0,0,0,4,0,0,4,13,9,0,4,4,4,5,0,14,0,14,11,0,14,0,4,0,0,0,0,0,0,0,0,0,0,0,0,0,0,0,0,0,0,0,0,0,0,0,0,0,0,0,0,0,0,0,0,0,0],"split_type":[0,0,0,0,0,0,0,0,0,0,0,0,0,0,0,0,0,0,0,0,0,0,0,0,0,0,0,0,0,0,0,0,0,0,0,0,0,0,0,0,0,0,0,0,0,0,0,0,0,0,0,0,0,0,0,0,0,0,0,0,0,0,0,0,0,0,0,0,0,0,0,0,0,0,0,0,0,0,0,0,0,0,0,0,0,0,0],"sum_hessian":[1.435E3,9.52E2,4.83E2,4.15E2,5.37E2,3.28E2,1.55E2,1.79E2,2.36E2,2.75E2,2.62E2,2.3E2,9.8E1,1.01E2,5.4E1,1.12E2,6.7E1,1.25E2,1.11E2,1.06E2,1.69E2,1.29E2,1.33E2,9.3E1,1.37E2,5.8E1,4E1,6E1,4.1E1,4E1,1.4E1,4.2E1,7E1,5.9E1,8E0,6.4E1,6.1E1,6.4E1,4.7E1,2.9E1,7.7E1,6.4E1,1.05E2,2.8E1,1.01E2,6.8E1,6.5E1,6.4E1,2.9E1,5.4E1,8.3E1,1.7E1,4.1E1,2.2E1,3.8E1,3E1,2.9E1,2E1,4.1E1,5.8E1,6E0,1.8E1,2.9E1,3.7E1,4E1,3E1,3.4E1,7.8E1,2.7E1,1.9E1,9E0,2.2E1,7.9E1,6.3E1,5E0,2.3E1,4.2E1,3E1,3.4E1,2.2E1,7E0,1.1E1,4.3E1,4.4E1,3.9E1,1.2E1,2.9E1],"tree_param":{"num_deleted":"0","num_feature":"16","num_nodes":"87","size_leaf_vector":"1"}},{"base_weights":[2.5216547E1,-1.3271338E3,2.6525886E3,-2.5254666E3,-3.9634476E2,1.5947147E3,4.1278687E3,-3.275058E3,-1.9729703E3,-8.558198E2,1.266954E2,9.959819E2,2.280495E3,3.405924E3,5.0985205E3,-2.0136592E2,-2.9242861E3,-2.44928E3,-1.3064028E3,-1.2126425E3,-3.6621613E2,-4.831748E2,4.8039124E2,4.812768E2,1.4483245E3,1.7415851E3,2.8342935E3,2.8375164E3,2.0354686E2,2.0315334E2,2.9060165E2,-1.690599E2,-2.4354607E3,-2.6530288E3,-1.014735E2,-1.709889E3,-1.044211E3,-1.6288882E3,-9.462713E2,-6.9563135E2,-1.42248955E1,-6.533345E2,-1.2177689E2,2.2647404E2,8.036194E2,-6.444263E1,8.343969E2,1.0081819E2,1.1638079E3,1.5201493E3,1.1712588E2,2.6268184E3,1.7975682E2,2.3535535E3,1.6132886E2,-1.2648376E2,-7.357577E1,-1.4099217E2,-1.0884922E2,-6.809743E1,-9.861651E1,-7.225475E1,-4.4752098E1,-8.711166E1,-5.7501442E1,-6.2407684E1,-3.897135E1,-4.834782E1,-2.2547056E1,-1.0496932E1,1.3408394E1,-4.6734905E1,-2.4519781E1,-2.7497862E1,3.9190643E0,6.6876917E0,3.2636715E1,2.1737413E1,4.8743935E1,3.802578E0,-2.0036184E1,2.1410093E1,4.6910774E1,5.057809E1,8.54252E1,5.454884E1,8.702566E1,8.5237946E1,1.3750572E2,6.890536E1,1.2371047E2],"categories":[],"categories_nodes":[],"categories_segments":[],"categories_sizes":[],"default_left":[0,0,0,0,0,0,0,0,0,0,0,0,0,0,0,0,0,0,0,0,0,0,0,0,0,0,0,0,0,0,0,0,0,0,0,0,0,0,0,0,0,0,0,0,0,0,0,0,0,0,0,0,0,0,0,0,0,0,0,0,0,0,0,0,0,0,0,0,0,0,0,0,0,0,0,0,0,0,0,0,0,0,0,0,0,0,0,0,0,0,0],"id":17,"left_children":[1,3,5,7,9,11,13,15,17,19,21,23,25,27,29,-1,31,33,35,37,39,41,43,45,47,49,51,53,-1,-1,-1,-1,55,57,-1,59,61,63,65,67,69,71,73,75,77,79,81,-1,83,85,-1,87,-1,89,-1,-1,-1,-1,-1,-1,-1,-1,-1,-1,-1,-1,-1,-1,-1,-1,-1,-1,-1,-1,-1,-1,-1,-1,-1,-1,-1,-1,-1,-1,-1,-1,-1,-1,-1,-1,-1],"loss_changes":[5.123577E9,1.06085466E9,7.581399E8,1.6582298E8,1.29162456E8,1.155703E8,1.2558848E8,3.439987E7,7.363309E7,4.9520416E7,5.459066E7,3.539032E7,3.475693E7,3.380787E7,3.9183104E7,0E0,1.9236672E7,6.590272E6,9.110704E6,1.6752896E7,1.4136088E7,5.63943E6,1.2949608E7,1.4313984E7,1.09056E7,5.753408E6,6.58368E5,5.20928E6,0E0,0E0,0E0,0E0,1.998624E6,1.087168E6,0E0,8.74696E5,2.593312E6,1.415504E6,4.214792E6,3.746424E6,3.3723818E6,2.429726E6,2.6999708E6,3.509203E6,3.998116E6,1.4478742E6,1.495796E6,0E0,2.998352E6,3.207856E6,0E0,1.450368E6,0E0,5.91472E5,0E0,0E0,0E0,0E0,0E0,0E0,0E0,0E0,0E0,0E0,0E0,0E0,0E0,0E0,0E0,0E0,0E0,0E0,0E0,0E0,0E0,0E0,0E0,0E0,0E0,0E0,0E0,0E0,0E0,0E0,0E0,0E0,0E0,0E0,0E0,0E0,0E0],"parents":[2147483647,0,0,1,1,2,2,3,3,4,4,5,5,6,6,7,7,8,8,9,9,10,10,11,11,12,12,13,13,14,14,16,16,17,17,18,18,19,19,20,20,21,21,22,22,23,23,24,24,25,25,26,26,27,27,32,32,33,33,35,35,36,36,37,37,38,38,39,39,40,40,41,41,42,42,43,43,44,44,45,45,46,46,48,48,49,49,51,51,53,53],"right_children":[2,4,6,8,10,12,14,16,18,20,22,24,26,28,30,-1,32,34,36,38,40,42,44,46,48,50,52,54,-1,-1,-1,-1,56,58,-1,60,62,64,66,68,70,72,74,76,78,80,82,-1,84,86,-1,88,-1,90,-1,-1,-1,-1,-1,-1,-1,-1,-1,-1,-1,-1,-1,-1,-1,-1,-1,-1,-1,-1,-1,-1,-1,-1,-1,-1,-1,-1,-1,-1,-1,-1,-1,-1,-1,-1,-1],"split_conditions":[5.2121E4,4.7021E4,5.7039E4,4.3816E4,2.95E2,6.09E2,6.0533E4,4.1877E4,1.62E2,4.9541E4,4.9009E4,5.3875E4,5.4229E4,1.6E1,1.12E2,-2.0136592E2,-4.88E2,-1.069E3,4.5227E4,-1.109E3,-8.34E2,4.9829125E4,5.0529E4,-1.223E3,3E0,1.738E3,2.074E3,5.3157E4,2.0354686E2,2.0315334E2,2.9060165E2,-1.690599E2,1.564E3,4.6299E4,-1.014735E2,5E0,4.7127332E4,5.38025E4,4.7922E4,5.0597E4,5.0597E4,4.7849E4,1.014E3,2.053E3,1.5E1,5.806247E3,3.7331465E3,1.0081819E2,-2.67E2,5.2626E4,1.1712588E2,1.6E1,1.7975682E2,-2.268E3,1.6132886E2,-1.2648376E2,-7.357577E1,-1.4099217E2,-1.0884922E2,-6.809743E1,-9.861651E1,-7.225475E1,-4.4752098E1,-8.711166E1,-5.7501442E1,-6.2407684E1,-3.897135E1,-4.834782E1,-2.2547056E1,-1.0496932E1,1.3408394E1,-4.6734905E1,-2.4519781E1,-2.7497862E1,3.9190643E0,6.6876917E0,3.2636715E1,2.1737413E1,4.8743935E1,3.802578E0,-2.0036184E1,2.1410093E1,4.6910774E1,5.057809E1,8.54252E1,5.454884E1,8.702566E1,8.5237946E1,1.3750572E2,6.890536E1,1.2371047E2],"split_indices":[4,4,4,4,14,14,4,4,14,4,4,4,4,0,14,0,14,14,4,14,14,11,4,14,0,14,14,9,0,0,0,0,14,4,0,1,11,11,4,4,4,4,14,15,0,13,13,0,14,4,0,0,0,14,0,0,0,0,0,0,0,0,0,0,0,0,0,0,0,0,0,0,0,0,0,0,0,0,0,0,0,0,0,0,0,0,0,0,0,0,0],"split_type":[0,0,0,0,0,0,0,0,0,0,0,0,0,0,0,0,0,0,0,0,0,0,0,0,0,0,0,0,0,0,0,0,0,0,0,0,0,0,0,0,0,0,0,0,0,0,0,0,0,0,0,0,0,0,0,0,0,0,0,0,0,0,0,0,0,0,0,0,0,0,0,0,0,0,0,0,0,0,0,0,0,0,0,0,0,0,0,0,0,0,0],"sum_hessian":[1.44E3,9.51E2,4.89E2,4.15E2,5.36E2,2.86E2,2.03E2,1.74E2,2.41E2,2.85E2,2.51E2,1.54E2,1.32E2,1.19E2,8.4E1,5.2E1,1.22E2,1.39E2,1.02E2,1.64E2,1.21E2,9.2E1,1.59E2,7.3E1,8.1E1,6.9E1,6.3E1,6.7E1,5.2E1,3.7E1,4.7E1,6E1,6.2E1,9E1,4.9E1,3.8E1,6.4E1,6.2E1,1.02E2,6.2E1,5.9E1,6.2E1,3E1,9E1,6.9E1,2.9E1,4.4E1,2.5E1,5.6E1,5.3E1,1.6E1,5.3E1,1E1,3.3E1,3.4E1,5.5E1,7E0,6.3E1,2.7E1,1.9E1,1.9E1,1.5E1,4.9E1,4.8E1,1.4E1,3.4E1,6.8E1,2.8E1,3.4E1,3.5E1,2.4E1,2.1E1,4.1E1,9E0,2.1E1,7.5E1,1.5E1,2.3E1,4.6E1,2.1E1,8E0,1E1,3.4E1,4.6E1,1E1,2E1,3.3E1,8E0,4.5E1,5E0,2.8E1],"tree_param":{"num_deleted":"0","num_feature":"16","num_nodes":"91","size_leaf_vector":"1"}},{"base_weights":[5.884222E1,-1.1803838E3,2.617205E3,-2.4006855E3,-3.1151334E2,1.8132139E3,4.356939E3,-2.969542E3,-1.7828496E3,-7.17846E2,2.7958313E2,1.257037E3,2.480401E3,3.9470347E3,3.0083112E2,-3.2041123E3,-1.8749204E3,-2.214879E3,-1.1207943E3,-1.4095952E3,-3.9530954E2,-3.2272125E2,7.065519E2,7.813895E2,1.8275645E3,1.8638293E3,3.0801162E3,3.4216746E3,2.353784E2,-1.9375148E2,-2.9946301E3,-7.721768E1,-1.0965718E2,-1.2177156E2,-8.8164825E1,-1.3169271E3,-8.8683246E2,-1.6251643E3,-9.971072E2,-7.672531E2,-2.1727771E2,-4.6987405E2,1.8394775E2,4.782817E2,1.0079625E3,3.088376E2,1.0861951E3,2.113887E3,1.3611681E3,1.409312E3,2.0855142E3,1.357495E2,1.8248845E2,1.3010828E2,1.882813E2,-1.6378441E2,-1.2713462E2,-6.96137E1,-3.1639174E1,-5.110697E1,-5.146133E0,-9.4284134E1,-6.6336815E1,-5.8114155E1,-2.8231766E1,-1.5269233E1,-4.5792492E1,-2.2884167E1,-1.14930965E-1,-3.3789608E1,-1.1449628E1,-2.6331809E0,2.4840946E1,1.1755314E1,3.2909664E1,3.893417E1,7.248335E1,5.4693966E0,3.236256E1,4.330152E1,6.947635E1,8.6479645E1,1.2365513E2,4.90612E1,8.047378E1,4.501056E1,7.5361725E1,8.115503E1,1.1508256E2],"categories":[],"categories_nodes":[],"categories_segments":[],"categories_sizes":[],"default_left":[0,0,0,0,0,0,0,0,0,0,0,0,0,0,0,0,0,0,0,0,0,0,0,0,0,0,0,0,0,0,0,0,0,0,0,0,0,0,0,0,0,0,0,0,0,0,0,0,0,0,0,0,0,0,0,0,0,0,0,0,0,0,0,0,0,0,0,0,0,0,0,0,0,0,0,0,0,0,0,0,0,0,0,0,0,0,0,0,0],"id":18,"left_children":[1,3,5,7,9,11,13,15,17,19,21,23,25,27,-1,29,31,33,35,37,39,41,43,45,47,49,51,53,-1,-1,55,-1,-1,-1,-1,57,59,61,63,65,67,69,71,73,75,77,79,81,83,85,87,-1,-1,-1,-1,-1,-1,-1,-1,-1,-1,-1,-1,-1,-1,-1,-1,-1,-1,-1,-1,-1,-1,-1,-1,-1,-1,-1,-1,-1,-1,-1,-1,-1,-1,-1,-1,-1,-1],"loss_changes":[4.663563E9,1.0499935E9,6.6349005E8,1.3950694E8,1.3950619E8,1.1933606E8,7.897805E7,4.8683136E7,5.472275E7,7.619395E7,6.1176196E7,4.7961024E7,4.935405E7,3.3436032E7,0E0,1.284992E7,8.204E5,7.656896E6,2.548784E6,8.07152E6,1.5460596E7,7.46768E6,9.081384E6,1.4212084E7,8.072544E6,4.718224E6,5.48192E6,1.1904768E7,0E0,0E0,9.072256E6,0E0,0E0,0E0,0E0,1.283808E6,4.137422E6,2.940096E6,2.200916E6,4.936236E6,8.3197325E6,3.6645E6,1.7288728E6,3.388922E6,4.846096E6,2.6964778E6,2.870168E6,2.486288E6,1.628148E6,3.8796E4,1.161088E6,0E0,0E0,0E0,0E0,0E0,0E0,0E0,0E0,0E0,0E0,0E0,0E0,0E0,0E0,0E0,0E0,0E0,0E0,0E0,0E0,0E0,0E0,0E0,0E0,0E0,0E0,0E0,0E0,0E0,0E0,0E0,0E0,0E0,0E0,0E0,0E0,0E0,0E0],"parents":[2147483647,0,0,1,1,2,2,3,3,4,4,5,5,6,6,7,7,8,8,9,9,10,10,11,11,12,12,13,13,15,15,16,16,17,17,18,18,19,19,20,20,21,21,22,22,23,23,24,24,25,25,26,26,27,27,30,30,35,35,36,36,37,37,38,38,39,39,40,40,41,41,42,42,43,43,44,44,45,45,46,46,47,47,48,48,49,49,50,50],"right_children":[2,4,6,8,10,12,14,16,18,20,22,24,26,28,-1,30,32,34,36,38,40,42,44,46,48,50,52,54,-1,-1,56,-1,-1,-1,-1,58,60,62,64,66,68,70,72,74,76,78,80,82,84,86,88,-1,-1,-1,-1,-1,-1,-1,-1,-1,-1,-1,-1,-1,-1,-1,-1,-1,-1,-1,-1,-1,-1,-1,-1,-1,-1,-1,-1,-1,-1,-1,-1,-1,-1,-1,-1,-1,-1],"split_conditions":[5.2403E4,4.695E4,5.8468E4,4.4508E4,4.9893E4,5.93E2,6.3392E4,7.22E2,1.62E2,-5.28E2,2.5E1,5.499E4,5.5268E4,1.014E3,3.0083112E2,4.1731E4,5E0,1E1,1.423E3,8E0,4.8124E4,5.2418E4,1.123E3,-1.078E3,4E0,5.3207E4,1.698E3,5.9985E4,2.353784E2,-1.9375148E2,-5.83E2,-7.721768E1,-1.0965718E2,-1.2177156E2,-8.8164825E1,4.681E4,4.3566E4,4.8565E4,4.887E4,1.4E1,5.68E2,5.1167E4,3.8825745E3,3.5543086E3,5.138E4,5.4035E4,5.3849E4,5.693E4,5.266E4,4.908901E4,1.322E3,1.357495E2,1.8248845E2,1.3010828E2,1.882813E2,-1.6378441E2,-1.2713462E2,-6.96137E1,-3.1639174E1,-5.110697E1,-5.146133E0,-9.4284134E1,-6.6336815E1,-5.8114155E1,-2.8231766E1,-1.5269233E1,-4.5792492E1,-2.2884167E1,-1.14930965E-1,-3.3789608E1,-1.1449628E1,-2.6331809E0,2.4840946E1,1.1755314E1,3.2909664E1,3.893417E1,7.248335E1,5.4693966E0,3.236256E1,4.330152E1,6.947635E1,8.6479645E1,1.2365513E2,4.90612E1,8.047378E1,4.501056E1,7.5361725E1,8.115503E1,1.1508256E2],"split_indices":[4,4,4,4,4,14,4,14,14,14,14,4,4,14,0,4,1,0,14,0,4,7,14,14,0,4,14,4,0,0,14,0,0,0,0,4,6,4,4,0,14,4,13,13,4,4,4,4,7,12,14,0,0,0,0,0,0,0,0,0,0,0,0,0,0,0,0,0,0,0,0,0,0,0,0,0,0,0,0,0,0,0,0,0,0,0,0,0,0],"split_type":[0,0,0,0,0,0,0,0,0,0,0,0,0,0,0,0,0,0,0,0,0,0,0,0,0,0,0,0,0,0,0,0,0,0,0,0,0,0,0,0,0,0,0,0,0,0,0,0,0,0,0,0,0,0,0,0,0,0,0,0,0,0,0,0,0,0,0,0,0,0,0,0,0,0,0,0,0,0,0,0,0,0,0,0,0,0,0,0,0],"sum_hessian":[1.469E3,9.9E2,4.79E2,4.11E2,5.79E2,3.29E2,1.5E2,2.12E2,1.99E2,3.43E2,2.36E2,1.81E2,1.48E2,1.23E2,2.7E1,1.73E2,3.9E1,1.19E2,8E1,1.08E2,2.35E2,9.8E1,1.38E2,1E2,8.1E1,7.5E1,7.3E1,7.6E1,4.7E1,3.7E1,1.36E2,2.2E1,1.7E1,7.7E1,4.2E1,4.1E1,3.9E1,6.9E1,3.9E1,7.5E1,1.6E2,7.6E1,2.2E1,8E1,5.8E1,4E1,6E1,4.8E1,3.3E1,2.7E1,4.8E1,4.8E1,2.5E1,2.5E1,5.1E1,8E1,5.6E1,3.6E1,5E0,3.3E1,6E0,3.4E1,3.5E1,2.7E1,1.2E1,1.9E1,5.6E1,7.5E1,8.5E1,4E1,3.6E1,1.3E1,9E0,3.5E1,4.5E1,4E1,1.8E1,2.6E1,1.4E1,3.7E1,2.3E1,2.6E1,2.2E1,1.5E1,1.8E1,6E0,2.1E1,1.8E1,3E1],"tree_param":{"num_deleted":"0","num_feature":"16","num_nodes":"89","size_leaf_vector":"1"}},{"base_weights":[2.7327713E1,-1.1536332E3,2.5405967E3,-2.3991768E3,-4.167833E2,1.7283724E3,4.2342827E3,-3.3174136E3,-2.0789114E3,-9.853594E2,5.383382E1,1.2953562E3,2.4513198E3,3.671936E3,5.561292E3,-1.7904056E2,-1.373637E2,-2.5199778E3,-1.5824181E3,-1.4585726E3,-6.401916E2,-3.1943723E2,5.9350446E2,7.4085864E2,1.6952815E3,1.8217588E3,2.903346E3,3.282005E3,2.3952405E2,2.1421265E2,3.0462036E2,-1.3987218E2,-2.1646482E3,-1.961623E3,-1.2630099E3,-1.7741403E3,-1.17828E3,-8.189978E2,-3.769554E2,-6.897861E2,-5.9694744E1,2.3779953E2,8.5405255E2,2.228792E2,1.0287565E3,1.0549111E3,1.9164164E3,1.2646185E3,1.957283E3,1.2308966E2,1.6418382E2,1.2288206E2,1.7674402E2,-1.1991756E2,-8.838265E1,-8.098779E1,-1.1190497E2,-5.0773876E1,-8.3272675E1,-9.5870995E1,-7.04641E1,-7.043828E1,-4.8568657E1,-4.6836548E1,-2.0847628E1,-2.3861113E1,-2.1089544E0,-4.4768463E1,-2.0221899E1,-8.306918E0,2.0053333E1,5.1698772E1,7.412338E0,3.1330046E1,5.1553772E1,-3.0696461E0,2.386624E1,2.6125692E1,5.582214E1,3.3185734E1,6.4381714E1,7.702096E1,1.1411761E2,3.702726E1,7.497919E1,5.6127094E1,1.0222281E2],"categories":[],"categories_nodes":[],"categories_segments":[],"categories_sizes":[],"default_left":[0,0,0,0,0,0,0,0,0,0,0,0,0,0,0,0,0,0,0,0,0,0,0,0,0,0,0,0,0,0,0,0,0,0,0,0,0,0,0,0,0,0,0,0,0,0,0,0,0,0,0,0,0,0,0,0,0,0,0,0,0,0,0,0,0,0,0,0,0,0,0,0,0,0,0,0,0,0,0,0,0,0,0,0,0,0,0],"id":19,"left_children":[1,3,5,7,9,11,13,15,17,19,21,23,25,27,29,-1,-1,31,33,35,37,39,41,43,45,47,49,51,-1,-1,-1,-1,53,55,57,59,61,63,65,67,69,71,73,75,77,79,81,83,85,-1,-1,-1,-1,-1,-1,-1,-1,-1,-1,-1,-1,-1,-1,-1,-1,-1,-1,-1,-1,-1,-1,-1,-1,-1,-1,-1,-1,-1,-1,-1,-1,-1,-1,-1,-1,-1,-1],"loss_changes":[4.345221E9,9.1310746E8,6.3648614E8,1.0191232E8,1.6782682E8,9.63735E7,9.226086E7,4.278208E6,5.6671104E7,4.5453984E7,6.948615E7,4.3317056E7,2.8290496E7,3.1817728E7,3.062528E6,0E0,0E0,8.239808E6,1.3631264E7,8.434976E6,7.504488E6,1.9582596E7,1.2864432E7,1.2595348E7,1.4404608E7,1.450768E6,3.167424E6,8.822656E6,0E0,0E0,0E0,0E0,2.06912E6,1.951008E6,5.779832E6,1.20448E5,1.7788E6,4.248024E6,2.29594E6,4.56542E6,6.001067E6,4.195884E6,2.615156E6,2.343963E6,1.857964E6,2.05848E6,8.179072E6,4.90072E5,6.15392E5,0E0,0E0,0E0,0E0,0E0,0E0,0E0,0E0,0E0,0E0,0E0,0E0,0E0,0E0,0E0,0E0,0E0,0E0,0E0,0E0,0E0,0E0,0E0,0E0,0E0,0E0,0E0,0E0,0E0,0E0,0E0,0E0,0E0,0E0,0E0,0E0,0E0,0E0],"parents":[2147483647,0,0,1,1,2,2,3,3,4,4,5,5,6,6,7,7,8,8,9,9,10,10,11,11,12,12,13,13,14,14,17,17,18,18,19,19,20,20,21,21,22,22,23,23,24,24,25,25,26,26,27,27,32,32,33,33,34,34,35,35,36,36,37,37,38,38,39,39,40,40,41,41,42,42,43,43,44,44,45,45,46,46,47,47,48,48],"right_children":[2,4,6,8,10,12,14,16,18,20,22,24,26,28,30,-1,-1,32,34,36,38,40,42,44,46,48,50,52,-1,-1,-1,-1,54,56,58,60,62,64,66,68,70,72,74,76,78,80,82,84,86,-1,-1,-1,-1,-1,-1,-1,-1,-1,-1,-1,-1,-1,-1,-1,-1,-1,-1,-1,-1,-1,-1,-1,-1,-1,-1,-1,-1,-1,-1,-1,-1,-1,-1,-1,-1,-1,-1],"split_conditions":[5.2314E4,4.645E4,5.8468E4,4.2562E4,4.9009E4,1.131E3,6.2718E4,-9.4E1,-1.83E2,-8.3E1,6.78E2,5.4118E4,5.4597E4,1.463E3,-4.19E2,-1.7904056E2,-1.373637E2,4.4778E4,4.4508E4,-1.471E3,4.8012E4,-8.07E2,5.0337E4,-7.14E2,-1.527E3,5.279E4,5.6215E4,5.7039E4,2.3952405E2,2.1421265E2,3.0462036E2,-1.3987218E2,-1.381E3,5E0,6E0,4.8184E4,4.7685E4,5.0868E4,4.9777418E4,5.0597E4,5.135E4,4.7428E4,5.1233E4,5.0467E4,3.7331465E3,5.5892E4,5.6076E4,4.9827E4,1.287E3,1.2308966E2,1.6418382E2,1.2288206E2,1.7674402E2,-1.1991756E2,-8.838265E1,-8.098779E1,-1.1190497E2,-5.0773876E1,-8.3272675E1,-9.5870995E1,-7.04641E1,-7.043828E1,-4.8568657E1,-4.6836548E1,-2.0847628E1,-2.3861113E1,-2.1089544E0,-4.4768463E1,-2.0221899E1,-8.306918E0,2.0053333E1,5.1698772E1,7.412338E0,3.1330046E1,5.1553772E1,-3.0696461E0,2.386624E1,2.6125692E1,5.582214E1,3.3185734E1,6.4381714E1,7.702096E1,1.1411761E2,3.702726E1,7.497919E1,5.6127094E1,1.0222281E2],"split_indices":[4,4,4,4,4,14,4,14,14,14,14,4,4,14,14,0,0,4,4,14,4,14,4,14,14,4,4,7,0,0,0,0,14,1,1,4,4,11,11,4,4,5,4,7,13,4,4,6,14,0,0,0,0,0,0,0,0,0,0,0,0,0,0,0,0,0,0,0,0,0,0,0,0,0,0,0,0,0,0,0,0,0,0,0,0,0,0],"split_type":[0,0,0,0,0,0,0,0,0,0,0,0,0,0,0,0,0,0,0,0,0,0,0,0,0,0,0,0,0,0,0,0,0,0,0,0,0,0,0,0,0,0,0,0,0,0,0,0,0,0,0,0,0,0,0,0,0,0,0,0,0,0,0,0,0,0,0,0,0,0,0,0,0,0,0,0,0,0,0,0,0,0,0,0,0,0,0],"sum_hessian":[1.462E3,9.95E2,4.67E2,3.69E2,6.26E2,3.17E2,1.5E2,9.3E1,2.76E2,2.83E2,3.43E2,2E2,1.17E2,1.08E2,4.2E1,6E1,3.3E1,1.44E2,1.32E2,1.18E2,1.65E2,2.03E2,1.4E2,8.5E1,1.15E2,5.1E1,6.6E1,8.3E1,2.5E1,1.5E1,2.7E1,7.7E1,6.7E1,5.8E1,7.4E1,5.3E1,6.5E1,9.7E1,6.8E1,8.3E1,1.2E2,6E1,8E1,3.1E1,5.4E1,3.1E1,8.4E1,1.2E1,3.9E1,3.4E1,3.2E1,2.2E1,6.1E1,3.9E1,2.8E1,2.9E1,2.9E1,4.8E1,2.6E1,3.5E1,1.8E1,2.8E1,3.7E1,7.4E1,2.3E1,5.2E1,1.6E1,4.7E1,3.6E1,9.8E1,2.2E1,5E0,5.5E1,3.7E1,4.3E1,1.5E1,1.6E1,9E0,4.5E1,1.3E1,1.8E1,4.4E1,4E1,5E0,7E0,5E0,3.4E1],"tree_param":{"num_deleted":"0","num_feature":"16","num_nodes":"87","size_leaf_vector":"1"}},{"base_weights":[1.0530003E1,-1.0043802E3,2.075757E3,-1.8895574E3,-1.9897987E2,9.660161E2,3.1501362E3,-2.2808635E3,-8.9584564E2,-7.0770636E2,4.4553442E2,-3.43035E2,1.2601348E3,2.3661548E3,3.908713E3,-2.8227678E3,-1.8228402E3,-1.7274376E3,-3.372857E2,-1.3992633E3,-3.547147E2,1.100773E2,1.1238268E3,2.69101E1,-5.4812146E2,6.744407E2,2.0239373E3,1.3638934E3,2.9197974E3,3.2713953E3,4.7568047E3,-1.5074008E2,-2.2614045E3,-2.672498E3,-1.4457122E3,-1.0332548E2,-9.3448206E2,-5.7272577E2,6.696937E2,-1.143422E3,-1.847214E3,-7.9798083E2,-8.069394E1,-2.2493301E2,1.1474784E3,9.205385E2,8.2350105E1,-7.9885315E2,-1.2711807E2,1.9755194E2,1.293282E3,1.6325396E3,2.6530608E3,6.6472986E2,1.7146198E3,1.0901135E2,3.149981E3,2.4911467E3,3.477703E3,3.5168413E3,2.721666E2,-6.569215E1,-1.1897756E2,-1.3959335E2,-8.036442E1,-8.669942E1,-5.535159E1,-6.910071E1,-1.6669085E1,-4.2995007E1,-5.7715235E0,8.850321E0,6.3892395E1,-8.674175E1,-4.7352753E1,-1.0003742E2,-3.9862255E1,-5.8557323E1,-2.6573431E1,-3.713287E1,6.801986E0,-2.2372416E1,2.8201814E0,4.1398308E1,9.282284E1,4.026036E1,8.146449E1,-2.1601398E1,-4.8284237E1,7.1176124E0,-1.9035557E1,-3.4884106E1,1.5020976E1,1.6313795E1,7.103115E1,6.452038E1,1.10643425E2,1.0587074E2,1.5761186E2,2.3276505E1,4.7616222E1,5.6647106E1,1.019729E2,1.1383063E2,1.6758469E2,7.200262E1,1.3818347E2,1.2054878E2,1.8153351E2,1.0165395E2,1.9267216E2],"categories":[],"categories_nodes":[],"categories_segments":[],"categories_sizes":[],"default_left":[0,0,0,0,0,0,0,0,0,0,0,0,0,0,0,0,0,0,0,0,0,0,0,0,0,0,0,0,0,0,0,0,0,0,0,0,0,0,0,0,0,0,0,0,0,0,0,0,0,0,0,0,0,0,0,0,0,0,0,0,0,0,0,0,0,0,0,0,0,0,0,0,0,0,0,0,0,0,0,0,0,0,0,0,0,0,0,0,0,0,0,0,0,0,0,0,0,0,0,0,0,0,0,0,0,0,0,0,0,0,0],"id":20,"left_children":[1,3,5,7,9,11,13,15,17,19,21,23,25,27,29,31,33,35,37,39,41,43,45,-1,47,49,51,53,55,57,59,-1,61,63,65,-1,67,69,71,73,75,77,79,81,83,85,-1,87,89,91,93,95,97,99,101,-1,103,105,107,109,-1,-1,-1,-1,-1,-1,-1,-1,-1,-1,-1,-1,-1,-1,-1,-1,-1,-1,-1,-1,-1,-1,-1,-1,-1,-1,-1,-1,-1,-1,-1,-1,-1,-1,-1,-1,-1,-1,-1,-1,-1,-1,-1,-1,-1,-1,-1,-1,-1,-1,-1],"loss_changes":[3.0979062E9,7.0612966E8,5.775982E8,1.8149133E8,1.7081373E8,9.322134E7,1.3764429E8,7.874739E7,6.212383E7,7.054062E7,5.2209916E7,8.42784E6,8.676355E7,6.482419E7,5.1460224E7,9.675264E6,5.573581E7,1.258752E7,1.9824372E7,9.118768E6,2.349956E7,5.4126904E7,6.566624E6,0E0,3.804038E6,3.3092748E7,1.6598496E7,1.0139896E7,6.580544E6,3.247808E6,2.4270336E7,0E0,1.687168E6,2.632768E6,1.0870112E7,0E0,4.381302E6,8.699318E6,4.5677445E6,5.905456E6,3.885656E6,6.73694E6,1.7460932E7,7.4122785E6,7.070688E6,3.347092E6,0E0,9.90211E5,1.079256E6,6.195444E6,5.570144E6,8.064352E6,1.613712E6,5.30432E5,3.357624E6,0E0,2.586688E6,1.462248E6,3.8368E5,2.653232E6,0E0,0E0,0E0,0E0,0E0,0E0,0E0,0E0,0E0,0E0,0E0,0E0,0E0,0E0,0E0,0E0,0E0,0E0,0E0,0E0,0E0,0E0,0E0,0E0,0E0,0E0,0E0,0E0,0E0,0E0,0E0,0E0,0E0,0E0,0E0,0E0,0E0,0E0,0E0,0E0,0E0,0E0,0E0,0E0,0E0,0E0,0E0,0E0,0E0,0E0,0E0],"parents":[2147483647,0,0,1,1,2,2,3,3,4,4,5,5,6,6,7,7,8,8,9,9,10,10,11,11,12,12,13,13,14,14,15,15,16,16,17,17,18,18,19,19,20,20,21,21,22,22,24,24,25,25,26,26,27,27,28,28,29,29,30,30,32,32,33,33,34,34,36,36,37,37,38,38,39,39,40,40,41,41,42,42,43,43,44,44,45,45,47,47,48,48,49,49,50,50,51,51,52,52,53,53,54,54,56,56,57,57,58,58,59,59],"right_children":[2,4,6,8,10,12,14,16,18,20,22,24,26,28,30,32,34,36,38,40,42,44,46,-1,48,50,52,54,56,58,60,-1,62,64,66,-1,68,70,72,74,76,78,80,82,84,86,-1,88,90,92,94,96,98,100,102,-1,104,106,108,110,-1,-1,-1,-1,-1,-1,-1,-1,-1,-1,-1,-1,-1,-1,-1,-1,-1,-1,-1,-1,-1,-1,-1,-1,-1,-1,-1,-1,-1,-1,-1,-1,-1,-1,-1,-1,-1,-1,-1,-1,-1,-1,-1,-1,-1,-1,-1,-1,-1,-1,-1],"split_conditions":[5.2121E4,4.7868E4,5.499E4,1.454E3,-5.2E2,4.8724E4,5.8468E4,4.4305E4,4.4031E4,4.6707E4,5.0503E4,5.3656E4,2.012E3,-1.551E3,6.1241E4,5.2E2,-1.3E3,3.104E3,4.861E3,6E0,5.1261E4,2.316E3,5.3072E4,2.69101E1,5.439E4,5.2703E4,4.96E3,-6.094E3,1.8E1,-3.93E2,-6.11E2,-1.5074008E2,1E0,1.4E1,4.6469E4,-1.0332548E2,4.3026E4,4.6421E4,5.77E3,4.3202E4,4.6147E4,-2.192E3,-6.232E3,7.36E2,3.841E3,2.173E3,8.2350105E1,4.9283395E4,5.092809E4,-1.422E3,-1.624E3,5.2835E4,5.1018E4,5.3306E4,5.7196E4,1.0901135E2,5.2188668E4,5.8027E4,4.961767E4,4E0,2.721666E2,-6.569215E1,-1.1897756E2,-1.3959335E2,-8.036442E1,-8.669942E1,-5.535159E1,-6.910071E1,-1.6669085E1,-4.2995007E1,-5.7715235E0,8.850321E0,6.3892395E1,-8.674175E1,-4.7352753E1,-1.0003742E2,-3.9862255E1,-5.8557323E1,-2.6573431E1,-3.713287E1,6.801986E0,-2.2372416E1,2.8201814E0,4.1398308E1,9.282284E1,4.026036E1,8.146449E1,-2.1601398E1,-4.8284237E1,7.1176124E0,-1.9035557E1,-3.4884106E1,1.5020976E1,1.6313795E1,7.103115E1,6.452038E1,1.10643425E2,1.0587074E2,1.5761186E2,2.3276505E1,4.7616222E1,5.6647106E1,1.019729E2,1.1383063E2,1.6758469E2,7.200262E1,1.3818347E2,1.2054878E2,1.8153351E2,1.0165395E2,1.9267216E2],"split_indices":[5,7,7,15,15,7,5,7,7,5,7,6,15,15,7,15,15,15,15,1,7,15,7,0,5,7,15,15,0,15,15,0,1,0,7,0,7,7,15,5,5,15,15,15,15,15,0,12,12,15,15,7,7,6,8,0,10,7,12,3,0,0,0,0,0,0,0,0,0,0,0,0,0,0,0,0,0,0,0,0,0,0,0,0,0,0,0,0,0,0,0,0,0,0,0,0,0,0,0,0,0,0,0,0,0,0,0,0,0,0,0],"split_type":[0,0,0,0,0,0,0,0,0,0,0,0,0,0,0,0,0,0,0,0,0,0,0,0,0,0,0,0,0,0,0,0,0,0,0,0,0,0,0,0,0,0,0,0,0,0,0,0,0,0,0,0,0,0,0,0,0,0,0,0,0,0,0,0,0,0,0,0,