{"learner":{"attributes":{"best_iteration":"197","best_score":"304.0627858058135","scikit_learn":"{\"_estimator_type\": \"regressor\"}"},"feature_names":[],"feature_types":[],"gradient_booster":{"model":{"cats":{"enc":[],"feature_segments":[],"sorted_idx":[]},"gbtree_model_param":{"num_parallel_tree":"1","num_trees":"218"},"iteration_indptr":[0,1,2,3,4,5,6,7,8,9,10,11,12,13,14,15,16,17,18,19,20,21,22,23,24,25,26,27,28,29,30,31,32,33,34,35,36,37,38,39,40,41,42,43,44,45,46,47,48,49,50,51,52,53,54,55,56,57,58,59,60,61,62,63,64,65,66,67,68,69,70,71,72,73,74,75,76,77,78,79,80,81,82,83,84,85,86,87,88,89,90,91,92,93,94,95,96,97,98,99,100,101,102,103,104,105,106,107,108,109,110,111,112,113,114,115,116,117,118,119,120,121,122,123,124,125,126,127,128,129,130,131,132,133,134,135,136,137,138,139,140,141,142,143,144,145,146,147,148,149,150,151,152,153,154,155,156,157,158,159,160,161,162,163,164,165,166,167,168,169,170,171,172,173,174,175,176,177,178,179,180,181,182,183,184,185,186,187,188,189,190,191,192,193,194,195,196,197,198,199,200,201,202,203,204,205,206,207,208,209,210,211,212,213,214,215,216,217,218],"tree_info":[0,0,0,0,0,0,0,0,0,0,0,0,0,0,0,0,0,0,0,0,0,0,0,0,0,0,0,0,0,0,0,0,0,0,0,0,0,0,0,0,0,0,0,0,0,0,0,0,0,0,0,0,0,0,0,0,0,0,0,0,0,0,0,0,0,0,0,0,0,0,0,0,0,0,0,0,0,0,0,0,0,0,0,0,0,0,0,0,0,0,0,0,0,0,0,0,0,0,0,0,0,0,0,0,0,0,0,0,0,0,0,0,0,0,0,0,0,0,0,0,0,0,0,0,0,0,0,0,0,0,0,0,0,0,0,0,0,0,0,0,0,0,0,0,0,0,0,0,0,0,0,0,0,0,0,0,0,0,0,0,0,0,0,0,0,0,0,0,0,0,0,0,0,0,0,0,0,0,0,0,0,0,0,0,0,0,0,0,0,0,0,0,0,0,0,0,0,0,0,0,0,0,0,0,0,0,0,0,0,0,0,0,0,0,0,0,0,0],"trees":[{"base_weights":[-4.419396E0,-1.6925662E3,1.8566895E3,-3.043803E3,-9.35068E2,1.0759626E3,3.3934202E3,-3.8564475E3,-2.4406904E3,-1.5384932E3,-5.185604E2,6.129272E2,1.7634479E3,2.791354E3,4.2697407E3,-2.3453853E2,-3.4634775E3,-2.5423538E3,-4.87486E1,-1.7371173E3,-7.7288367E2,-1.2687802E3,-2.5342055E2,1.747411E2,9.005058E2,1.370699E3,2.04963E3,2.3760198E3,3.2273228E3,1.9607812E2,2.5536748E2,-1.837934E2,-1.282882E2,-1.4218758E2,-2.301114E3,-1.0016046E2,-1.513811E3,-9.4444257E2,-3.5004434E2,-1.3787117E3,-3.1498625E1,-3.9403488E2,3.4185193E2,-2.6511856E2,3.1928195E2,8.150403E2,8.561067E1,9.9743695E2,1.5707053E3,1.8182991E3,1.204825E2,9.415534E1,1.26499146E2,1.23781944E2,1.6999312E2,-1.1820752E2,-6.876094E1,-8.4649796E1,-6.120277E1,-2.9056318E1,-5.771815E1,-2.773738E1,7.667285E-1,-7.40714E1,-4.5302216E1,-3.2160816E1,5.5907315E-1,7.6899467E0,4.289143E1,-2.8493534E1,-4.5381927E0,4.533809E0,2.4865839E1,2.6302992E1,4.710673E1,3.281416E1,5.643174E1,6.030534E1,8.928587E1,5.1131565E1,9.464196E1],"categories":[],"categories_nodes":[],"categories_segments":[],"categories_sizes":[],"default_left":[0,0,0,0,0,0,0,0,0,0,0,0,0,0,0,0,0,0,0,0,0,0,0,0,0,0,0,0,0,0,0,0,0,0,0,0,0,0,0,0,0,0,0,0,0,0,0,0,0,0,0,0,0,0,0,0,0,0,0,0,0,0,0,0,0,0,0,0,0,0,0,0,0,0,0,0,0,0,0,0,0],"id":0,"left_children":[1,3,5,7,9,11,13,15,17,19,21,23,25,27,29,-1,31,33,-1,35,37,39,41,43,45,47,49,51,53,-1,-1,-1,-1,-1,55,-1,57,59,61,63,-1,65,67,69,71,73,-1,75,77,79,-1,-1,-1,-1,-1,-1,-1,-1,-1,-1,-1,-1,-1,-1,-1,-1,-1,-1,-1,-1,-1,-1,-1,-1,-1,-1,-1,-1,-1,-1,-1],"loss_changes":[4.5776394E9,7.791529E8,8.277865E8,1.2487885E8,1.2260557E8,1.4566906E8,1.1101235E8,2.1457152E7,2.1362432E7,2.9070848E7,5.776095E7,3.474812E7,1.7983808E7,1.7862528E7,7.09248E6,0E0,6.20256E6,4.289408E6,0E0,6.355552E6,2.788574E6,4.46836E6,1.829844E7,7.141776E6,1.018952E7,4.480096E6,4.362912E6,1.00304E6,1.424E5,0E0,0E0,0E0,0E0,0E0,1.884512E6,0E0,2.60016E6,1.617022E6,1.0556801E6,1.764768E6,0E0,1.7778394E7,3.943266E6,1.4359892E6,3.373627E6,5.123576E6,0E0,6.46636E5,1.843976E6,2.09704E6,0E0,0E0,0E0,0E0,0E0,0E0,0E0,0E0,0E0,0E0,0E0,0E0,0E0,0E0,0E0,0E0,0E0,0E0,0E0,0E0,0E0,0E0,0E0,0E0,0E0,0E0,0E0,0E0,0E0,0E0,0E0],"parents":[2147483647,0,0,1,1,2,2,3,3,4,4,5,5,6,6,7,7,8,8,9,9,10,10,11,11,12,12,13,13,14,14,16,16,17,17,19,19,20,20,21,21,22,22,23,23,24,24,25,25,26,26,27,27,28,28,34,34,36,36,37,37,38,38,39,39,41,41,42,42,43,43,44,44,45,45,47,47,48,48,49,49],"right_children":[2,4,6,8,10,12,14,16,18,20,22,24,26,28,30,-1,32,34,-1,36,38,40,42,44,46,48,50,52,54,-1,-1,-1,-1,-1,56,-1,58,60,62,64,-1,66,68,70,72,74,-1,76,78,80,-1,-1,-1,-1,-1,-1,-1,-1,-1,-1,-1,-1,-1,-1,-1,-1,-1,-1,-1,-1,-1,-1,-1,-1,-1,-1,-1,-1,-1,-1,-1],"split_conditions":[1.3381E4,1.1176E4,1.5532E4,1.0122E4,1.2039E4,1.4485E4,1.6811E4,8.901E3,2.2E1,3.22E2,-4.4E2,-1.56E2,-6.8E1,1.01E2,1.7965E4,-2.3453853E2,9.6E1,-2.12E2,-4.87486E1,-2.78E2,2.2E1,1.41095E4,7.21E2,1.2789875E4,2.2E1,1.4844E4,1.554E4,-5.39E2,1.5412E4,1.9607812E2,2.5536748E2,-1.837934E2,-1.282882E2,-1.4218758E2,1.3631E4,-1.0016046E2,1.1685E4,1.2E1,1.3538E4,1.2969E4,-3.1498625E1,1.2969E4,1.4275E4,1.3631E4,1.388E4,1.3669E4,8.561067E1,1.3814E4,6E0,-3.58E2,1.204825E2,9.415534E1,1.26499146E2,1.23781944E2,1.6999312E2,-1.1820752E2,-6.876094E1,-8.4649796E1,-6.120277E1,-2.9056318E1,-5.771815E1,-2.773738E1,7.667285E-1,-7.40714E1,-4.5302216E1,-3.2160816E1,5.5907315E-1,7.6899467E0,4.289143E1,-2.8493534E1,-4.5381927E0,4.533809E0,2.4865839E1,2.6302992E1,4.710673E1,3.281416E1,5.643174E1,6.030534E1,8.928587E1,5.1131565E1,9.464196E1],"split_indices":[4,4,4,4,4,4,4,4,0,14,14,14,14,14,4,0,14,14,0,14,0,10,14,11,0,4,7,14,9,0,0,0,0,0,9,0,4,0,9,4,0,4,8,4,4,4,0,7,0,15,0,0,0,0,0,0,0,0,0,0,0,0,0,0,0,0,0,0,0,0,0,0,0,0,0,0,0,0,0,0,0],"split_type":[0,0,0,0,0,0,0,0,0,0,0,0,0,0,0,0,0,0,0,0,0,0,0,0,0,0,0,0,0,0,0,0,0,0,0,0,0,0,0,0,0,0,0,0,0,0,0,0,0,0,0,0,0,0,0,0,0,0,0,0,0,0,0,0,0,0,0,0,0,0,0,0,0,0,0,0,0,0,0,0,0],"sum_hessian":[1.455E3,7.63E2,6.92E2,2.73E2,4.9E2,4.6E2,2.32E2,1.14E2,1.59E2,1.99E2,2.91E2,2.76E2,1.84E2,1.4E2,9.2E1,3.3E1,8.1E1,1.48E2,1.1E1,1.57E2,4.2E1,7.5E1,2.16E2,1.1E2,1.66E2,8E1,1.04E2,7.5E1,6.5E1,6.9E1,2.3E1,6.3E1,1.8E1,6.1E1,8.7E1,6.8E1,8.9E1,2.9E1,1.3E1,6.3E1,1.2E1,1.75E2,4.1E1,2.7E1,8.3E1,1.52E2,1.4E1,3E1,5E1,6.7E1,3.7E1,2.1E1,5.4E1,1.5E1,5E1,8E1,7E0,5.2E1,3.7E1,1.2E1,1.7E1,8E0,5E0,5E1,1.3E1,1.08E2,6.7E1,3.1E1,1E1,9E0,1.8E1,3.7E1,4.6E1,4.8E1,1.04E2,1E1,2E1,2.1E1,2.9E1,7E0,6E1],"tree_param":{"num_deleted":"0","num_feature":"16","num_nodes":"81","size_leaf_vector":"1"}},{"base_weights":[-8.362051E0,-1.627613E3,1.6746686E3,-3.103021E3,-1.0242576E3,9.517171E2,3.2219238E3,-2.0134819E2,-2.75006E3,-1.5710543E3,-5.0394632E2,5.366304E2,1.6420996E3,2.701038E3,4.1947915E3,-2.8193313E3,-6.4498116E1,-1.7563992E3,-8.6176685E2,-1.1581995E3,-2.703343E2,2.2113617E2,8.832362E2,1.3263235E3,1.9432997E3,2.300205E3,1.5356001E2,1.9090176E2,2.433853E2,-1.5719104E2,-1.2354342E2,-9.849799E1,-1.474253E3,-6.2893177E1,-6.177724E2,-1.2759148E3,-4.7309787E2,-4.402839E2,2.9588754E2,5.4992233E1,4.9260013E2,6.7963794E2,1.1524578E3,1.0338744E3,1.5411556E3,1.7996516E3,1.19646324E2,9.197584E1,1.2514854E2,-9.564734E1,-6.488692E1,-4.1950714E1,-1.878276E1,-6.773412E1,-3.7329952E1,-1.2377479E1,-2.9941263E1,-3.553386E1,-5.5185533E0,8.453265E0,3.477818E1,-1.1525251E1,9.236054E0,1.4924106E1,3.7121445E1,1.9221663E1,4.344506E1,5.0062225E1,7.942889E1,3.7124428E1,5.923138E1,5.018199E1,8.019286E1,5.6583935E1,9.562512E1],"categories":[],"categories_nodes":[],"categories_segments":[],"categories_sizes":[],"default_left":[0,0,0,0,0,0,0,0,0,0,0,0,0,0,0,0,0,0,0,0,0,0,0,0,0,0,0,0,0,0,0,0,0,0,0,0,0,0,0,0,0,0,0,0,0,0,0,0,0,0,0,0,0,0,0,0,0,0,0,0,0,0,0,0,0,0,0,0,0,0,0,0,0,0,0],"id":1,"left_children":[1,3,5,7,9,11,13,-1,15,17,19,21,23,25,27,29,-1,31,33,35,37,39,41,43,45,47,-1,-1,-1,-1,-1,-1,49,-1,51,53,55,57,59,61,63,65,67,69,71,73,-1,-1,-1,-1,-1,-1,-1,-1,-1,-1,-1,-1,-1,-1,-1,-1,-1,-1,-1,-1,-1,-1,-1,-1,-1,-1,-1,-1,-1],"loss_changes":[3.9516116E9,6.546757E8,7.922509E8,5.871373E7,1.488574E8,1.3839091E8,1.0319539E8,0E0,1.2343424E7,3.2140608E7,4.110679E7,3.3156976E7,1.473264E7,1.5191168E7,9.35424E5,9.19232E6,0E0,9.267008E6,4.53824E6,5.122128E6,1.9472354E7,7.234292E6,7.164448E6,4.186512E6,1.570656E6,2.494592E6,0E0,0E0,0E0,0E0,0E0,0E0,4.56384E6,0E0,1.613091E6,1.489952E6,1.919675E5,1.3748444E7,2.264645E6,3.7833352E6,2.736567E6,4.414912E6,2.431968E6,9.6518E5,1.08896E5,3.338192E6,0E0,0E0,0E0,0E0,0E0,0E0,0E0,0E0,0E0,0E0,0E0,0E0,0E0,0E0,0E0,0E0,0E0,0E0,0E0,0E0,0E0,0E0,0E0,0E0,0E0,0E0,0E0,0E0,0E0],"parents":[2147483647,0,0,1,1,2,2,3,3,4,4,5,5,6,6,8,8,9,9,10,10,11,11,12,12,13,13,14,14,15,15,17,17,18,18,19,19,20,20,21,21,22,22,23,23,24,24,25,25,32,32,34,34,35,35,36,36,37,37,38,38,39,39,40,40,41,41,42,42,43,43,44,44,45,45],"right_children":[2,4,6,8,10,12,14,-1,16,18,20,22,24,26,28,30,-1,32,34,36,38,40,42,44,46,48,-1,-1,-1,-1,-1,-1,50,-1,52,54,56,58,60,62,64,66,68,70,72,74,-1,-1,-1,-1,-1,-1,-1,-1,-1,-1,-1,-1,-1,-1,-1,-1,-1,-1,-1,-1,-1,-1,-1,-1,-1,-1,-1,-1,-1],"split_conditions":[1.3274E4,1.0797E4,1.5532E4,9.479E3,1.2039E4,1.4485E4,1.7035E4,-2.0134819E2,6.48E2,2.59E2,-4.46E2,6.9E1,0E0,3.6E1,1.7965E4,1.0283E4,-6.4498116E1,1.1558E4,1.1685E4,1.41095E4,7.21E2,1.3967E4,1.4219E4,1.4681583E4,1.5903E4,1.5963E4,1.5356001E2,1.9090176E2,2.433853E2,-1.5719104E2,-1.2354342E2,-9.849799E1,-6.1E2,-6.2893177E1,1.1504E4,1.3004E4,4E0,1.2745E4,1.4467E4,1.327325E4,-3.14E2,3.83E2,-1.21E2,-5.29E2,1.463E4,-3.58E2,1.19646324E2,9.197584E1,1.2514854E2,-9.564734E1,-6.488692E1,-4.1950714E1,-1.878276E1,-6.773412E1,-3.7329952E1,-1.2377479E1,-2.9941263E1,-3.553386E1,-5.5185533E0,8.453265E0,3.477818E1,-1.1525251E1,9.236054E0,1.4924106E1,3.7121445E1,1.9221663E1,4.344506E1,5.0062225E1,7.942889E1,3.7124428E1,5.923138E1,5.018199E1,8.019286E1,5.6583935E1,9.562512E1],"split_indices":[4,4,4,4,4,4,4,0,14,14,14,14,14,14,4,4,0,4,7,10,14,4,7,11,7,4,0,0,0,0,0,0,14,0,4,4,1,4,8,11,14,15,15,14,4,15,0,0,0,0,0,0,0,0,0,0,0,0,0,0,0,0,0,0,0,0,0,0,0,0,0,0,0,0,0],"split_type":[0,0,0,0,0,0,0,0,0,0,0,0,0,0,0,0,0,0,0,0,0,0,0,0,0,0,0,0,0,0,0,0,0,0,0,0,0,0,0,0,0,0,0,0,0,0,0,0,0,0,0,0,0,0,0,0,0,0,0,0,0,0,0,0,0,0,0,0,0,0,0,0,0,0,0],"sum_hessian":[1.448E3,7.38E2,7.1E2,2.13E2,5.25E2,4.85E2,2.25E2,5.6E1,1.57E2,2.55E2,2.7E2,3.04E2,1.81E2,1.49E2,7.6E1,1.49E2,8E0,2.01E2,5.4E1,7E1,2E2,1.6E2,1.44E2,9.1E1,9E1,7.5E1,7.4E1,5.3E1,2.3E1,7.3E1,7.6E1,1.11E2,9E1,1.9E1,3.5E1,5.9E1,1.1E1,1.54E2,4.6E1,1E2,6E1,8.4E1,6E1,4.1E1,5E1,7.2E1,1.8E1,2.6E1,4.9E1,2.3E1,6.7E1,1.7E1,1.8E1,5E1,9E0,5E0,6E0,8.4E1,7E1,3.6E1,1E1,3.1E1,6.9E1,3.5E1,2.5E1,3.4E1,5E1,4.7E1,1.3E1,1.6E1,2.5E1,7E0,4.3E1,1.2E1,6E1],"tree_param":{"num_deleted":"0","num_feature":"16","num_nodes":"75","size_leaf_vector":"1"}},{"base_weights":[-1.7178012E0,-1.4437319E3,1.6202826E3,-2.6689749E3,-7.898274E2,9.992547E2,3.084017E3,-3.4427688E3,-2.2109197E3,-1.3050653E3,-3.9603003E2,5.829435E2,1.6184617E3,2.6528762E3,2.0114806E2,-2.0371176E2,-3.0307659E3,-2.3218052E3,-1.089412E3,-1.4686945E3,-5.999937E2,-1.00805334E3,-1.6941216E2,2.8154993E2,9.3510345E2,1.1153818E3,1.7853798E3,2.3304978E3,1.5279808E2,-1.5772615E2,-9.757303E1,-1.3035396E2,-2.0963145E3,-6.2616726E1,-2.9099094E1,-1.711906E3,-1.250984E3,-7.900087E2,-1.6352725E2,-1.1316461E3,-4.738464E2,-3.4533023E2,2.2021242E2,5.14099E1,5.531028E2,7.1942065E2,1.2024896E3,3.6431774E1,1.2455404E3,1.636818E3,2.2047676E3,9.367159E1,1.2334316E2,-1.2423164E2,-9.629629E1,-8.756942E1,-4.6981117E1,-7.4418495E1,-4.9887753E1,-4.9899235E1,-3.1400848E1,-2.0909012E1,7.5425754E0,-6.1594715E1,-3.9985497E1,-3.0224247E1,-1.0975667E1,-2.9727697E1,-9.7083616E-1,-4.6254144E0,2.3734938E1,-1.6001913E1,1.01400795E1,1.520642E1,3.4509705E1,7.396398E0,4.025326E1,5.334273E1,7.897443E1,4.9249702E1,7.13407E1,6.228346E1,8.5316216E1,7.073229E1,1.178608E2],"categories":[],"categories_nodes":[],"categories_segments":[],"categories_sizes":[],"default_left":[0,0,0,0,0,0,0,0,0,0,0,0,0,0,0,0,0,0,0,0,0,0,0,0,0,0,0,0,0,0,0,0,0,0,0,0,0,0,0,0,0,0,0,0,0,0,0,0,0,0,0,0,0,0,0,0,0,0,0,0,0,0,0,0,0,0,0,0,0,0,0,0,0,0,0,0,0,0,0,0,0,0,0,0,0],"id":2,"left_children":[1,3,5,7,9,11,13,15,17,19,21,23,25,27,-1,-1,29,31,33,35,37,39,41,43,45,47,49,51,-1,-1,-1,-1,53,-1,-1,55,57,59,61,63,65,67,69,71,73,75,77,-1,79,81,83,-1,-1,-1,-1,-1,-1,-1,-1,-1,-1,-1,-1,-1,-1,-1,-1,-1,-1,-1,-1,-1,-1,-1,-1,-1,-1,-1,-1,-1,-1,-1,-1,-1,-1],"loss_changes":[3.3446953E9,6.043937E8,6.086884E8,8.560563E7,9.991821E7,1.2124538E8,7.02903E7,1.26272E7,1.836256E7,2.3807808E7,3.8941216E7,2.9986136E7,1.3963264E7,1.1070016E7,0E0,0E0,2.125056E6,4.311872E6,6.764E5,7.0184E6,3.353994E6,4.481448E6,1.4264253E7,9.658259E6,6.689568E6,1.60918E6,5.175808E6,4.88928E5,0E0,0E0,0E0,0E0,1.169184E6,0E0,0E0,7.62928E5,4.225456E6,3.50108E5,1.1839148E6,1.044472E6,3.988365E5,1.1603622E7,5.2168565E6,4.844796E6,2.213382E6,3.551704E6,1.229304E6,0E0,2.9464E5,8.10432E5,7.604E5,0E0,0E0,0E0,0E0,0E0,0E0,0E0,0E0,0E0,0E0,0E0,0E0,0E0,0E0,0E0,0E0,0E0,0E0,0E0,0E0,0E0,0E0,0E0,0E0,0E0,0E0,0E0,0E0,0E0,0E0,0E0,0E0,0E0,0E0],"parents":[2147483647,0,0,1,1,2,2,3,3,4,4,5,5,6,6,7,7,8,8,9,9,10,10,11,11,12,12,13,13,16,16,17,17,18,18,19,19,20,20,21,21,22,22,23,23,24,24,25,25,26,26,27,27,32,32,35,35,36,36,37,37,38,38,39,39,40,40,41,41,42,42,43,43,44,44,45,45,46,46,48,48,49,49,50,50],"right_children":[2,4,6,8,10,12,14,16,18,20,22,24,26,28,-1,-1,30,32,34,36,38,40,42,44,46,48,50,52,-1,-1,-1,-1,54,-1,-1,56,58,60,62,64,66,68,70,72,74,76,78,-1,80,82,84,-1,-1,-1,-1,-1,-1,-1,-1,-1,-1,-1,-1,-1,-1,-1,-1,-1,-1,-1,-1,-1,-1,-1,-1,-1,-1,-1,-1,-1,-1,-1,-1,-1,-1],"split_conditions":[1.3397E4,1.1176E4,1.5691E4,1.0044E4,1.2181E4,1.4566E4,1.7168E4,9.122E3,2.1E1,3.62E2,-4.4E2,6.9E1,-2.57E2,1.07E2,2.0114806E2,-2.0371176E2,2.1E1,1.0618E4,1.0838E4,-2.29E2,2.2E1,1.41095E4,4E2,1.3967E4,1.4249E4,1.4815E4,1.5747E4,1.5913E4,1.5279808E2,-1.5772615E2,-9.757303E1,-1.3035396E2,-5.15E2,-6.2616726E1,-2.9099094E1,1.4358613E4,1.1685E4,1.1558E4,1.1889238E4,1.3004E4,6E0,1.2969E4,1.3273E4,1.2728238E4,6E0,-2.01E2,2.2E1,3.6431774E1,1.4668E4,-3.48E2,1E1,9.367159E1,1.2334316E2,-1.2423164E2,-9.629629E1,-8.756942E1,-4.6981117E1,-7.4418495E1,-4.9887753E1,-4.9899235E1,-3.1400848E1,-2.0909012E1,7.5425754E0,-6.1594715E1,-3.9985497E1,-3.0224247E1,-1.0975667E1,-2.9727697E1,-9.7083616E-1,-4.6254144E0,2.3734938E1,-1.6001913E1,1.01400795E1,1.520642E1,3.4509705E1,7.396398E0,4.025326E1,5.334273E1,7.897443E1,4.9249702E1,7.13407E1,6.228346E1,8.5316216E1,7.073229E1,1.178608E2],"split_indices":[4,4,4,4,4,4,4,4,0,14,14,14,14,14,0,0,0,4,4,14,0,10,14,4,7,4,7,4,0,0,0,0,14,0,0,12,4,4,12,4,0,4,7,12,0,15,0,0,7,15,0,0,0,0,0,0,0,0,0,0,0,0,0,0,0,0,0,0,0,0,0,0,0,0,0,0,0,0,0,0,0,0,0,0,0],"split_type":[0,0,0,0,0,0,0,0,0,0,0,0,0,0,0,0,0,0,0,0,0,0,0,0,0,0,0,0,0,0,0,0,0,0,0,0,0,0,0,0,0,0,0,0,0,0,0,0,0,0,0,0,0,0,0,0,0,0,0,0,0,0,0,0,0,0,0,0,0,0,0,0,0,0,0,0,0,0,0,0,0,0,0,0,0],"sum_hessian":[1.428E3,7.56E2,6.72E2,2.62E2,4.94E2,4.73E2,1.99E2,9.5E1,1.67E2,2.13E2,2.81E2,2.84E2,1.89E2,1.39E2,6E1,3.4E1,6.1E1,1.51E2,1.6E1,1.72E2,4.1E1,7.5E1,2.06E2,1.54E2,1.3E2,4.9E1,1.4E2,8.1E1,5.8E1,5.3E1,8E0,6.2E1,8.9E1,1.1E1,5E0,7.8E1,9.4E1,2.8E1,1.3E1,6E1,1.5E1,1.42E2,6.4E1,8.4E1,7E1,7.4E1,5.6E1,1.4E1,3.5E1,1.07E2,3.3E1,2.2E1,5.9E1,2.3E1,6.6E1,7.3E1,5E0,4.6E1,4.8E1,1E1,1.8E1,7E0,6E0,4.4E1,1.6E1,9E0,6E0,8E1,6.2E1,2.9E1,3.5E1,2.4E1,6E1,2.6E1,4.4E1,1E1,6.4E1,4.4E1,1.2E1,1.7E1,1.8E1,1.9E1,8.8E1,7E0,2.6E1],"tree_param":{"num_deleted":"0","num_feature":"16","num_nodes":"85","size_leaf_vector":"1"}},{"base_weights":[1.0380661E1,-1.4505146E3,1.5240896E3,-2.5064514E3,-8.019602E2,7.232349E2,2.6793274E3,-3.2360164E3,-2.0377135E3,-1.2311238E3,-3.8394598E2,4.0318536E2,1.1668811E3,2.2650066E3,3.7976375E3,-2.0390886E2,-2.923071E3,-2.1596978E3,-1.1802377E3,-1.4405892E3,-4.9445834E2,-9.625972E2,-1.5836101E2,-9.220466E0,6.407692E2,6.928972E2,1.322041E3,1.9252173E3,2.596329E3,1.7182115E2,2.2129756E2,-1.5648817E2,-1.0818978E2,-1.2226747E2,-1.9574293E3,-1.4290402E3,-8.1234E2,-1.827748E3,-1.2737721E3,-8.90648E2,-1.2305478E2,-1.0942067E3,-4.8292343E2,-2.6881198E2,3.2980762E2,-3.058848E2,1.6995837E2,5.134432E2,9.9158887E2,4.037225E2,8.0679175E2,3.473898E1,1.3899972E3,8.143386E1,2.2080693E3,1.142405E2,1.4798792E2,-1.01991844E2,-7.320877E1,-4.5382755E1,-8.731312E1,-2.5552334E1,-4.7726437E1,-9.571499E1,-5.616159E1,-7.1262886E1,-5.1768513E1,-5.246424E1,-2.4601437E1,-1.8735678E1,7.934252E-1,-6.587574E1,-4.7189964E1,-3.0108122E1,-9.190736E0,-2.2354687E1,7.4207705E-1,6.956041E0,3.676982E1,-2.8375137E1,-6.274613E0,-2.4920156E0,1.2389687E1,1.6353333E1,3.3547985E1,2.8275568E1,5.957847E1,1.2953109E1,2.8875965E1,2.167241E1,4.3813652E1,6.310395E1,9.218748E1,1.14327225E2,6.772511E1],"categories":[],"categories_nodes":[],"categories_segments":[],"categories_sizes":[],"default_left":[0,0,0,0,0,0,0,0,0,0,0,0,0,0,0,0,0,0,0,0,0,0,0,0,0,0,0,0,0,0,0,0,0,0,0,0,0,0,0,0,0,0,0,0,0,0,0,0,0,0,0,0,0,0,0,0,0,0,0,0,0,0,0,0,0,0,0,0,0,0,0,0,0,0,0,0,0,0,0,0,0,0,0,0,0,0,0,0,0,0,0,0,0,0,0],"id":3,"left_children":[1,3,5,7,9,11,13,15,17,19,21,23,25,27,29,-1,31,33,35,37,39,41,43,45,47,49,51,53,55,-1,-1,-1,-1,-1,57,59,61,63,65,67,69,71,73,75,77,79,81,83,85,87,89,-1,91,-1,93,-1,-1,-1,-1,-1,-1,-1,-1,-1,-1,-1,-1,-1,-1,-1,-1,-1,-1,-1,-1,-1,-1,-1,-1,-1,-1,-1,-1,-1,-1,-1,-1,-1,-1,-1,-1,-1,-1,-1,-1],"loss_changes":[3.2374454E9,5.0818982E8,6.6326464E8,9.018432E7,8.258778E7,6.0016576E7,1.2761946E8,1.6805376E7,1.5755456E7,3.446925E7,3.0653712E7,2.4403228E7,1.2174464E7,1.9430912E7,2.492288E6,0E0,6.252992E6,3.995264E6,1.035722E6,9.103072E6,7.541906E6,3.63798E6,9.308747E6,4.942351E6,6.548348E6,1.189188E6,4.70336E6,5.713728E6,5.350976E6,0E0,0E0,0E0,0E0,0E0,8.33856E5,5.64866E5,2.61305E4,9.59328E5,3.110624E6,1.06446E6,9.8489725E5,4.69248E5,4.59882E5,7.086513E6,2.3724972E6,1.5805008E6,1.0046404E6,3.244622E6,2.819472E6,2.2742575E5,4.50144E5,0E0,4.579856E6,0E0,5.19632E5,0E0,0E0,0E0,0E0,0E0,0E0,0E0,0E0,0E0,0E0,0E0,0E0,0E0,0E0,0E0,0E0,0E0,0E0,0E0,0E0,0E0,0E0,0E0,0E0,0E0,0E0,0E0,0E0,0E0,0E0,0E0,0E0,0E0,0E0,0E0,0E0,0E0,0E0,0E0,0E0],"parents":[2147483647,0,0,1,1,2,2,3,3,4,4,5,5,6,6,7,7,8,8,9,9,10,10,11,11,12,12,13,13,14,14,16,16,17,17,18,18,19,19,20,20,21,21,22,22,23,23,24,24,25,25,26,26,27,27,28,28,34,34,35,35,36,36,37,37,38,38,39,39,40,40,41,41,42,42,43,43,44,44,45,45,46,46,47,47,48,48,49,49,50,50,52,52,54,54],"right_children":[2,4,6,8,10,12,14,16,18,20,22,24,26,28,30,-1,32,34,36,38,40,42,44,46,48,50,52,54,56,-1,-1,-1,-1,-1,58,60,62,64,66,68,70,72,74,76,78,80,82,84,86,88,90,-1,92,-1,94,-1,-1,-1,-1,-1,-1,-1,-1,-1,-1,-1,-1,-1,-1,-1,-1,-1,-1,-1,-1,-1,-1,-1,-1,-1,-1,-1,-1,-1,-1,-1,-1,-1,-1,-1,-1,-1,-1,-1,-1],"split_conditions":[1.3299E4,1.1197E4,1.5182E4,1.0122E4,1.2241E4,1.4244E4,1.7035E4,8.901E3,3.42E2,2.59E2,-3.87E2,-1.66E2,-4.09E2,1.5913E4,1.7965E4,-2.0390886E2,9.6E1,1.0618E4,1.0683E4,-5.69E2,1.2784E4,1.41095E4,7.89E2,1.39925E4,5.98E2,1.4485E4,1.2439292E4,6.9E1,1.32E2,1.7182115E2,2.2129756E2,-1.5648817E2,-1.0818978E2,-1.2226747E2,1.3144E4,9.181E3,4E0,1.3376333E4,1.1786E4,6.55E2,1.2508E4,1.3030833E4,-5.69E2,1.2935E4,1.1786667E4,-5.69E2,-7.71E2,1.3686E4,1.1771708E4,1.5778333E4,1.3656E4,3.473898E1,6.71E2,8.143386E1,1.45303E3,1.142405E2,1.4798792E2,-1.01991844E2,-7.320877E1,-4.5382755E1,-8.731312E1,-2.5552334E1,-4.7726437E1,-9.571499E1,-5.616159E1,-7.1262886E1,-5.1768513E1,-5.246424E1,-2.4601437E1,-1.8735678E1,7.934252E-1,-6.587574E1,-4.7189964E1,-3.0108122E1,-9.190736E0,-2.2354687E1,7.4207705E-1,6.956041E0,3.676982E1,-2.8375137E1,-6.274613E0,-2.4920156E0,1.2389687E1,1.6353333E1,3.3547985E1,2.8275568E1,5.957847E1,1.2953109E1,2.8875965E1,2.167241E1,4.3813652E1,6.310395E1,9.218748E1,1.14327225E2,6.772511E1],"split_indices":[4,4,4,4,4,4,4,4,14,14,14,14,14,4,4,0,14,4,4,14,9,10,14,10,14,4,11,14,14,0,0,0,0,0,9,6,3,10,4,14,8,10,14,4,10,14,14,4,11,10,7,0,14,0,13,0,0,0,0,0,0,0,0,0,0,0,0,0,0,0,0,0,0,0,0,0,0,0,0,0,0,0,0,0,0,0,0,0,0,0,0,0,0,0,0],"split_type":[0,0,0,0,0,0,0,0,0,0,0,0,0,0,0,0,0,0,0,0,0,0,0,0,0,0,0,0,0,0,0,0,0,0,0,0,0,0,0,0,0,0,0,0,0,0,0,0,0,0,0,0,0,0,0,0,0,0,0,0,0,0,0,0,0,0,0,0,0,0,0,0,0,0,0,0,0,0,0,0,0,0,0,0,0,0,0,0,0,0,0,0,0,0,0],"sum_hessian":[1.462E3,7.44E2,7.18E2,2.82E2,4.62E2,4.25E2,2.93E2,1.08E2,1.74E2,2.27E2,2.35E2,2.48E2,1.77E2,2.16E2,7.7E1,2.6E1,8.2E1,1.51E2,2.3E1,1.76E2,5.1E1,6.5E1,1.7E2,9.1E1,1.57E2,4.5E1,1.32E2,1.1E2,1.06E2,5.3E1,2.4E1,6.2E1,2E1,5.8E1,9.3E1,1.2E1,1.1E1,5E1,1.26E2,2.4E1,2.7E1,5E1,1.5E1,1.39E2,3.1E1,3.4E1,5.7E1,1.17E2,4E1,1.4E1,3.1E1,1.4E1,1.18E2,5.7E1,5.3E1,6.1E1,4.5E1,7.7E1,1.6E1,6E0,6E0,5E0,6E0,4.3E1,7E0,7.4E1,5.2E1,1.6E1,8E0,9E0,1.8E1,1.7E1,3.3E1,1E1,5E0,8.5E1,5.4E1,2.2E1,9E0,1.3E1,2.1E1,1.5E1,4.2E1,5.5E1,6.2E1,1.4E1,2.6E1,9E0,5E0,6E0,2.5E1,9.5E1,2.3E1,4.7E1,6E0],"tree_param":{"num_deleted":"0","num_feature":"16","num_nodes":"95","size_leaf_vector":"1"}},{"base_weights":[2.3973455E1,-1.3788175E3,1.4462145E3,-2.6131147E3,-9.048913E2,8.593511E2,2.8390796E3,-3.4581416E3,-2.2814277E3,-1.4918864E3,-5.463943E2,4.913778E2,1.4189348E3,2.399092E3,3.569838E3,-1.9242082E2,-1.4554373E2,-1.2498851E3,-2.3715022E3,-1.0489851E3,-1.6364426E3,-7.540689E2,-8.138158E1,2.7818546E2,7.2602765E2,1.3213523E3,9.6555336E1,2.059509E3,1.3494914E2,1.6222057E2,2.047951E2,-7.348968E1,-4.0999607E1,-1.3224614E2,-1.0515246E2,-1.1765228E3,-5.258077E2,-1.9266202E3,-1.5233776E3,-9.546072E2,-4.3596902E2,-3.3637863E2,1.386388E2,1.5044054E2,7.410657E2,5.9917706E2,1.1262625E3,1.1351246E3,7.251946E1,8.509197E1,1.15659E2,-8.242803E1,-5.3258297E1,-3.391515E1,-1.301226E1,-6.236808E1,-1.0198803E2,-7.82502E1,-3.3769753E1,-5.338629E1,-3.1858969E1,-3.7852276E1,-1.3140587E1,2.2230191E0,-2.9371521E1,1.6885242E1,-1.6895063E1,-2.4511625E1,1.0419952E1,2.8222202E1,5.9428944E1,1.6940443E1,4.4376953E1,4.4325394E1,6.702868E1,6.5655914E1,4.636284E1],"categories":[],"categories_nodes":[],"categories_segments":[],"categories_sizes":[],"default_left":[0,0,0,0,0,0,0,0,0,0,0,0,0,0,0,0,0,0,0,0,0,0,0,0,0,0,0,0,0,0,0,0,0,0,0,0,0,0,0,0,0,0,0,0,0,0,0,0,0,0,0,0,0,0,0,0,0,0,0,0,0,0,0,0,0,0,0,0,0,0,0,0,0,0,0,0,0],"id":4,"left_children":[1,3,5,7,9,11,13,15,17,19,21,23,25,27,29,-1,-1,31,33,35,37,39,41,43,45,47,-1,49,-1,-1,-1,-1,-1,-1,-1,51,53,55,57,59,61,63,65,67,69,71,73,75,-1,-1,-1,-1,-1,-1,-1,-1,-1,-1,-1,-1,-1,-1,-1,-1,-1,-1,-1,-1,-1,-1,-1,-1,-1,-1,-1,-1,-1],"loss_changes":[2.892904E9,4.2466022E8,5.861033E8,4.8727424E7,1.1050525E8,1.0390579E8,5.9919744E7,5.44192E5,1.0787072E7,1.1087968E7,3.1807096E7,1.52058E7,7.493792E6,8.29088E6,6.3808E4,0E0,0E0,1.18072E5,4.346112E6,2.850896E6,1.953248E6,1.412808E7,5.825423E6,9.52671E6,6.737424E6,2.486592E6,0E0,2.232608E6,0E0,0E0,0E0,0E0,0E0,0E0,0E0,3.98892E5,3.093455E5,3.75696E5,2.896208E6,4.310568E6,4.804644E6,4.615467E6,5.426436E6,4.8922225E6,2.095358E6,8.183244E6,5.58336E5,1.557112E6,0E0,0E0,0E0,0E0,0E0,0E0,0E0,0E0,0E0,0E0,0E0,0E0,0E0,0E0,0E0,0E0,0E0,0E0,0E0,0E0,0E0,0E0,0E0,0E0,0E0,0E0,0E0,0E0,0E0],"parents":[2147483647,0,0,1,1,2,2,3,3,4,4,5,5,6,6,7,7,8,8,9,9,10,10,11,11,12,12,13,13,14,14,17,17,18,18,19,19,20,20,21,21,22,22,23,23,24,24,25,25,27,27,35,35,36,36,37,37,38,38,39,39,40,40,41,41,42,42,43,43,44,44,45,45,46,46,47,47],"right_children":[2,4,6,8,10,12,14,16,18,20,22,24,26,28,30,-1,-1,32,34,36,38,40,42,44,46,48,-1,50,-1,-1,-1,-1,-1,-1,-1,52,54,56,58,60,62,64,66,68,70,72,74,76,-1,-1,-1,-1,-1,-1,-1,-1,-1,-1,-1,-1,-1,-1,-1,-1,-1,-1,-1,-1,-1,-1,-1,-1,-1,-1,-1,-1,-1],"split_conditions":[1.3274E4,1.0797E4,1.5691E4,9.479E3,1.1765E4,1.4485E4,1.7035E4,8.901E3,9.708E3,1.1337667E4,1.3331E4,1.3842E4,1.5903E4,1.5933E4,1.7965E4,-1.9242082E2,-1.4554373E2,1.0155E4,1.0283E4,1.5790449E3,1.0749E4,1.2596E4,1.2745E4,1.492E3,-9.7E1,1.4934E4,9.6555336E1,5.86E2,1.3494914E2,1.6222057E2,2.047951E2,-7.348968E1,-4.0999607E1,-1.3224614E2,-1.0515246E2,9.835E3,1.3414E4,9.226E3,3.83E2,1.2913E4,1.19E2,1.285075E4,1.3583167E4,-4.87E2,1.2019E4,1.4823E4,1.4194E4,1.4366667E4,7.251946E1,8.509197E1,1.15659E2,-8.242803E1,-5.3258297E1,-3.391515E1,-1.301226E1,-6.236808E1,-1.0198803E2,-7.82502E1,-3.3769753E1,-5.338629E1,-3.1858969E1,-3.7852276E1,-1.3140587E1,2.2230191E0,-2.9371521E1,1.6885242E1,-1.6895063E1,-2.4511625E1,1.0419952E1,2.8222202E1,5.9428944E1,1.6940443E1,4.4376953E1,4.4325394E1,6.702868E1,6.5655914E1,4.636284E1],"split_indices":[4,4,4,4,4,4,4,4,10,10,7,7,7,7,4,0,0,4,4,13,7,4,4,15,15,4,0,15,0,0,0,0,0,0,0,8,8,8,15,9,15,11,10,15,7,7,7,10,0,0,0,0,0,0,0,0,0,0,0,0,0,0,0,0,0,0,0,0,0,0,0,0,0,0,0,0,0],"split_type":[0,0,0,0,0,0,0,0,0,0,0,0,0,0,0,0,0,0,0,0,0,0,0,0,0,0,0,0,0,0,0,0,0,0,0,0,0,0,0,0,0,0,0,0,0,0,0,0,0,0,0,0,0,0,0,0,0,0,0,0,0,0,0,0,0,0,0,0,0,0,0,0,0,0,0,0,0],"sum_hessian":[1.448E3,7.29E2,7.19E2,2.01E2,5.28E2,5.07E2,2.12E2,5.4E1,1.47E2,1.99E2,3.29E2,3.07E2,2E2,1.35E2,7.7E1,2.8E1,2.6E1,1.3E1,1.34E2,5.1E1,1.48E2,2.27E2,1.02E2,1.62E2,1.45E2,1.71E2,2.9E1,6.7E1,6.8E1,5.2E1,2.5E1,7E0,6E0,6.2E1,7.2E1,4E1,1.1E1,3.7E1,1.11E2,1.38E2,8.9E1,4.7E1,5.5E1,1.28E2,3.4E1,1.12E2,3.3E1,7.4E1,9.7E1,3.1E1,3.6E1,5E0,3.5E1,6E0,5E0,7E0,3E1,1.05E2,6E0,1E2,3.8E1,3E1,5.9E1,1.9E1,2.8E1,3.9E1,1.6E1,1E1,1.18E2,2.6E1,8E0,6E1,5.2E1,1.8E1,1.5E1,3.7E1,3.7E1],"tree_param":{"num_deleted":"0","num_feature":"16","num_nodes":"77","size_leaf_vector":"1"}},{"base_weights":[1.4284574E1,-1.3986422E3,1.285172E3,-2.5317815E3,-9.190516E2,6.031332E2,2.4324028E3,-1.6908311E2,-2.2020103E3,-1.4124989E3,-5.875372E2,3.086564E2,1.0328782E3,1.936927E3,3.1981367E3,-2.3107573E3,-1.2024988E3,-1.559485E3,-7.347324E2,-9.124406E2,-1.8793341E2,-6.43332E1,5.598301E2,5.5521155E2,1.1992025E3,1.6405363E3,2.2958813E3,2.8867976E3,1.9431346E2,-1.2912384E2,-1.0047425E2,-7.156808E1,-4.200071E1,-9.456503E1,-1.4103118E3,-8.5803094E2,-1.5800667E1,-1.0350278E3,-4.5122647E2,-4.3481763E2,1.14644714E2,-3.6962756E2,1.221868E2,4.2876315E2,8.4314795E2,3.689031E2,7.0837964E2,6.145347E2,1.2766195E3,1.4280358E3,9.708694E1,1.9173854E3,1.2723882E2,1.0909119E2,1.5069798E2,-7.525624E1,-4.828076E1,-4.8678886E1,-2.9547123E1,-6.9771774E1,-4.6243206E1,-3.0845E1,-3.4231431E0,-3.0720108E1,-1.2425691E1,-6.7410455E0,1.884616E1,-3.0927626E1,-4.0633626E0,-3.209635E1,9.343105E0,1.1094209E1,2.720484E1,2.085349E1,4.5408978E1,7.6865935E0,2.0640453E1,1.98163E1,3.8773293E1,3.727722E1,1.0320317E1,5.7106983E1,7.825328E1,5.375946E1,7.534522E1,5.767596E1,1.00312126E2],"categories":[],"categories_nodes":[],"categories_segments":[],"categories_sizes":[],"default_left":[0,0,0,0,0,0,0,0,0,0,0,0,0,0,0,0,0,0,0,0,0,0,0,0,0,0,0,0,0,0,0,0,0,0,0,0,0,0,0,0,0,0,0,0,0,0,0,0,0,0,0,0,0,0,0,0,0,0,0,0,0,0,0,0,0,0,0,0,0,0,0,0,0,0,0,0,0,0,0,0,0,0,0,0,0,0,0],"id":5,"left_children":[1,3,5,7,9,11,13,-1,15,17,19,21,23,25,27,29,31,33,35,37,39,41,43,45,47,49,51,53,-1,-1,-1,-1,-1,-1,55,57,-1,59,61,63,65,67,69,71,73,75,77,79,81,83,-1,85,-1,-1,-1,-1,-1,-1,-1,-1,-1,-1,-1,-1,-1,-1,-1,-1,-1,-1,-1,-1,-1,-1,-1,-1,-1,-1,-1,-1,-1,-1,-1,-1,-1,-1,-1],"loss_changes":[2.6468209E9,3.7699597E8,6.0571866E8,5.056819E7,7.96537E7,6.1437424E7,1.0345229E8,0E0,1.37424E7,1.847952E7,3.8258864E7,2.7298444E7,1.506464E7,1.5170688E7,1.2775552E7,5.943296E6,2.07716E5,5.301536E6,1.638948E6,8.748672E6,1.0059918E7,6.764522E6,6.099612E6,1.251003E6,5.823712E6,3.691392E6,2.46832E6,6.84864E5,0E0,0E0,0E0,0E0,0E0,0E0,3.39512E6,2.8863E5,0E0,3.79128E6,2.240593E6,2.323066E6,4.042039E6,3.179765E6,3.776934E6,2.766268E6,1.117356E6,1.8211075E5,2.78712E5,8.619265E5,3.177344E6,1.3272E5,0E0,6.1072E4,0E0,0E0,0E0,0E0,0E0,0E0,0E0,0E0,0E0,0E0,0E0,0E0,0E0,0E0,0E0,0E0,0E0,0E0,0E0,0E0,0E0,0E0,0E0,0E0,0E0,0E0,0E0,0E0,0E0,0E0,0E0,0E0,0E0,0E0,0E0],"parents":[2147483647,0,0,1,1,2,2,3,3,4,4,5,5,6,6,8,8,9,9,10,10,11,11,12,12,13,13,14,14,15,15,16,16,17,17,18,18,19,19,20,20,21,21,22,22,23,23,24,24,25,25,26,26,27,27,34,34,35,35,37,37,38,38,39,39,40,40,41,41,42,42,43,43,44,44,45,45,46,46,47,47,48,48,49,49,51,51],"right_children":[2,4,6,8,10,12,14,-1,16,18,20,22,24,26,28,30,32,34,36,38,40,42,44,46,48,50,52,54,-1,-1,-1,-1,-1,-1,56,58,-1,60,62,64,66,68,70,72,74,76,78,80,82,84,-1,86,-1,-1,-1,-1,-1,-1,-1,-1,-1,-1,-1,-1,-1,-1,-1,-1,-1,-1,-1,-1,-1,-1,-1,-1,-1,-1,-1,-1,-1,-1,-1,-1,-1,-1,-1],"split_conditions":[1.3129E4,1.0797E4,1.5182E4,9.479E3,1.1749E4,1.4191E4,1.6549E4,-1.6908311E2,4.87E2,3.62E2,6.9E1,-1.15E2,-4.09E2,1.13E2,1.7864E4,1.0283E4,1.116E3,-5.58E2,1.5004272E3,1.3804333E4,1.3139E4,1.3164333E4,1.4352E4,1.4589E4,1.2439292E4,1.5963E4,1.5609E4,-4.87E2,1.9431346E2,-1.2912384E2,-1.0047425E2,-7.156808E1,-4.200071E1,-9.456503E1,1.3139E4,1.147E4,-1.5800667E1,-8.48E2,1.2935E4,1.2077E4,1.2745E4,1.3631E4,-1.02E3,1.3482E4,-1.5E1,1.5261E4,1.3029994E4,1.285544E4,4.39E2,-6.83E2,9.708694E1,1.3697625E4,1.2723882E2,1.0909119E2,1.5069798E2,-7.525624E1,-4.828076E1,-4.8678886E1,-2.9547123E1,-6.9771774E1,-4.6243206E1,-3.0845E1,-3.4231431E0,-3.0720108E1,-1.2425691E1,-6.7410455E0,1.884616E1,-3.0927626E1,-4.0633626E0,-3.209635E1,9.343105E0,1.1094209E1,2.720484E1,2.085349E1,4.5408978E1,7.6865935E0,2.0640453E1,1.98163E1,3.8773293E1,3.727722E1,1.0320317E1,5.7106983E1,7.825328E1,5.375946E1,7.534522E1,5.767596E1,1.00312126E2],"split_indices":[4,4,4,4,4,4,4,0,14,14,14,14,14,14,7,4,14,14,13,11,7,11,7,4,11,4,8,14,0,0,0,0,0,0,8,4,0,14,4,7,4,4,14,4,14,6,12,12,14,14,0,11,0,0,0,0,0,0,0,0,0,0,0,0,0,0,0,0,0,0,0,0,0,0,0,0,0,0,0,0,0,0,0,0,0,0,0],"split_type":[0,0,0,0,0,0,0,0,0,0,0,0,0,0,0,0,0,0,0,0,0,0,0,0,0,0,0,0,0,0,0,0,0,0,0,0,0,0,0,0,0,0,0,0,0,0,0,0,0,0,0,0,0,0,0,0,0,0,0,0,0,0,0,0,0,0,0,0,0,0,0,0,0,0,0,0,0,0,0,0,0,0,0,0,0,0,0],"sum_hessian":[1.472E3,6.97E2,7.75E2,2.06E2,4.91E2,4.87E2,2.88E2,5.5E1,1.51E2,1.96E2,2.95E2,2.9E2,1.97E2,1.77E2,1.11E2,1.35E2,1.6E1,1.6E2,3.6E1,1.62E2,1.33E2,1.17E2,1.73E2,5.2E1,1.45E2,1E2,7.7E1,8E1,3.1E1,6.7E1,6.8E1,8E0,8E0,4.6E1,1.14E2,2.7E1,9E0,1.27E2,3.5E1,7.3E1,6E1,4.4E1,7.3E1,1.2E2,5.3E1,2.5E1,2.7E1,1.8E1,1.27E2,6.2E1,3.8E1,3.4E1,4.3E1,1.5E1,6.5E1,9.2E1,2.2E1,1.7E1,1E1,2.7E1,1E2,2.4E1,1.1E1,3.6E1,3.7E1,3.1E1,2.9E1,2.3E1,2.1E1,5E0,6.8E1,4.4E1,7.6E1,8E0,4.5E1,5E0,2E1,6E0,2.1E1,1.3E1,5E0,9E1,3.7E1,1.4E1,4.8E1,5E0,2.9E1],"tree_param":{"num_deleted":"0","num_feature":"16","num_nodes":"87","size_leaf_vector":"1"}},{"base_weights":[5.6105886E0,-1.2154081E3,1.3785781E3,-2.2211545E3,-6.625336E2,7.516004E2,2.4149236E3,-3.2548127E3,-1.9381001E3,-1.01428876E3,-2.5309096E2,4.0674905E2,1.1373196E3,1.9759062E3,3.130609E3,-1.6849196E2,-9.758874E1,-2.0218551E3,-7.647914E2,-1.3989183E3,-7.7183936E2,-7.816803E2,-3.237592E1,4.0754818E1,6.844744E2,7.869699E2,1.32261E3,1.705633E3,2.3067546E3,1.3936504E2,1.8126808E2,-2.3227583E3,-1.7518092E3,-4.5890865E1,-2.4851292E1,-9.567141E1,-1.2809452E3,-8.5678845E2,-1.08866776E2,-5.9603676E1,-6.724501E2,-2.7265973E2,8.1618E1,-2.2388249E2,2.0229616E2,5.7711945E2,1.1541445E3,6.190829E1,6.9422437E2,1.18157E3,1.6451792E3,7.423913E1,9.495024E1,7.459159E1,1.20126564E2,-1.2199441E2,-9.195817E1,-1.03447876E2,-8.145064E1,-7.097732E1,-5.3425545E1,-5.4687603E1,-3.427425E1,-1.43823395E1,4.933397E0,-3.9719734E1,-1.8543652E1,-2.0462841E1,6.854306E0,1.0001976E0,2.393576E1,-2.5775824E1,-4.2985873E0,-7.3036826E-1,1.6529537E1,1.6346102E1,3.421374E1,3.5907864E1,6.499989E1,2.8656824E1,4.1991844E1,4.1208233E1,6.566482E1,5.202254E1,9.4691345E1],"categories":[],"categories_nodes":[],"categories_segments":[],"categories_sizes":[],"default_left":[0,0,0,0,0,0,0,0,0,0,0,0,0,0,0,0,0,0,0,0,0,0,0,0,0,0,0,0,0,0,0,0,0,0,0,0,0,0,0,0,0,0,0,0,0,0,0,0,0,0,0,0,0,0,0,0,0,0,0,0,0,0,0,0,0,0,0,0,0,0,0,0,0,0,0,0,0,0,0,0,0,0,0,0,0],"id":6,"left_children":[1,3,5,7,9,11,13,15,17,19,21,23,25,27,29,-1,-1,31,33,35,37,39,41,43,45,47,49,51,53,-1,-1,55,57,-1,-1,-1,59,61,63,-1,65,67,69,71,73,75,77,-1,79,81,83,-1,-1,-1,-1,-1,-1,-1,-1,-1,-1,-1,-1,-1,-1,-1,-1,-1,-1,-1,-1,-1,-1,-1,-1,-1,-1,-1,-1,-1,-1,-1,-1,-1,-1],"loss_changes":[2.4324828E9,4.255758E8,4.4197453E8,7.327347E7,7.13229E7,5.633496E7,7.456269E7,1.965696E6,1.9679744E7,2.3818624E7,2.6924832E7,2.3045656E7,1.2007152E7,1.055104E7,6.200256E6,0E0,0E0,1.2263424E7,1.9928E5,3.739936E6,9.255568E6,2.24646E6,4.5143795E6,4.2775255E6,5.838108E6,2.153188E6,3.970208E6,1.151744E6,1.878976E6,0E0,0E0,7.23392E5,9.13216E5,0E0,0E0,0E0,1.015104E6,5.217192E6,7.704617E5,0E0,1.764702E6,3.0225448E6,2.7306515E6,1.4839598E6,1.7301682E6,2.64486E6,5.28772E5,0E0,6.11696E5,3.342912E6,3.592752E6,0E0,0E0,0E0,0E0,0E0,0E0,0E0,0E0,0E0,0E0,0E0,0E0,0E0,0E0,0E0,0E0,0E0,0E0,0E0,0E0,0E0,0E0,0E0,0E0,0E0,0E0,0E0,0E0,0E0,0E0,0E0,0E0,0E0,0E0],"parents":[2147483647,0,0,1,1,2,2,3,3,4,4,5,5,6,6,7,7,8,8,9,9,10,10,11,11,12,12,13,13,14,14,17,17,18,18,19,19,20,20,21,21,22,22,23,23,24,24,25,25,26,26,27,27,28,28,31,31,32,32,36,36,37,37,38,38,40,40,41,41,42,42,43,43,44,44,45,45,46,46,48,48,49,49,50,50],"right_children":[2,4,6,8,10,12,14,16,18,20,22,24,26,28,30,-1,-1,32,34,36,38,40,42,44,46,48,50,52,54,-1,-1,56,58,-1,-1,-1,60,62,64,-1,66,68,70,72,74,76,78,-1,80,82,84,-1,-1,-1,-1,-1,-1,-1,-1,-1,-1,-1,-1,-1,-1,-1,-1,-1,-1,-1,-1,-1,-1,-1,-1,-1,-1,-1,-1,-1,-1,-1,-1,-1,-1],"split_conditions":[1.3397E4,1.1197E4,1.5308E4,9.479E3,1.2394E4,1.4244E4,1.6811E4,2.1E1,2.2E1,-2.36E2,-3.69E2,-1.15E2,7E0,1.07E2,1.7663E4,-1.6849196E2,-9.758874E1,1.0504E4,1.1926946E4,-1.02E3,2.2E1,-9.52E2,1.2745E4,1.328975E4,2.1E1,1E0,4.39E2,1.6025E4,1.4202077E4,1.3936504E2,1.8126808E2,9.6E1,-6.41E2,-4.5890865E1,-2.4851292E1,-9.567141E1,1.2268375E4,1.1697E4,1.2135096E4,-5.9603676E1,1.3216333E4,7.21E2,2.1E1,1.3631E4,1.3656E4,1.3087E4,1.3018167E4,6.190829E1,1.4844E4,1.4589E4,1.2998148E4,7.423913E1,9.495024E1,7.459159E1,1.20126564E2,-1.2199441E2,-9.195817E1,-1.03447876E2,-8.145064E1,-7.097732E1,-5.3425545E1,-5.4687603E1,-3.427425E1,-1.43823395E1,4.933397E0,-3.9719734E1,-1.8543652E1,-2.0462841E1,6.854306E0,1.0001976E0,2.393576E1,-2.5775824E1,-4.2985873E0,-7.3036826E-1,1.6529537E1,1.6346102E1,3.421374E1,3.5907864E1,6.499989E1,2.8656824E1,4.1991844E1,4.1208233E1,6.566482E1,5.202254E1,9.4691345E1],"split_indices":[4,4,4,4,4,4,4,0,0,14,14,14,0,14,4,0,0,4,12,14,0,14,4,11,0,0,14,4,12,0,0,14,14,0,0,0,11,4,12,0,11,14,0,4,4,8,11,0,4,4,12,0,0,0,0,0,0,0,0,0,0,0,0,0,0,0,0,0,0,0,0,0,0,0,0,0,0,0,0,0,0,0,0,0,0],"split_type":[0,0,0,0,0,0,0,0,0,0,0,0,0,0,0,0,0,0,0,0,0,0,0,0,0,0,0,0,0,0,0,0,0,0,0,0,0,0,0,0,0,0,0,0,0,0,0,0,0,0,0,0,0,0,0,0,0,0,0,0,0,0,0,0,0,0,0,0,0,0,0,0,0,0,0,0,0,0,0,0,0,0,0,0,0],"sum_hessian":[1.449E3,7.67E2,6.82E2,2.71E2,4.96E2,4.26E2,2.56E2,5.6E1,2.15E2,2.66E2,2.3E2,2.26E2,2E2,1.61E2,9.5E1,5E1,6E0,2E2,1.5E1,1.01E2,1.65E2,6.7E1,1.63E2,9.8E1,1.28E2,7.1E1,1.29E2,9.2E1,6.9E1,6E1,3.5E1,9.1E1,1.09E2,8E0,7E0,1.6E1,8.5E1,1.46E2,1.9E1,1.2E1,5.5E1,5.2E1,1.11E2,3.7E1,6.1E1,1.06E2,2.2E1,1E1,6.1E1,9.3E1,3.6E1,4.7E1,4.5E1,9E0,6E1,7E1,2.1E1,2.6E1,8.3E1,4.8E1,3.7E1,5.9E1,8.7E1,1E1,9E0,3.8E1,1.7E1,3.9E1,1.3E1,9.7E1,1.4E1,1.1E1,2.6E1,2.3E1,3.8E1,3.3E1,7.3E1,7E0,1.5E1,3.6E1,2.5E1,2.7E1,6.6E1,1.2E1,2.4E1],"tree_param":{"num_deleted":"0","num_feature":"16","num_nodes":"85","size_leaf_vector":"1"}},{"base_weights":[-6.5484295E0,-1.1469149E3,1.2832205E3,-2.0586184E3,-6.146097E2,7.555352E2,2.3562617E3,-2.6461736E3,-1.6872577E3,-9.432313E2,-2.0402594E2,4.334211E2,1.2143853E3,1.9091948E3,2.9637458E3,-2.888624E3,-1.0131968E2,-1.8002369E3,-1.0177137E3,-1.2025979E3,-5.8182404E2,-7.229585E2,-4.907102E0,9.3616844E1,7.114358E2,9.524245E2,1.4830769E3,1.6463448E3,2.2307766E3,2.691827E3,1.7856914E2,-1.7287222E2,-1.3262404E2,-9.8587585E1,-1.5846604E3,-1.2285502E3,-3.3996464E1,-9.119033E1,-1.1295365E3,-6.8092426E2,3.533758E1,-8.1634125E2,-2.2426958E2,-1.0550652E2,4.5315945E2,-2.249974E2,2.2651697E2,5.7707635E2,9.849251E2,6.848115E2,1.1149578E3,1.1338351E3,8.090762E1,5.56822E1,1.7182534E3,7.416562E1,1.1700109E2,1.0899552E2,1.4351866E2,-8.249117E1,-5.8100166E1,-7.148549E1,-3.82829E1,-5.8257504E1,-1.3303296E1,-4.8777683E1,-2.3412186E1,-1.0276768E1,1.1225608E1,-4.6182274E1,-3.0191626E1,-1.7485203E1,-3.07201E0,-1.2897801E1,1.871177E0,3.2832855E1,1.46156645E1,-2.5397383E1,-4.2873697E0,-3.250766E0,1.7491135E1,1.5153175E1,3.2824165E1,3.7311462E1,6.54985E1,2.3036322E1,4.1520184E1,4.2977585E1,6.4893814E1,2.8629978E1,6.134483E1,4.9587532E1,8.807715E1],"categories":[],"categories_nodes":[],"categories_segments":[],"categories_sizes":[],"default_left":[0,0,0,0,0,0,0,0,0,0,0,0,0,0,0,0,0,0,0,0,0,0,0,0,0,0,0,0,0,0,0,0,0,0,0,0,0,0,0,0,0,0,0,0,0,0,0,0,0,0,0,0,0,0,0,0,0,0,0,0,0,0,0,0,0,0,0,0,0,0,0,0,0,0,0,0,0,0,0,0,0,0,0,0,0,0,0,0,0,0,0,0,0],"id":7,"left_children":[1,3,5,7,9,11,13,15,17,19,21,23,25,27,29,31,-1,33,35,37,39,41,43,45,47,49,51,53,55,57,-1,-1,-1,-1,59,61,-1,-1,63,65,67,69,71,73,75,77,79,81,83,85,87,89,-1,-1,91,-1,-1,-1,-1,-1,-1,-1,-1,-1,-1,-1,-1,-1,-1,-1,-1,-1,-1,-1,-1,-1,-1,-1,-1,-1,-1,-1,-1,-1,-1,-1,-1,-1,-1,-1,-1,-1,-1],"loss_changes":[2.153266E9,3.7581626E8,3.8721792E8,5.793856E7,6.619139E7,6.775806E7,5.571968E7,1.0525056E7,1.163232E7,2.4890304E7,2.2728814E7,2.5723788E7,1.1960672E7,7.569184E6,5.917248E6,1.037184E6,0E0,2.458272E6,1.158566E6,5.110704E6,7.118788E6,2.657518E6,7.420774E6,5.301606E6,4.943344E6,3.542392E6,2.505024E6,1.035728E6,1.183072E6,4.9024E4,0E0,0E0,0E0,0E0,6.56E4,3.94956E5,0E0,0E0,4.118016E6,5.809252E6,8.207867E5,6.05076E5,2.0314156E5,2.885905E6,7.571775E5,1.414216E6,3.1861615E6,2.042076E6,2.746428E6,9.22284E5,1.687296E6,8.11952E5,0E0,0E0,3.28416E5,0E0,0E0,0E0,0E0,0E0,0E0,0E0,0E0,0E0,0E0,0E0,0E0,0E0,0E0,0E0,0E0,0E0,0E0,0E0,0E0,0E0,0E0,0E0,0E0,0E0,0E0,0E0,0E0,0E0,0E0,0E0,0E0,0E0,0E0,0E0,0E0,0E0,0E0],"parents":[2147483647,0,0,1,1,2,2,3,3,4,4,5,5,6,6,7,7,8,8,9,9,10,10,11,11,12,12,13,13,14,14,15,15,17,17,18,18,19,19,20,20,21,21,22,22,23,23,24,24,25,25,26,26,27,27,28,28,29,29,34,34,35,35,38,38,39,39,40,40,41,41,42,42,43,43,44,44,45,45,46,46,47,47,48,48,49,49,50,50,51,51,54,54],"right_children":[2,4,6,8,10,12,14,16,18,20,22,24,26,28,30,32,-1,34,36,38,40,42,44,46,48,50,52,54,56,58,-1,-1,-1,-1,60,62,-1,-1,64,66,68,70,72,74,76,78,80,82,84,86,88,90,-1,-1,92,-1,-1,-1,-1,-1,-1,-1,-1,-1,-1,-1,-1,-1,-1,-1,-1,-1,-1,-1,-1,-1,-1,-1,-1,-1,-1,-1,-1,-1,-1,-1,-1,-1,-1,-1,-1,-1,-1],"split_conditions":[1.3397E4,1.1197E4,1.5532E4,1.0122E4,1.245E4,1.4485E4,1.6811E4,4E0,2.67E2,4.1E1,-3.69E2,-1.15E2,0E0,1.01E2,1.7965E4,8.901E3,-1.0131968E2,1.0739E4,1.0683E4,-1.02E3,1.4249E4,1.4366667E4,1.4585E4,1.39925E4,5.98E2,6E0,1.4125637E4,-7.03E2,1.4055E4,-2.47E2,1.7856914E2,-1.7287222E2,-1.3262404E2,-9.8587585E1,1.3267E4,6.83E2,-3.3996464E1,-9.119033E1,2.1E1,1.1685E4,5.24E2,1.3674E4,6E0,1.247825E4,-7.42E2,-5.69E2,1.3656E4,1.2385167E4,1.2343333E4,1.4844E4,1.4934E4,1.4665E4,8.090762E1,5.56822E1,1.47575E4,7.416562E1,1.1700109E2,1.0899552E2,1.4351866E2,-8.249117E1,-5.8100166E1,-7.148549E1,-3.82829E1,-5.8257504E1,-1.3303296E1,-4.8777683E1,-2.3412186E1,-1.0276768E1,1.1225608E1,-4.6182274E1,-3.0191626E1,-1.7485203E1,-3.07201E0,-1.2897801E1,1.871177E0,3.2832855E1,1.46156645E1,-2.5397383E1,-4.2873697E0,-3.250766E0,1.7491135E1,1.5153175E1,3.2824165E1,3.7311462E1,6.54985E1,2.3036322E1,4.1520184E1,4.2977585E1,6.4893814E1,2.8629978E1,6.134483E1,4.9587532E1,8.807715E1],"split_indices":[4,4,4,4,4,4,4,14,14,14,14,14,14,14,4,4,0,4,4,14,9,10,9,10,14,0,12,14,9,14,0,0,0,0,9,14,0,0,0,4,14,10,0,11,15,14,4,11,10,4,4,4,0,0,10,0,0,0,0,0,0,0,0,0,0,0,0,0,0,0,0,0,0,0,0,0,0,0,0,0,0,0,0,0,0,0,0,0,0,0,0,0,0],"split_type":[0,0,0,0,0,0,0,0,0,0,0,0,0,0,0,0,0,0,0,0,0,0,0,0,0,0,0,0,0,0,0,0,0,0,0,0,0,0,0,0,0,0,0,0,0,0,0,0,0,0,0,0,0,0,0,0,0,0,0,0,0,0,0,0,0,0,0,0,0,0,0,0,0,0,0,0,0,0,0,0,0,0,0,0,0,0,0,0,0,0,0,0,0],"sum_hessian":[1.462E3,7.76E2,6.86E2,2.85E2,4.91E2,4.61E2,2.25E2,1.08E2,1.77E2,2.72E2,2.19E2,2.72E2,1.89E2,1.32E2,9.3E1,7.5E1,3.3E1,1.5E2,2.7E1,1.57E2,1.15E2,6E1,1.59E2,1.23E2,1.49E2,9.8E1,9.1E1,7.6E1,5.6E1,6.8E1,2.5E1,1.8E1,5.7E1,7.9E1,7.1E1,1.5E1,1.2E1,1.4E1,1.43E2,9.9E1,1.6E1,5E1,1E1,1.31E2,2.8E1,3.6E1,8.7E1,1.02E2,4.7E1,3.9E1,5.9E1,2.8E1,6.3E1,1.1E1,6.5E1,9E0,4.7E1,2.1E1,4.7E1,5.9E1,1.2E1,9E0,6E0,1.37E2,6E0,4E1,5.9E1,7E0,9E0,3.1E1,1.9E1,5E0,5E0,6.3E1,6.8E1,1.1E1,1.7E1,1.1E1,2.5E1,2.6E1,6.1E1,2.4E1,7.8E1,2.9E1,1.8E1,1.7E1,2.2E1,2.7E1,3.2E1,5E0,2.3E1,5E0,6E1],"tree_param":{"num_deleted":"0","num_feature":"16","num_nodes":"93","size_leaf_vector":"1"}},{"base_weights":[1.1814699E0,-1.1215559E3,1.2271575E3,-1.8882074E3,-5.256353E2,7.323362E2,2.3688276E3,-2.5052397E3,-1.5083163E3,-8.5845844E2,-2.0256952E2,3.97509E2,1.2027725E3,1.9065123E3,2.8679226E3,-1.6254901E2,-2.256458E3,-1.5973789E3,-9.266285E2,-1.1700205E3,-5.387968E2,-5.3270404E2,1.1758226E2,4.86559E1,5.7629205E2,7.7143225E2,1.3433474E3,1.5156196E3,1.08291954E2,2.6366472E3,1.7079295E2,-2.336899E3,-5.3471363E1,-9.426549E1,-1.4613016E3,-1.0359452E3,-2.7822004E1,-7.921314E1,-1.0787733E3,-7.473672E2,-2.809197E2,-6.546399E2,-1.229548E2,4.6759927E2,-1.0345357E1,-2.999619E2,1.854551E2,4.276219E2,8.015535E2,5.879787E2,9.6095807E2,1.2158258E3,1.6905583E3,6.477808E1,8.684266E1,1.045391E2,1.3936015E2,-1.257156E2,-9.853681E1,-7.5163666E1,-4.1204636E1,-7.300921E1,-4.1263496E1,-6.605406E1,-4.9294E1,-4.307462E1,-2.3388159E1,-3.216917E1,-7.953111E0,-3.6892216E1,-1.9519695E1,7.1850085E0,-1.6404423E1,1.0317636E1,2.766069E1,-1.6168537E1,4.065599E0,-3.4438683E1,-6.8777246E0,-2.7792628E0,1.4390286E1,1.448412E1,2.959104E1,3.2631607E1,4.7877857E1,1.4707126E1,3.1846724E1,2.6917723E1,5.2191494E1,5.035393E1,6.711128E1,5.034282E1,8.8181786E1],"categories":[],"categories_nodes":[],"categories_segments":[],"categories_sizes":[],"default_left":[0,0,0,0,0,0,0,0,0,0,0,0,0,0,0,0,0,0,0,0,0,0,0,0,0,0,0,0,0,0,0,0,0,0,0,0,0,0,0,0,0,0,0,0,0,0,0,0,0,0,0,0,0,0,0,0,0,0,0,0,0,0,0,0,0,0,0,0,0,0,0,0,0,0,0,0,0,0,0,0,0,0,0,0,0,0,0,0,0,0,0,0,0],"id":8,"left_children":[1,3,5,7,9,11,13,15,17,19,21,23,25,27,29,-1,31,33,35,37,39,41,43,45,47,49,51,53,-1,55,-1,57,-1,-1,59,61,-1,-1,63,65,67,69,71,73,75,77,79,81,83,85,87,89,91,-1,-1,-1,-1,-1,-1,-1,-1,-1,-1,-1,-1,-1,-1,-1,-1,-1,-1,-1,-1,-1,-1,-1,-1,-1,-1,-1,-1,-1,-1,-1,-1,-1,-1,-1,-1,-1,-1,-1,-1],"loss_changes":[2.0041098E9,3.4622342E8,3.9145114E8,7.404339E7,4.595368E7,7.623146E7,4.298701E7,1.5854528E7,9.295328E6,2.038384E7,2.320948E7,1.780944E7,1.1211904E7,8.070368E6,3.538688E6,0E0,6.762688E6,4.258016E6,6.37432E5,2.297312E6,5.491214E6,5.315446E6,5.0198895E6,4.7293E6,5.986664E6,1.24282E6,4.630112E6,8.6336E4,0E0,2.53664E5,0E0,8.91072E5,0E0,0E0,2.130784E6,7.61012E5,0E0,0E0,7.23144E5,1.44766E6,2.0618588E6,1.536712E6,1.4693624E6,5.56762E5,2.407677E6,1.673259E6,1.7676362E6,2.455818E6,1.094096E6,2.29723E5,2.78418E5,1.655984E6,1.226E5,0E0,0E0,0E0,0E0,0E0,0E0,0E0,0E0,0E0,0E0,0E0,0E0,0E0,0E0,0E0,0E0,0E0,0E0,0E0,0E0,0E0,0E0,0E0,0E0,0E0,0E0,0E0,0E0,0E0,0E0,0E0,0E0,0E0,0E0,0E0,0E0,0E0,0E0,0E0,0E0],"parents":[2147483647,0,0,1,1,2,2,3,3,4,4,5,5,6,6,7,7,8,8,9,9,10,10,11,11,12,12,13,13,14,14,16,16,17,17,18,18,19,19,20,20,21,21,22,22,23,23,24,24,25,25,26,26,27,27,29,29,31,31,34,34,35,35,38,38,39,39,40,40,41,41,42,42,43,43,44,44,45,45,46,46,47,47,48,48,49,49,50,50,51,51,52,52],"right_children":[2,4,6,8,10,12,14,16,18,20,22,24,26,28,30,-1,32,34,36,38,40,42,44,46,48,50,52,54,-1,56,-1,58,-1,-1,60,62,-1,-1,64,66,68,70,72,74,76,78,80,82,84,86,88,90,92,-1,-1,-1,-1,-1,-1,-1,-1,-1,-1,-1,-1,-1,-1,-1,-1,-1,-1,-1,-1,-1,-1,-1,-1,-1,-1,-1,-1,-1,-1,-1,-1,-1,-1,-1,-1,-1,-1,-1,-1],"split_conditions":[1.3381E4,1.147E4,1.5691E4,1.0208E4,-8.5E1,1.4485E4,1.6811E4,8.901E3,3.22E2,1.2482E4,1.245E4,-2.23E2,-3.29E2,-2.02E2,1.7965E4,-1.6254901E2,4.93E2,-4.68E2,6.83E2,-9.67E2,1.3216333E4,5.82E2,1.2063E4,1.39925E4,1.4219E4,1.4551E4,1.5775E4,1.6206E4,1.08291954E2,-2.47E2,1.7079295E2,-5.9E1,-5.3471363E1,-9.426549E1,1.2721E4,1.0683E4,-2.7822004E1,-7.921314E1,1.1599167E4,1.3633167E4,-6.9E2,1.2181E4,4E0,1.3331E4,1.2745E4,-6.83E2,1.3656E4,1.3967E4,1.403E4,1.2648E4,1.57E4,1.4934E4,1.3922583E4,6.477808E1,8.684266E1,1.045391E2,1.3936015E2,-1.257156E2,-9.853681E1,-7.5163666E1,-4.1204636E1,-7.300921E1,-4.1263496E1,-6.605406E1,-4.9294E1,-4.307462E1,-2.3388159E1,-3.216917E1,-7.953111E0,-3.6892216E1,-1.9519695E1,7.1850085E0,-1.6404423E1,1.0317636E1,2.766069E1,-1.6168537E1,4.065599E0,-3.4438683E1,-6.8777246E0,-2.7792628E0,1.4390286E1,1.448412E1,2.959104E1,3.2631607E1,4.7877857E1,1.4707126E1,3.1846724E1,2.6917723E1,5.2191494E1,5.035393E1,6.711128E1,5.034282E1,8.8181786E1],"split_indices":[4,4,4,4,14,4,4,4,14,4,4,14,14,14,4,0,14,14,14,14,11,14,5,10,7,7,7,4,0,14,0,14,0,0,7,4,0,0,11,10,14,4,3,7,4,14,4,4,4,7,6,4,11,0,0,0,0,0,0,0,0,0,0,0,0,0,0,0,0,0,0,0,0,0,0,0,0,0,0,0,0,0,0,0,0,0,0,0,0,0,0,0,0],"split_type":[0,0,0,0,0,0,0,0,0,0,0,0,0,0,0,0,0,0,0,0,0,0,0,0,0,0,0,0,0,0,0,0,0,0,0,0,0,0,0,0,0,0,0,0,0,0,0,0,0,0,0,0,0,0,0,0,0,0,0,0,0,0,0,0,0,0,0,0,0,0,0,0,0,0,0,0,0,0,0,0,0,0,0,0,0,0,0,0,0,0,0,0,0],"sum_hessian":[1.454E3,7.59E2,6.95E2,3.31E2,4.28E2,4.86E2,2.09E2,1.24E2,2.07E2,2.1E2,2.18E2,2.85E2,2.01E2,1.11E2,9.8E1,2.8E1,9.6E1,1.78E2,2.9E1,1.05E2,1.05E2,1.07E2,1.11E2,9.7E1,1.88E2,5.1E1,1.5E2,4.7E1,6.4E1,7.3E1,2.5E1,8.9E1,7E0,5.3E1,1.25E2,2.1E1,8E0,1.6E1,8.9E1,5.7E1,4.8E1,8.2E1,2.5E1,2.9E1,8.2E1,2.7E1,7E1,1.15E2,7.3E1,2.8E1,2.3E1,1.13E2,3.7E1,2.7E1,2E1,1.9E1,5.4E1,5.6E1,3.3E1,1.16E2,9E0,5E0,1.6E1,2.1E1,6.8E1,3.9E1,1.8E1,1.1E1,3.7E1,6.1E1,2.1E1,1.1E1,1.4E1,8E0,2.1E1,1.8E1,6.4E1,7E0,2E1,2.1E1,4.9E1,6.4E1,5.1E1,4E1,3.3E1,5E0,2.3E1,5E0,1.8E1,4.6E1,6.7E1,5E0,3.2E1],"tree_param":{"num_deleted":"0","num_feature":"16","num_nodes":"93","size_leaf_vector":"1"}},{"base_weights":[1.8487032E1,-1.0553683E3,1.1598156E3,-2.1208599E3,-6.5164233E2,7.018637E2,2.2035742E3,-2.7344092E3,-1.8008429E3,-9.830634E2,-2.704865E2,4.0759778E2,1.1308002E3,1.8438179E3,2.8278203E3,-1.414997E2,-8.318812E1,-1.9014644E3,-5.37924E1,-1.074439E3,-3.1104803E2,-3.5966342E2,3.144931E2,3.305385E2,9.4424994E2,1.0315397E3,1.7477677E3,1.6805345E3,1.0772271E2,1.0530102E2,1.4853929E2,-1.01245995E2,-1.6269148E3,-1.2171028E3,-8.0552246E2,-5.2098175E2,-9.578725E1,-6.221451E2,-2.0222992E2,-5.977348E0,4.3145337E2,1.7733821E2,5.0268683E2,8.05615E2,7.017464E1,7.6057E2,1.1581311E3,5.015009E1,9.605212E1,1.4573009E3,9.5308E1,-5.8634197E1,-8.7513084E1,-4.4954826E1,-6.51335E1,-2.8519693E1,-5.3312794E1,-3.1635288E1,-9.603309E0,-9.634207E0,7.312668E0,-2.2348297E1,-4.9112957E1,-1.6983484E1,2.0789623E0,1.0260203E1,2.8708414E1,-1.9035343E0,1.8905754E1,1.5878039E1,3.5086346E1,2.756896E1,4.3649857E1,2.5889357E1,4.3736095E1,4.8000835E1,6.4683525E1,5.828888E1,8.3276985E1],"categories":[],"categories_nodes":[],"categories_segments":[],"categories_sizes":[],"default_left":[0,0,0,0,0,0,0,0,0,0,0,0,0,0,0,0,0,0,0,0,0,0,0,0,0,0,0,0,0,0,0,0,0,0,0,0,0,0,0,0,0,0,0,0,0,0,0,0,0,0,0,0,0,0,0,0,0,0,0,0,0,0,0,0,0,0,0,0,0,0,0,0,0,0,0,0,0,0,0],"id":9,"left_children":[1,3,5,7,9,11,13,15,17,19,21,23,25,27,29,-1,-1,31,-1,33,35,37,39,41,43,45,47,49,-1,-1,-1,-1,51,53,55,57,59,61,63,-1,65,67,69,71,-1,73,75,-1,-1,77,-1,-1,-1,-1,-1,-1,-1,-1,-1,-1,-1,-1,-1,-1,-1,-1,-1,-1,-1,-1,-1,-1,-1,-1,-1,-1,-1,-1,-1],"loss_changes":[1.7697962E9,3.1866157E8,3.330469E8,3.5129984E7,6.807475E7,6.1134944E7,4.262035E7,2.250048E6,7.94816E6,1.7411968E7,1.3311286E7,1.1721784E7,1.0322448E7,3.378592E6,1.585536E6,0E0,0E0,7.3872E5,0E0,8.763968E6,1.5768925E6,8.965248E6,1.7776355E6,6.66232E6,1.16112E6,5.053296E6,1.428176E6,2.006704E6,0E0,0E0,0E0,0E0,3.00376E5,3.291152E6,4.97048E6,5.39856E5,4.7379197E5,4.733746E6,4.671914E6,0E0,7.53907E5,5.9395595E6,4.198756E6,3.2434E4,0E0,1.154358E6,1.872704E6,0E0,0E0,1.214808E6,0E0,0E0,0E0,0E0,0E0,0E0,0E0,0E0,0E0,0E0,0E0,0E0,0E0,0E0,0E0,0E0,0E0,0E0,0E0,0E0,0E0,0E0,0E0,0E0,0E0,0E0,0E0,0E0,0E0],"parents":[2147483647,0,0,1,1,2,2,3,3,4,4,5,5,6,6,7,7,8,8,9,9,10,10,11,11,12,12,13,13,14,14,17,17,19,19,20,20,21,21,22,22,23,23,24,24,25,25,26,26,27,27,32,32,33,33,34,34,35,35,36,36,37,37,38,38,40,40,41,41,42,42,43,43,45,45,46,46,49,49],"right_children":[2,4,6,8,10,12,14,16,18,20,22,24,26,28,30,-1,-1,32,-1,34,36,38,40,42,44,46,48,50,-1,-1,-1,-1,52,54,56,58,60,62,64,-1,66,68,70,72,-1,74,76,-1,-1,78,-1,-1,-1,-1,-1,-1,-1,-1,-1,-1,-1,-1,-1,-1,-1,-1,-1,-1,-1,-1,-1,-1,-1,-1,-1,-1,-1,-1,-1],"split_conditions":[1.3381E4,1.0797E4,1.5691E4,9.616E3,1.2241E4,1.4485E4,1.7035E4,2.1E1,2.1E1,2.1E1,2.1E1,2E1,2.2E1,1.6406E4,1.6972E4,-1.414997E2,-8.318812E1,1.054E4,-5.37924E1,1.1765E4,1.1592E4,1.2729E4,1.1922E4,1.3749E4,1.6638E4,6E0,1.3654583E4,8.09E2,1.0772271E2,1.0530102E2,1.4853929E2,-1.01245995E2,1.0896833E4,1.1337667E4,1.2215E4,1.6230032E3,1.1922E4,1.3045E4,1.3795E4,-5.977348E0,1.2729E4,4.12E2,-3.89E2,2.1E1,7.017464E1,1.4844E4,1.497E4,5.015009E1,9.605212E1,1.611E4,9.5308E1,-5.8634197E1,-8.7513084E1,-4.4954826E1,-6.51335E1,-2.8519693E1,-5.3312794E1,-3.1635288E1,-9.603309E0,-9.634207E0,7.312668E0,-2.2348297E1,-4.9112957E1,-1.6983484E1,2.0789623E0,1.0260203E1,2.8708414E1,-1.9035343E0,1.8905754E1,1.5878039E1,3.5086346E1,2.756896E1,4.3649857E1,2.5889357E1,4.3736095E1,4.8000835E1,6.4683525E1,5.828888E1,8.3276985E1],"split_indices":[4,4,4,4,4,4,4,0,0,0,0,0,0,7,9,0,0,4,0,4,4,4,7,7,9,0,11,15,0,0,0,0,10,10,5,13,4,5,9,0,4,15,15,0,0,4,4,0,0,4,0,0,0,0,0,0,0,0,0,0,0,0,0,0,0,0,0,0,0,0,0,0,0,0,0,0,0,0,0],"split_type":[0,0,0,0,0,0,0,0,0,0,0,0,0,0,0,0,0,0,0,0,0,0,0,0,0,0,0,0,0,0,0,0,0,0,0,0,0,0,0,0,0,0,0,0,0,0,0,0,0,0,0,0,0,0,0,0,0,0,0,0,0,0,0,0,0,0,0,0,0,0,0,0,0,0,0,0,0,0,0],"sum_hessian":[1.442E3,7.43E2,6.99E2,2.03E2,5.4E2,4.87E2,2.12E2,6.7E1,1.36E2,2.88E2,2.52E2,2.9E2,1.97E2,1.37E2,7.5E1,6E1,7E0,1.18E2,1.8E1,2.53E2,3.5E1,2.19E2,3.3E1,2.55E2,3.5E1,1.72E2,2.5E1,9.4E1,4.3E1,1.5E1,6E1,7.7E1,4.1E1,1.63E2,9E1,1.7E1,1.8E1,8.1E1,1.38E2,7E0,2.6E1,1.36E2,1.19E2,2.9E1,6E0,5.7E1,1.15E2,6E0,1.9E1,5.1E1,4.3E1,1.1E1,3E1,3.7E1,1.26E2,4.9E1,4.1E1,1.2E1,5E0,1.3E1,5E0,5.6E1,2.5E1,8.8E1,5E1,1.1E1,1.5E1,6.6E1,7E1,6.3E1,5.6E1,8E0,2.1E1,2E1,3.7E1,5E1,6.5E1,2.4E1,2.7E1],"tree_param":{"num_deleted":"0","num_feature":"16","num_nodes":"79","size_leaf_vector":"1"}},{"base_weights":[5.154128E1,-6.9152606E2,1.255542E3,-1.2005599E3,3.4378826E1,8.1810284E2,2.1379836E3,-1.7959395E3,-8.036088E2,-1.204304E3,1.8110938E2,5.1086472E2,1.2232234E3,1.494858E3,2.4854683E3,-2.0577188E3,-1.1747826E3,-1.0976725E3,-2.8264792E2,-1.6052998E3,-3.7641567E1,-9.204078E1,5.157872E2,-4.4186024E1,8.6403094E2,7.512233E2,1.4894702E3,8.557614E2,1.666046E3,2.1602605E3,1.4842638E2,-2.540102E3,-1.610797E3,-1.3072361E3,-6.083535E2,-1.0287487E2,-1.0148108E3,-6.792354E2,5.5474045E1,-8.816564E1,-4.2838573E1,-1.7456596E1,1.4005287E1,-4.7004565E2,1.2197855E2,1.1746662E2,9.12519E2,-6.8708417E2,7.414865E1,4.2234406E2,1.0304641E3,4.1699054E2,5.30206E1,5.184851E1,1.6426267E3,1.9329082E1,5.1693604E1,7.1546776E1,9.554586E1,9.509712E1,1.3195619E2,-9.2700584E1,-1.3496477E2,-1.0203445E2,-7.136862E1,-7.865719E1,-5.0630276E1,-3.8704765E1,-1.6600618E1,-5.4826244E1,-2.449816E1,-4.1552696E1,-1.689288E1,-5.4002438E0,1.8252659E1,-2.999414E1,-1.0061018E1,-1.2061998E1,1.6814966E1,-3.2394096E1,1.2956781E1,1.9060125E1,5.1506893E1,-5.360566E1,-1.5620719E1,-1.1595923E1,8.370244E0,3.4412358E0,2.946382E1,4.1750248E1,7.386617E1,5.7890944E0,2.4373215E1,6.0207966E1,8.821148E1],"categories":[],"categories_nodes":[],"categories_segments":[],"categories_sizes":[],"default_left":[0,0,0,0,0,0,0,0,0,0,0,0,0,0,0,0,0,0,0,0,0,0,0,0,0,0,0,0,0,0,0,0,0,0,0,0,0,0,0,0,0,0,0,0,0,0,0,0,0,0,0,0,0,0,0,0,0,0,0,0,0,0,0,0,0,0,0,0,0,0,0,0,0,0,0,0,0,0,0,0,0,0,0,0,0,0,0,0,0,0,0,0,0,0,0],"id":10,"left_children":[1,3,5,7,9,11,13,15,17,19,21,23,25,27,29,31,33,35,37,39,41,43,45,47,49,51,53,55,57,59,-1,61,63,65,67,-1,69,71,73,-1,-1,-1,-1,75,77,79,81,83,85,87,89,91,-1,-1,93,-1,-1,-1,-1,-1,-1,-1,-1,-1,-1,-1,-1,-1,-1,-1,-1,-1,-1,-1,-1,-1,-1,-1,-1,-1,-1,-1,-1,-1,-1,-1,-1,-1,-1,-1,-1,-1,-1,-1,-1],"loss_changes":[1.2846962E9,3.281664E8,2.097865E8,1.2192416E8,6.692121E7,4.517936E7,3.6733376E7,3.1404352E7,4.794624E7,1.8184656E7,3.0123806E7,4.139957E7,1.8736464E7,5.794784E6,1.1809728E7,2.7168192E7,4.006176E6,1.3897808E7,1.5458661E7,1.919024E6,1.1865282E6,1.4781233E7,2.328062E7,6.365411E6,9.047608E6,5.654786E6,5.226704E6,9.37236E5,2.01424E5,4.010112E6,0E0,2.42208E6,3.23736E6,2.402336E6,3.84098E5,0E0,7.482544E6,2.465962E6,3.2278618E6,0E0,0E0,0E0,0E0,2.182845E6,9.189034E6,8.2998115E6,4.231636E6,1.5402815E6,2.0653469E6,2.1428875E6,6.88908E6,5.80319E5,0E0,0E0,1.767584E6,0E0,0E0,0E0,0E0,0E0,0E0,0E0,0E0,0E0,0E0,0E0,0E0,0E0,0E0,0E0,0E0,0E0,0E0,0E0,0E0,0E0,0E0,0E0,0E0,0E0,0E0,0E0,0E0,0E0,0E0,0E0,0E0,0E0,0E0,0E0,0E0,0E0,0E0,0E0,0E0],"parents":[2147483647,0,0,1,1,2,2,3,3,4,4,5,5,6,6,7,7,8,8,9,9,10,10,11,11,12,12,13,13,14,14,15,15,16,16,17,17,18,18,19,19,20,20,21,21,22,22,23,23,24,24,25,25,26,26,27,27,28,28,29,29,31,31,32,32,33,33,34,34,36,36,37,37,38,38,43,43,44,44,45,45,46,46,47,47,48,48,49,49,50,50,51,51,54,54],"right_children":[2,4,6,8,10,12,14,16,18,20,22,24,26,28,30,32,34,36,38,40,42,44,46,48,50,52,54,56,58,60,-1,62,64,66,68,-1,70,72,74,-1,-1,-1,-1,76,78,80,82,84,86,88,90,92,-1,-1,94,-1,-1,-1,-1,-1,-1,-1,-1,-1,-1,-1,-1,-1,-1,-1,-1,-1,-1,-1,-1,-1,-1,-1,-1,-1,-1,-1,-1,-1,-1,-1,-1,-1,-1,-1,-1,-1,-1,-1,-1],"split_conditions":[1.3975E4,1.2675E4,1.5846E4,1.1178E4,1.1794E4,1.5166E4,1.6749E4,1.22E2,-2.2E1,-1.258E3,3.5E2,-3.34E2,-5.29E2,-1.426E3,1.7503E4,1.0283E4,7.21E2,-1.082E3,1.2047E4,-1.851E3,1.328975E4,1.2938E4,1.1928167E4,-9.52E2,1.3835167E4,1.5913E4,1.65E2,1.4587E4,-2.93E2,4.9E2,1.4842638E2,1.3E1,-3.42E2,1.0354E4,9.777E3,-1.0287487E2,1.3543333E4,3.72E2,1.3378E4,-8.816564E1,-4.2838573E1,-1.7456596E1,1.4005287E1,-7.81E2,-1.6E2,1.285E4,1.2385167E4,1.3835167E4,1.2641458E4,-6.8E1,3.5E2,1.3397E4,5.30206E1,5.184851E1,1.5539E4,1.9329082E1,5.1693604E1,7.1546776E1,9.554586E1,9.509712E1,1.3195619E2,-9.2700584E1,-1.3496477E2,-1.0203445E2,-7.136862E1,-7.865719E1,-5.0630276E1,-3.8704765E1,-1.6600618E1,-5.4826244E1,-2.449816E1,-4.1552696E1,-1.689288E1,-5.4002438E0,1.8252659E1,-2.999414E1,-1.0061018E1,-1.2061998E1,1.6814966E1,-3.2394096E1,1.2956781E1,1.9060125E1,5.1506893E1,-5.360566E1,-1.5620719E1,-1.1595923E1,8.370244E0,3.4412358E0,2.946382E1,4.1750248E1,7.386617E1,5.7890944E0,2.4373215E1,6.0207966E1,8.821148E1],"split_indices":[5,7,7,5,9,5,9,14,14,15,14,14,14,15,7,5,14,14,5,15,11,5,10,14,10,5,15,8,15,15,0,0,14,5,10,0,10,14,9,0,0,0,0,15,14,9,11,10,11,14,14,7,0,0,5,0,0,0,0,0,0,0,0,0,0,0,0,0,0,0,0,0,0,0,0,0,0,0,0,0,0,0,0,0,0,0,0,0,0,0,0,0,0,0,0],"split_type":[0,0,0,0,0,0,0,0,0,0,0,0,0,0,0,0,0,0,0,0,0,0,0,0,0,0,0,0,0,0,0,0,0,0,0,0,0,0,0,0,0,0,0,0,0,0,0,0,0,0,0,0,0,0,0,0,0,0,0,0,0,0,0,0,0,0,0,0,0,0,0,0,0,0,0,0,0,0,0,0,0,0,0,0,0,0,0,0,0,0,0,0,0,0,0],"sum_hessian":[1.434E3,8.87E2,5.47E2,5.21E2,3.66E2,3.67E2,1.8E2,2.07E2,3.14E2,3.8E1,3.28E2,2.1E2,1.57E2,6.5E1,1.15E2,1.44E2,6.3E1,2E2,1.14E2,2.8E1,1E1,1.81E2,1.47E2,8.2E1,1.28E2,5.8E1,9.9E1,1.5E1,5E1,7.2E1,4.3E1,6.7E1,7.7E1,5E1,1.3E1,1.4E1,1.86E2,5.2E1,6.2E1,2.2E1,6E0,5E0,5E0,6.5E1,1.16E2,7.4E1,7.3E1,1.2E1,7E1,3.6E1,9.2E1,2.9E1,2.9E1,2.7E1,7.2E1,5E0,1E1,2.9E1,2.1E1,5E1,2.2E1,1.5E1,5.2E1,2E1,5.7E1,2.4E1,2.6E1,7E0,6E0,1.6E2,2.6E1,3.5E1,1.7E1,4.1E1,2.1E1,4.3E1,2.2E1,4.3E1,7.3E1,1.1E1,6.3E1,1.4E1,5.9E1,5E0,7E0,1.6E1,5.4E1,1.2E1,2.4E1,6.6E1,2.6E1,6E0,2.3E1,1.8E1,5.4E1],"tree_param":{"num_deleted":"0","num_feature":"16","num_nodes":"95","size_leaf_vector":"1"}},{"base_weights":[-1.3113076E1,-9.853398E2,1.029764E3,-1.705092E3,-5.4338556E2,5.0595215E2,1.8221166E3,-2.4681147E3,-1.5001643E3,-7.4879065E2,-2.0452946E2,2.919685E2,8.0291205E2,1.4513539E3,2.4135364E3,-1.3187114E2,-7.4477104E1,-1.5589633E3,-6.786564E2,-9.6898553E2,-4.31417E2,-6.339265E2,-4.563108E1,-2.6827145E1,4.644042E2,4.2397644E2,9.1403174E2,4.9050777E1,1.562726E3,2.175259E3,1.5492705E2,-1.7809133E3,-1.336964E3,-4.1146404E1,-2.2948364E1,-7.336847E1,-9.044401E2,-5.2372125E2,1.2585865E2,-7.222601E2,-3.0872922E2,-1.5658383E2,1.6988937E2,-2.858372E2,1.496085E2,3.780494E2,9.190484E2,2.6524246E2,5.3197095E2,4.608788E2,9.7061066E2,1.4424888E3,9.757508E1,9.553958E1,1.23005486E2,-9.218705E1,-6.447008E1,-8.1515E1,-6.0590706E1,-4.663489E1,-1.3606888E1,-3.9891228E1,-1.834368E1,-5.5279655E0,1.6302948E1,-3.9070152E1,-2.2571302E1,-1.8581924E1,-9.193177E0,-2.793743E1,-2.1786017E0,-4.9351764E0,1.5373964E1,-2.8795649E1,-9.119327E0,-4.740002E0,1.1988912E1,1.607273E1,3.6716995E1,2.8388397E1,5.40576E1,8.16218E0,2.0838146E1,1.3957402E1,2.9190302E1,3.0646488E1,3.99736E0,4.1965557E1,6.0611217E1,5.9041664E1,8.130068E1],"categories":[],"categories_nodes":[],"categories_segments":[],"categories_sizes":[],"default_left":[0,0,0,0,0,0,0,0,0,0,0,0,0,0,0,0,0,0,0,0,0,0,0,0,0,0,0,0,0,0,0,0,0,0,0,0,0,0,0,0,0,0,0,0,0,0,0,0,0,0,0,0,0,0,0,0,0,0,0,0,0,0,0,0,0,0,0,0,0,0,0,0,0,0,0,0,0,0,0,0,0,0,0,0,0,0,0,0,0,0,0],"id":11,"left_children":[1,3,5,7,9,11,13,15,17,19,21,23,25,27,29,-1,-1,31,33,35,37,39,41,43,45,47,49,-1,51,53,-1,55,57,-1,-1,-1,59,61,63,65,67,69,71,73,75,77,79,81,83,85,87,89,-1,-1,-1,-1,-1,-1,-1,-1,-1,-1,-1,-1,-1,-1,-1,-1,-1,-1,-1,-1,-1,-1,-1,-1,-1,-1,-1,-1,-1,-1,-1,-1,-1,-1,-1,-1,-1,-1,-1],"loss_changes":[1.4752442E9,2.386007E8,2.904386E8,4.101728E7,3.2420848E7,2.6708368E7,5.767488E7,5.846144E6,9.95504E6,1.9918096E7,1.2116033E7,1.3645492E7,7.065312E6,7.581216E6,1.0560768E7,0E0,0E0,8.06448E6,1.609885E5,4.173408E6,6.290064E6,1.155754E6,3.15915E6,4.0642548E6,5.9734E6,5.787995E5,3.039424E6,0E0,3.68224E6,1.476192E6,0E0,8.0304E5,2.062304E6,0E0,0E0,0E0,2.49764E6,4.1784E6,8.8802744E5,2.39796E5,2.5876125E4,3.9296882E6,1.6933754E6,9.7519225E5,1.1907729E6,2.526332E6,8.09586E5,2.2555138E5,1.514685E5,9.35586E5,2.7892E6,3.361904E6,0E0,0E0,0E0,0E0,0E0,0E0,0E0,0E0,0E0,0E0,0E0,0E0,0E0,0E0,0E0,0E0,0E0,0E0,0E0,0E0,0E0,0E0,0E0,0E0,0E0,0E0,0E0,0E0,0E0,0E0,0E0,0E0,0E0,0E0,0E0,0E0,0E0,0E0,0E0],"parents":[2147483647,0,0,1,1,2,2,3,3,4,4,5,5,6,6,7,7,8,8,9,9,10,10,11,11,12,12,13,13,14,14,17,17,18,18,19,19,20,20,21,21,22,22,23,23,24,24,25,25,26,26,28,28,29,29,31,31,32,32,36,36,37,37,38,38,39,39,40,40,41,41,42,42,43,43,44,44,45,45,46,46,47,47,48,48,49,49,50,50,51,51],"right_children":[2,4,6,8,10,12,14,16,18,20,22,24,26,28,30,-1,-1,32,34,36,38,40,42,44,46,48,50,-1,52,54,-1,56,58,-1,-1,-1,60,62,64,66,68,70,72,74,76,78,80,82,84,86,88,90,-1,-1,-1,-1,-1,-1,-1,-1,-1,-1,-1,-1,-1,-1,-1,-1,-1,-1,-1,-1,-1,-1,-1,-1,-1,-1,-1,-1,-1,-1,-1,-1,-1,-1,-1,-1,-1,-1,-1],"split_conditions":[1.3299E4,1.1197E4,1.5182E4,9.479E3,1.2508E4,1.4244E4,1.6549E4,2.1E1,2.2E1,4.1E1,-4.4E2,-1.97E2,-4.09E2,-5.07E2,1.7965E4,-1.3187114E2,-7.4477104E1,1.0565E4,1.054E4,-9.67E2,1.4462E4,1.4198E4,4E2,1.4113411E4,2.1E1,1.5457667E4,1.2439292E4,4.9050777E1,2.1E1,2.87E2,1.5492705E2,2E1,-5.15E2,-4.1146404E1,-2.2948364E1,-7.336847E1,2.1E1,1.1685E4,2.2E1,1E0,1.3029994E4,1.2267E4,1.1534E4,-8.28E2,1.358E4,1.096E3,1.3018167E4,1.4762E4,-8.63E2,1.285544E4,4.39E2,1.5691E4,9.757508E1,9.553958E1,1.23005486E2,-9.218705E1,-6.447008E1,-8.1515E1,-6.0590706E1,-4.663489E1,-1.3606888E1,-3.9891228E1,-1.834368E1,-5.5279655E0,1.6302948E1,-3.9070152E1,-2.2571302E1,-1.8581924E1,-9.193177E0,-2.793743E1,-2.1786017E0,-4.9351764E0,1.5373964E1,-2.8795649E1,-9.119327E0,-4.740002E0,1.1988912E1,1.607273E1,3.6716995E1,2.8388397E1,5.40576E1,8.16218E0,2.0838146E1,1.3957402E1,2.9190302E1,3.0646488E1,3.99736E0,4.1965557E1,6.0611217E1,5.9041664E1,8.130068E1],"split_indices":[4,4,4,4,4,4,4,0,0,14,14,14,14,14,4,0,0,4,4,14,9,10,14,12,0,10,11,0,0,14,0,0,14,0,0,0,0,4,0,2,12,10,11,14,4,14,11,4,14,12,14,4,0,0,0,0,0,0,0,0,0,0,0,0,0,0,0,0,0,0,0,0,0,0,0,0,0,0,0,0,0,0,0,0,0,0,0,0,0,0,0],"split_type":[0,0,0,0,0,0,0,0,0,0,0,0,0,0,0,0,0,0,0,0,0,0,0,0,0,0,0,0,0,0,0,0,0,0,0,0,0,0,0,0,0,0,0,0,0,0,0,0,0,0,0,0,0,0,0,0,0,0,0,0,0,0,0,0,0,0,0,0,0,0,0,0,0,0,0,0,0,0,0,0,0,0,0,0,0,0,0,0,0,0,0],"sum_hessian":[1.453E3,7.52E2,7.01E2,2.85E2,4.67E2,4.23E2,2.78E2,5.8E1,2.27E2,2.9E2,1.77E2,2.47E2,1.76E2,1.73E2,1.05E2,4.8E1,1E1,2.11E2,1.6E1,1.7E2,1.2E2,4.7E1,1.3E2,8.7E1,1.6E2,4.1E1,1.35E2,3.5E1,1.38E2,8.1E1,2.4E1,1.02E2,1.09E2,8E0,8E0,1.7E1,1.53E2,1.03E2,1.7E1,3.6E1,1.1E1,8.6E1,4.4E1,3.5E1,5.2E1,1.36E2,2.4E1,1.8E1,2.3E1,1.6E1,1.19E2,1.09E2,2.9E1,4.6E1,3.5E1,8.8E1,1.4E1,2.9E1,8E1,1.46E2,7E0,3.6E1,6.7E1,8E0,9E0,2.8E1,8E0,6E0,5E0,1.8E1,6.8E1,1.5E1,2.9E1,8E0,2.7E1,1.4E1,3.8E1,1.19E2,1.7E1,9E0,1.5E1,1.2E1,6E0,5E0,1.8E1,1.1E1,5E0,8E1,3.9E1,4.8E1,6.1E1],"tree_param":{"num_deleted":"0","num_feature":"16","num_nodes":"91","size_leaf_vector":"1"}},{"base_weights":[1.2097978E1,-9.169498E2,1.0186606E3,-1.8219095E3,-5.773618E2,6.0623303E2,1.8888823E3,-2.4182769E3,-1.5340664E3,-9.437826E2,-2.7008633E2,3.5158923E2,9.581287E2,1.6230256E3,2.47101E3,-1.27178E2,-7.3742714E1,-1.6251011E3,-4.3199574E1,-1.018601E3,-3.8236526E2,-3.4466318E2,2.863818E2,2.8268747E2,8.503874E2,8.7768207E2,7.17557E1,1.5178319E3,1.0248495E2,1.0414492E2,1.3989284E2,-9.0690186E1,-7.173235E1,-1.1061572E3,-8.0661865E2,-5.400264E2,-8.7724495E1,-4.708817E2,-5.7236656E1,1.3811823E2,2.8569538E1,1.3761847E2,4.314445E2,2.9593168E1,4.613344E1,6.881816E2,9.9794666E2,1.1559049E3,8.126565E1,-4.1181202E1,-5.9148937E1,-2.252777E1,-4.58235E1,-3.326047E1,-1.7415628E1,-1.4959096E1,5.302125E0,-1.6685053E1,-3.2858715E1,2.8170767E0,-2.3210295E1,1.0976513E1,-3.1155555E0,1.8310616E1,-3.9511876E0,3.0823725E1,1.1484592E1,4.5216396E1,2.9181723E1,5.495315E1,3.9393497E1,6.506252E1,4.3284843E1],"categories":[],"categories_nodes":[],"categories_segments":[],"categories_sizes":[],"default_left":[0,0,0,0,0,0,0,0,0,0,0,0,0,0,0,0,0,0,0,0,0,0,0,0,0,0,0,0,0,0,0,0,0,0,0,0,0,0,0,0,0,0,0,0,0,0,0,0,0,0,0,0,0,0,0,0,0,0,0,0,0,0,0,0,0,0,0,0,0,0,0,0,0],"id":12,"left_children":[1,3,5,7,9,11,13,15,17,19,21,23,25,27,29,-1,-1,31,-1,33,35,37,39,41,43,45,-1,47,-1,-1,-1,-1,-1,49,51,53,55,57,59,61,-1,63,65,-1,-1,67,69,71,-1,-1,-1,-1,-1,-1,-1,-1,-1,-1,-1,-1,-1,-1,-1,-1,-1,-1,-1,-1,-1,-1,-1,-1,-1],"loss_changes":[1.3540886E9,2.3035494E8,2.4829254E8,3.1480192E7,6.155803E7,4.2047616E7,3.050112E7,3.930816E6,7.196672E6,1.0111504E7,1.25486E7,9.24508E6,6.337808E6,3.890336E6,2.797888E6,0E0,0E0,1.818016E6,0E0,3.190832E6,1.392619E6,9.586818E6,1.4422418E6,5.206096E6,7.041E4,3.232984E6,0E0,3.139168E6,0E0,0E0,0E0,0E0,0E0,2.346272E6,2.2467E6,2.481845E5,5.234269E5,4.482856E6,3.8164668E6,4.216288E5,0E0,6.219353E6,4.337952E6,0E0,0E0,1.053876E6,1.321832E6,2.65244E5,0E0,0E0,0E0,0E0,0E0,0E0,0E0,0E0,0E0,0E0,0E0,0E0,0E0,0E0,0E0,0E0,0E0,0E0,0E0,0E0,0E0,0E0,0E0,0E0,0E0],"parents":[2147483647,0,0,1,1,2,2,3,3,4,4,5,5,6,6,7,7,8,8,9,9,10,10,11,11,12,12,13,13,14,14,17,17,19,19,20,20,21,21,22,22,23,23,24,24,25,25,27,27,33,33,34,34,35,35,36,36,37,37,38,38,39,39,41,41,42,42,45,45,46,46,47,47],"right_children":[2,4,6,8,10,12,14,16,18,20,22,24,26,28,30,-1,-1,32,-1,34,36,38,40,42,44,46,-1,48,-1,-1,-1,-1,-1,50,52,54,56,58,60,62,-1,64,66,-1,-1,68,70,72,-1,-1,-1,-1,-1,-1,-1,-1,-1,-1,-1,-1,-1,-1,-1,-1,-1,-1,-1,-1,-1,-1,-1,-1,-1],"split_conditions":[1.3397E4,1.0797E4,1.5575E4,9.479E3,1.2039E4,1.4485E4,1.7168E4,2.1E1,2.1E1,2.1E1,2.1E1,2E1,2.1E1,2.1E1,1.7654E4,-1.27178E2,-7.3742714E1,1.0208E4,-4.3199574E1,1.1697E4,1.358534E3,1.304E4,1.2570417E4,1.388E4,1.3408E4,1.4934E4,7.17557E1,1.5913E4,1.0248495E2,1.0414492E2,1.3989284E2,-9.0690186E1,-7.173235E1,1.1318333E4,1.1766E4,2.2E1,1.2881E4,1.2829E4,1.3727E4,6E0,2.8569538E1,1.3658E4,1.4112E4,2.9593168E1,4.613344E1,1.446E4,1.5488E4,1.6206E4,8.126565E1,-4.1181202E1,-5.9148937E1,-2.252777E1,-4.58235E1,-3.326047E1,-1.7415628E1,-1.4959096E1,5.302125E0,-1.6685053E1,-3.2858715E1,2.8170767E0,-2.3210295E1,1.0976513E1,-3.1155555E0,1.8310616E1,-3.9511876E0,3.0823725E1,1.1484592E1,4.5216396E1,2.9181723E1,5.495315E1,3.9393497E1,6.506252E1,4.3284843E1],"split_indices":[4,4,4,4,4,4,4,0,0,0,0,0,0,0,9,0,0,4,0,4,13,4,11,4,9,4,0,4,0,0,0,0,0,10,5,0,9,5,5,1,0,5,5,0,0,5,5,5,0,0,0,0,0,0,0,0,0,0,0,0,0,0,0,0,0,0,0,0,0,0,0,0,0],"split_type":[0,0,0,0,0,0,0,0,0,0,0,0,0,0,0,0,0,0,0,0,0,0,0,0,0,0,0,0,0,0,0,0,0,0,0,0,0,0,0,0,0,0,0,0,0,0,0,0,0,0,0,0,0,0,0,0,0,0,0,0,0,0,0,0,0,0,0,0,0,0,0,0,0],"sum_hessian":[1.446E3,7.52E2,6.94E2,2.04E2,5.48E2,4.72E2,2.22E2,6.4E1,1.4E2,2.49E2,2.99E2,2.75E2,1.97E2,1.55E2,6.7E1,5.5E1,9E0,1.22E2,1.8E1,2.19E2,3E1,2.64E2,3.5E1,2.43E2,3.2E1,1.71E2,2.6E1,1.28E2,2.7E1,3.4E1,3.3E1,5.7E1,6.5E1,1.52E2,6.7E1,1.9E1,1.1E1,1.83E2,8.1E1,2.4E1,1.1E1,1.24E2,1.19E2,9E0,2.3E1,6.9E1,1.02E2,3.2E1,9.6E1,3.5E1,1.17E2,1.7E1,5E1,1E1,9E0,5E0,6E0,1.07E2,7.6E1,6.4E1,1.7E1,1.7E1,7E0,6E1,6.4E1,6.1E1,5.8E1,2E1,4.9E1,6.6E1,3.6E1,1.9E1,1.3E1],"tree_param":{"num_deleted":"0","num_feature":"16","num_nodes":"73","size_leaf_vector":"1"}},{"base_weights":[-7.2848268E0,-7.770261E2,8.626234E2,-1.1593234E3,-1.25611855E2,5.1020093E2,1.7829347E3,-1.8693872E3,-9.22056E2,-1.0444241E3,1.880256E1,-2.3275955E1,7.2006085E2,1.2216422E3,2.0954966E3,-2.119081E3,-1.2682354E3,-1.0895625E3,-4.7618475E2,-1.3891151E3,-2.4817935E2,-1.8957272E2,4.0219E2,-5.027921E2,4.9889127E2,4.668594E2,1.0983577E3,5.546354E2,7.045006E1,1.8664845E3,1.2534281E2,-1.3650223E2,-9.555444E1,-6.891182E1,-4.1119965E1,-1.3129193E3,-8.912113E2,-6.967026E2,1.3149109E2,-7.454082E1,-3.9233746E1,-2.4269016E1,-1.9621862E0,-5.235462E2,6.814459E0,1.7335144E2,7.783315E2,-1.1032015E3,-3.8044598E2,2.500728E2,8.912067E2,1.6356856E2,7.7145514E2,9.386388E2,1.4217798E3,6.1116176E0,7.2460895E2,5.5472534E1,1.9342478E3,-8.383535E1,-5.652789E1,-6.260852E1,-3.5170177E1,-4.4147587E1,-1.8541142E1,-3.4949481E0,1.8462439E1,-3.1198273E1,-5.6243415E0,-1.820835E1,8.213126E0,-9.709613E0,1.6927233E1,8.745585E0,4.399173E1,-6.5214455E1,-3.4235798E1,-2.749006E1,-5.9145217E0,3.0421262E0,1.7997608E1,3.399E1,5.405948E1,-2.914282E1,1.0252986E1,3.300217E1,5.859515E1,1.4809427E1,5.0013832E1,5.1378387E1,8.480214E1,2.3026985E1,4.5595245E1,5.587585E1,9.9535355E1],"categories":[],"categories_nodes":[],"categories_segments":[],"categories_sizes":[],"default_left":[0,0,0,0,0,0,0,0,0,0,0,0,0,0,0,0,0,0,0,0,0,0,0,0,0,0,0,0,0,0,0,0,0,0,0,0,0,0,0,0,0,0,0,0,0,0,0,0,0,0,0,0,0,0,0,0,0,0,0,0,0,0,0,0,0,0,0,0,0,0,0,0,0,0,0,0,0,0,0,0,0,0,0,0,0,0,0,0,0,0,0,0,0,0,0],"id":13,"left_children":[1,3,5,7,9,11,13,15,17,19,21,23,25,27,29,31,33,35,37,39,41,43,45,47,49,51,53,55,-1,57,-1,-1,-1,-1,-1,59,61,63,65,-1,-1,-1,-1,67,69,71,73,75,77,79,81,83,85,87,89,-1,91,-1,93,-1,-1,-1,-1,-1,-1,-1,-1,-1,-1,-1,-1,-1,-1,-1,-1,-1,-1,-1,-1,-1,-1,-1,-1,-1,-1,-1,-1,-1,-1,-1,-1,-1,-1,-1,-1],"loss_changes":[9.7561414E8,1.9235754E8,2.2093754E8,8.032333E7,3.8101696E7,5.5546704E7,3.0597632E7,1.547472E7,2.6890912E7,1.0358964E7,1.9968494E7,3.5555492E7,3.3586656E7,7.966192E6,6.625312E6,5.456544E6,7.29924E5,1.0614304E7,1.3760006E7,4.89716E5,6.251757E5,1.0628892E7,7.439638E6,5.016018E6,6.414864E6,1.973566E7,6.000448E6,1.160795E6,0E0,2.008928E6,0E0,0E0,0E0,0E0,0E0,6.264048E6,8.88092E6,4.224572E6,1.366537E6,0E0,0E0,0E0,0E0,2.406436E6,6.0760605E6,3.4658378E6,1.867218E6,1.1656E5,2.731933E6,8.72135E5,3.09086E5,3.4952172E6,4.00006E6,3.584328E6,3.122232E6,0E0,1.734035E5,0E0,1.141216E6,0E0,0E0,0E0,0E0,0E0,0E0,0E0,0E0,0E0,0E0,0E0,0E0,0E0,0E0,0E0,0E0,0E0,0E0,0E0,0E0,0E0,0E0,0E0,0E0,0E0,0E0,0E0,0E0,0E0,0E0,0E0,0E0,0E0,0E0,0E0,0E0],"parents":[2147483647,0,0,1,1,2,2,3,3,4,4,5,5,6,6,7,7,8,8,9,9,10,10,11,11,12,12,13,13,14,14,15,15,16,16,17,17,18,18,19,19,20,20,21,21,22,22,23,23,24,24,25,25,26,26,27,27,29,29,35,35,36,36,37,37,38,38,43,43,44,44,45,45,46,46,47,47,48,48,49,49,50,50,51,51,52,52,53,53,54,54,56,56,58,58],"right_children":[2,4,6,8,10,12,14,16,18,20,22,24,26,28,30,32,34,36,38,40,42,44,46,48,50,52,54,56,-1,58,-1,-1,-1,-1,-1,60,62,64,66,-1,-1,-1,-1,68,70,72,74,76,78,80,82,84,86,88,90,-1,92,-1,94,-1,-1,-1,-1,-1,-1,-1,-1,-1,-1,-1,-1,-1,-1,-1,-1,-1,-1,-1,-1,-1,-1,-1,-1,-1,-1,-1,-1,-1,-1,-1,-1,-1,-1,-1,-1],"split_conditions":[1.3397E4,1.2588E4,1.5775E4,1.0385E4,1.1794E4,-5.69E2,1.6749E4,1.41E2,5.8E1,-1.142E3,7.21E2,1.5314E4,1.4717E4,-1.426E3,1.6318708E4,8.901E3,1.1765E4,1.1732E4,1.1999E4,2.1E1,-2.68E2,1.2243E4,1.4321E4,-1.046E3,1.5913E4,6.9E1,1.5896E4,-2.165E3,7.045006E1,-4.87E2,1.2534281E2,-1.3650223E2,-9.555444E1,-6.891182E1,-4.1119965E1,-3.42E2,-7.12E2,3.62E2,1.2132125E4,-7.454082E1,-3.9233746E1,-2.4269016E1,-1.9621862E0,-5.97E2,-9.7E1,-5.97E2,1.0499E4,1.33365E4,1.4741E4,1.5457667E4,-7.03E2,1.3215E4,7.75E2,1.2921083E4,5E0,6.1116176E0,1.6478E4,5.5472534E1,-1.142E3,-8.383535E1,-5.652789E1,-6.260852E1,-3.5170177E1,-4.4147587E1,-1.8541142E1,-3.4949481E0,1.8462439E1,-3.1198273E1,-5.6243415E0,-1.820835E1,8.213126E0,-9.709613E0,1.6927233E1,8.745585E0,4.399173E1,-6.5214455E1,-3.4235798E1,-2.749006E1,-5.9145217E0,3.0421262E0,1.7997608E1,3.399E1,5.405948E1,-2.914282E1,1.0252986E1,3.300217E1,5.859515E1,1.4809427E1,5.0013832E1,5.1378387E1,8.480214E1,2.3026985E1,4.5595245E1,5.587585E1,9.9535355E1],"split_indices":[5,7,7,5,9,14,9,14,14,15,14,6,5,15,11,7,7,5,5,0,15,5,7,14,5,14,5,15,0,14,0,0,0,0,0,14,14,14,11,0,0,0,0,15,14,15,10,10,6,10,14,6,14,11,0,0,7,0,15,0,0,0,0,0,0,0,0,0,0,0,0,0,0,0,0,0,0,0,0,0,0,0,0,0,0,0,0,0,0,0,0,0,0,0,0],"split_type":[0,0,0,0,0,0,0,0,0,0,0,0,0,0,0,0,0,0,0,0,0,0,0,0,0,0,0,0,0,0,0,0,0,0,0,0,0,0,0,0,0,0,0,0,0,0,0,0,0,0,0,0,0,0,0,0,0,0,0,0,0,0,0,0,0,0,0,0,0,0,0,0,0,0,0,0,0,0,0,0,0,0,0,0,0,0,0,0,0,0,0,0,0,0,0],"sum_hessian":[1.455E3,7.72E2,6.83E2,4.86E2,2.86E2,4.95E2,1.88E2,1.2E2,3.66E2,3.8E1,2.48E2,1.4E2,3.55E2,6.9E1,1.19E2,8.3E1,3.7E1,2.65E2,1.01E2,2.6E1,1.2E1,1.61E2,8.7E1,7.3E1,6.7E1,2.14E2,1.41E2,1.6E1,5.3E1,8E1,3.9E1,1.8E1,6.5E1,2.8E1,9E0,1.22E2,1.43E2,7.4E1,2.7E1,2.1E1,5E0,5E0,7E0,5.9E1,1.02E2,5.5E1,3.2E1,1.1E1,6.2E1,4.2E1,2.5E1,1.08E2,1.06E2,9.7E1,4.4E1,5E0,1.1E1,8E0,7.2E1,3.8E1,8.4E1,4.7E1,9.6E1,4.6E1,2.8E1,1.5E1,1.2E1,4.7E1,1.2E1,3E1,7.2E1,1.7E1,3.8E1,5E0,2.7E1,6E0,5E0,3.7E1,2.5E1,1.6E1,2.6E1,1.4E1,1.1E1,5E0,1.03E2,8.5E1,2.1E1,9E0,8.8E1,2E1,2.4E1,6E0,5E0,6E0,6.6E1],"tree_param":{"num_deleted":"0","num_feature":"16","num_nodes":"95","size_leaf_vector":"1"}},{"base_weights":[-1.9042603E1,-8.24441E2,9.212191E2,-1.6467708E3,-5.151602E2,5.598786E2,1.7193826E3,-2.3701875E3,-1.4605476E3,-8.235037E2,-2.455658E2,2.9664334E2,8.716099E2,1.4430779E3,2.180291E3,-1.23153465E2,-7.0118454E1,-1.693909E3,-1.2130795E3,-9.4122876E2,-4.390651E2,-4.9200192E2,-3.624818E1,1.08103676E2,5.0313525E2,7.884023E2,1.4333372E3,1.1482872E3,1.6490605E3,8.39448E1,1.15347404E2,-9.173525E1,-7.123048E1,-6.7566345E1,-8.161686E2,-1.220486E3,-8.3628235E2,-5.6738354E2,-2.4220337E2,-6.2262177E2,-2.2029198E2,-2.085085E2,1.607687E2,-1.3310414E2,2.1704633E2,3.929031E2,7.397911E2,4.6351163E2,8.799425E2,3.8204334E1,7.781464E1,4.6154873E1,6.708214E1,6.783113E1,9.003173E1,-4.8235607E1,-2.6970152E1,-6.648161E1,-4.9542374E1,-4.9235985E1,-3.1351048E1,-2.00129E1,-3.5671886E1,-2.2014994E1,-4.9885073E0,-3.4932964E1,-1.4284846E1,-3.8203347E0,-2.053559E1,-1.6872213E1,3.494386E0,3.5834043E0,1.9959785E1,-1.8092161E1,8.141482E0,-3.9444058E0,1.4757621E1,-3.5353985E0,2.2825506E1,2.5780714E1,5.0089554E1,1.8638683E1,3.2211224E1,3.597973E1,4.8985783E1],"categories":[],"categories_nodes":[],"categories_segments":[],"categories_sizes":[],"default_left":[0,0,0,0,0,0,0,0,0,0,0,0,0,0,0,0,0,0,0,0,0,0,0,0,0,0,0,0,0,0,0,0,0,0,0,0,0,0,0,0,0,0,0,0,0,0,0,0,0,0,0,0,0,0,0,0,0,0,0,0,0,0,0,0,0,0,0,0,0,0,0,0,0,0,0,0,0,0,0,0,0,0,0,0,0],"id":14,"left_children":[1,3,5,7,9,11,13,15,17,19,21,23,25,27,29,-1,-1,31,33,35,37,39,41,43,45,47,49,51,53,-1,-1,-1,-1,-1,55,57,59,61,63,65,67,69,71,73,75,77,79,81,83,-1,-1,-1,-1,-1,-1,-1,-1,-1,-1,-1,-1,-1,-1,-1,-1,-1,-1,-1,-1,-1,-1,-1,-1,-1,-1,-1,-1,-1,-1,-1,-1,-1,-1,-1,-1],"loss_changes":[1.0980659E9,1.9778378E8,1.9198253E8,2.5232576E7,4.709731E7,3.765243E7,2.3342336E7,3.20976E5,7.877792E6,1.158E7,1.5715054E7,9.75639E6,8.731872E6,6.182144E6,9.52864E5,0E0,0E0,6.46752E5,3.670728E6,4.899152E6,1.479201E6,4.83146E6,5.667266E6,3.5238482E6,2.83967E6,5.123752E6,9.50116E5,1.286728E6,9.25664E5,0E0,0E0,0E0,0E0,0E0,5.07273E5,1.0704E4,4.041728E6,6.41885E5,7.178364E5,2.208476E6,1.2563048E6,3.2182852E6,1.6283751E6,2.9019865E6,2.1498185E6,2.509387E6,1.656482E6,4.64842E5,1.5986E6,0E0,0E0,0E0,0E0,0E0,0E0,0E0,0E0,0E0,0E0,0E0,0E0,0E0,0E0,0E0,0E0,0E0,0E0,0E0,0E0,0E0,0E0,0E0,0E0,0E0,0E0,0E0,0E0,0E0,0E0,0E0,0E0,0E0,0E0,0E0,0E0],"parents":[2147483647,0,0,1,1,2,2,3,3,4,4,5,5,6,6,7,7,8,8,9,9,10,10,11,11,12,12,13,13,14,14,17,17,18,18,19,19,20,20,21,21,22,22,23,23,24,24,25,25,26,26,27,27,28,28,34,34,35,35,36,36,37,37,38,38,39,39,40,40,41,41,42,42,43,43,44,44,45,45,46,46,47,47,48,48],"right_children":[2,4,6,8,10,12,14,16,18,20,22,24,26,28,30,-1,-1,32,34,36,38,40,42,44,46,48,50,52,54,-1,-1,-1,-1,-1,56,58,60,62,64,66,68,70,72,74,76,78,80,82,84,-1,-1,-1,-1,-1,-1,-1,-1,-1,-1,-1,-1,-1,-1,-1,-1,-1,-1,-1,-1,-1,-1,-1,-1,-1,-1,-1,-1,-1,-1,-1,-1,-1,-1,-1,-1],"split_conditions":[1.3397E4,1.0797E4,1.5691E4,9.122E3,1.2039E4,1.4404E4,1.7035E4,2.1E1,-9.7E1,2.4E2,-7.4E1,6.9E1,2.2E1,-2.02E2,1.6972E4,-1.23153465E2,-7.0118454E1,1.0353E4,1.2389E4,-6.41E2,2.1E1,1.3004E4,1.3421E4,-5.69E2,1.4698E4,-4.09E2,1.3654583E4,1.6264E4,1.4758042E4,8.39448E1,1.15347404E2,-9.173525E1,-7.123048E1,-6.7566345E1,2.2E1,1.2937667E4,1.1558E4,1.2E1,1.122E4,8.76E2,1.3727E4,1.2901E4,2.2E1,1.5277167E4,1.22335E4,-3.09E2,1.5264E4,1.6415666E4,1.4934E4,3.8204334E1,7.781464E1,4.6154873E1,6.708214E1,6.783113E1,9.003173E1,-4.8235607E1,-2.6970152E1,-6.648161E1,-4.9542374E1,-4.9235985E1,-3.1351048E1,-2.00129E1,-3.5671886E1,-2.2014994E1,-4.9885073E0,-3.4932964E1,-1.4284846E1,-3.8203347E0,-2.053559E1,-1.6872213E1,3.494386E0,3.5834043E0,1.9959785E1,-1.8092161E1,8.141482E0,-3.9444058E0,1.4757621E1,-3.5353985E0,2.2825506E1,2.5780714E1,5.0089554E1,1.8638683E1,3.2211224E1,3.597973E1,4.8985783E1],"split_indices":[4,4,4,4,4,4,4,0,14,14,14,14,0,14,9,0,0,4,9,14,0,4,9,14,7,14,11,4,11,0,0,0,0,0,0,10,4,0,4,15,5,4,0,10,11,15,9,10,4,0,0,0,0,0,0,0,0,0,0,0,0,0,0,0,0,0,0,0,0,0,0,0,0,0,0,0,0,0,0,0,0,0,0,0,0],"split_type":[0,0,0,0,0,0,0,0,0,0,0,0,0,0,0,0,0,0,0,0,0,0,0,0,0,0,0,0,0,0,0,0,0,0,0,0,0,0,0,0,0,0,0,0,0,0,0,0,0,0,0,0,0,0,0,0,0,0,0,0,0,0,0,0,0,0,0,0,0,0,0,0,0,0,0,0,0,0,0,0,0,0,0,0,0],"sum_hessian":[1.448E3,7.8E2,6.68E2,2.12E2,5.68E2,4.61E2,2.07E2,4.1E1,1.71E2,2.64E2,3.04E2,2.51E2,2.1E2,1.32E2,7.5E1,3.6E1,5E0,8.5E1,8.6E1,2.01E2,6.3E1,1.39E2,1.65E2,1.32E2,1.19E2,1.85E2,2.5E1,5.7E1,7.5E1,1.8E1,5.7E1,5.2E1,3.3E1,6.2E1,2.4E1,5.2E1,1.49E2,3.7E1,2.6E1,9.3E1,4.6E1,8.8E1,7.7E1,4.1E1,9.1E1,8.3E1,3.6E1,4.2E1,1.43E2,5E0,2E1,2.9E1,2.8E1,2.9E1,4.6E1,1.4E1,1E1,3.2E1,2E1,8.5E1,6.4E1,1.9E1,1.8E1,1E1,1.6E1,7.5E1,1.8E1,2.7E1,1.9E1,6E1,2.8E1,5.7E1,2E1,2.3E1,1.8E1,1.9E1,7.2E1,1E1,7.3E1,2.1E1,1.5E1,3E1,1.2E1,5.8E1,8.5E1],"tree_param":{"num_deleted":"0","num_feature":"16","num_nodes":"85","size_leaf_vector":"1"}},{"base_weights":[-4.1058156E-1,-6.9645984E2,7.8783777E2,-1.0773911E3,-2.5116322E2,4.1700397E2,1.3952567E3,-1.6690419E3,-8.2016156E2,-8.626664E2,3.208545E1,-7.394908E1,8.05557E2,1.149317E3,2.0865542E3,-1.1110337E2,-1.5030336E3,-1.2474529E3,-6.5459674E2,-1.0806357E3,-2.703469E2,-2.1197021E2,4.0531366E2,-4.573576E2,1.290814E2,6.033087E2,1.1999829E3,9.1531104E2,1.5996459E3,8.3903786E1,1.2533909E2,-8.652665E1,-6.427158E1,-1.493968E3,-9.139197E2,-8.5828455E2,-3.5887363E2,-6.836481E1,-8.2033514E2,-2.6827854E1,-1.2494875E2,-2.952389E2,1.7829585E2,2.332409E2,7.529218E2,-8.2094165E2,-1.8459325E2,-1.6909384E2,2.2091762E2,4.2420364E2,8.4558435E2,6.693174E2,1.4290232E3,6.284898E2,1.1238704E3,4.5857693E1,1.679342E3,-8.6856415E1,-6.247287E1,-4.9463947E1,-3.0575596E1,-4.4487392E1,-1.414849E1,-3.0840544E1,-7.729441E0,-4.5340534E1,-2.9057913E1,-1.5444676E1,6.3332157E0,-2.1153477E1,-2.8915715E-1,3.669204E0,2.6661985E1,-3.1052282E0,1.8950718E1,2.4721348E1,5.2497456E1,-2.8611866E1,-5.5242634E1,-1.670078E1,3.8371797E0,-1.4417856E1,4.912923E0,5.7391816E-1,1.8515516E1,6.2115026E0,2.5439713E1,3.2905674E1,4.990901E1,6.7552567E0,4.114104E1,4.1015057E1,7.575901E1,6.255212E0,3.5406002E1,3.311852E1,5.8878933E1,7.3606544E1,9.822274E1],"categories":[],"categories_nodes":[],"categories_segments":[],"categories_sizes":[],"default_left":[0,0,0,0,0,0,0,0,0,0,0,0,0,0,0,0,0,0,0,0,0,0,0,0,0,0,0,0,0,0,0,0,0,0,0,0,0,0,0,0,0,0,0,0,0,0,0,0,0,0,0,0,0,0,0,0,0,0,0,0,0,0,0,0,0,0,0,0,0,0,0,0,0,0,0,0,0,0,0,0,0,0,0,0,0,0,0,0,0,0,0,0,0,0,0,0,0,0,0],"id":15,"left_children":[1,3,5,7,9,11,13,15,17,19,21,23,25,27,29,-1,31,33,35,37,39,41,43,45,47,49,51,53,55,-1,-1,-1,-1,57,59,61,63,-1,65,-1,67,69,71,73,75,77,79,81,83,85,87,89,91,93,95,-1,97,-1,-1,-1,-1,-1,-1,-1,-1,-1,-1,-1,-1,-1,-1,-1,-1,-1,-1,-1,-1,-1,-1,-1,-1,-1,-1,-1,-1,-1,-1,-1,-1,-1,-1,-1,-1,-1,-1,-1,-1,-1,-1],"loss_changes":[8.037864E8,1.3169939E8,1.5416573E8,6.2398496E7,6.2382444E7,8.170548E7,4.180611E7,8.227456E6,1.9982096E7,1.4425984E7,2.2584784E7,1.4849357E7,1.8341344E7,1.8979216E7,7.293856E6,0E0,2.725632E6,5.294288E6,1.25822E7,5.071424E6,1.1714982E6,4.927191E6,5.686052E6,6.393763E6,3.4602715E6,6.58402E6,8.766824E6,7.069984E6,1.995008E6,0E0,0E0,0E0,0E0,5.0472E5,2.38086E5,2.028872E6,4.594218E6,0E0,4.24268E5,0E0,1.057368E6,4.585674E6,9.662282E5,2.9081565E6,1.937682E6,1.34467E6,1.5485926E6,9.84912E5,2.9994265E6,2.321976E6,1.259608E6,2.020825E6,1.641368E6,2.196156E6,1.054008E6,0E0,4.75216E5,0E0,0E0,0E0,0E0,0E0,0E0,0E0,0E0,0E0,0E0,0E0,0E0,0E0,0E0,0E0,0E0,0E0,0E0,0E0,0E0,0E0,0E0,0E0,0E0,0E0,0E0,0E0,0E0,0E0,0E0,0E0,0E0,0E0,0E0,0E0,0E0,0E0,0E0,0E0,0E0,0E0,0E0],"parents":[2147483647,0,0,1,1,2,2,3,3,4,4,5,5,6,6,7,7,8,8,9,9,10,10,11,11,12,12,13,13,14,14,16,16,17,17,18,18,19,19,20,20,21,21,22,22,23,23,24,24,25,25,26,26,27,27,28,28,33,33,34,34,35,35,36,36,38,38,40,40,41,41,42,42,43,43,44,44,45,45,46,46,47,47,48,48,49,49,50,50,51,51,52,52,53,53,54,54,56,56],"right_children":[2,4,6,8,10,12,14,16,18,20,22,24,26,28,30,-1,32,34,36,38,40,42,44,46,48,50,52,54,56,-1,-1,-1,-1,58,60,62,64,-1,66,-1,68,70,72,74,76,78,80,82,84,86,88,90,92,94,96,-1,98,-1,-1,-1,-1,-1,-1,-1,-1,-1,-1,-1,-1,-1,-1,-1,-1,-1,-1,-1,-1,-1,-1,-1,-1,-1,-1,-1,-1,-1,-1,-1,-1,-1,-1,-1,-1,-1,-1,-1,-1,-1,-1],"split_conditions":[1.3397E4,4.1E1,1.5313E4,1.0994E4,1.1032E4,-1.56E2,2.19E2,9.49E3,-7.12E2,7.21E2,1.3755E4,1.3835167E4,4.79E2,1.6961E4,1.5983583E4,-1.1110337E2,-2.18E2,1.2840167E4,1.2371E4,1.0158E4,9.551E3,1.2792E4,1.116E3,-6.98E2,-7.71E2,1.4369E4,1.4113411E4,-4.46E2,-7.8E2,8.3903786E1,1.2533909E2,-8.652665E1,-6.427158E1,-1.046E3,1.3376333E4,1.4358613E4,1.2549696E4,-6.836481E1,4.19E2,-2.6827854E1,1.1889238E4,4.79E2,4.61E2,1.1852333E4,1.2658292E4,5E0,1.4112E4,1.4404107E4,1.4268E4,1.3106833E4,1.4808792E4,1.0606086E3,-1.466E3,1.5457667E4,1.5047E4,4.5857693E1,1.6434291E4,-8.6856415E1,-6.247287E1,-4.9463947E1,-3.0575596E1,-4.4487392E1,-1.414849E1,-3.0840544E1,-7.729441E0,-4.5340534E1,-2.9057913E1,-1.5444676E1,6.3332157E0,-2.1153477E1,-2.8915715E-1,3.669204E0,2.6661985E1,-3.1052282E0,1.8950718E1,2.4721348E1,5.2497456E1,-2.8611866E1,-5.5242634E1,-1.670078E1,3.8371797E0,-1.4417856E1,4.912923E0,5.7391816E-1,1.8515516E1,6.2115026E0,2.5439713E1,3.2905674E1,4.990901E1,6.7552567E0,4.114104E1,4.1015057E1,7.575901E1,6.255212E0,3.5406002E1,3.311852E1,5.8878933E1,7.3606544E1,9.822274E1],"split_indices":[5,14,5,5,5,14,14,5,14,14,9,10,14,5,11,0,14,10,5,5,5,5,14,14,14,5,12,14,14,0,0,0,0,14,10,12,12,0,14,0,12,14,14,10,11,0,5,12,5,10,11,13,15,10,6,0,11,0,0,0,0,0,0,0,0,0,0,0,0,0,0,0,0,0,0,0,0,0,0,0,0,0,0,0,0,0,0,0,0,0,0,0,0,0,0,0,0,0,0],"split_type":[0,0,0,0,0,0,0,0,0,0,0,0,0,0,0,0,0,0,0,0,0,0,0,0,0,0,0,0,0,0,0,0,0,0,0,0,0,0,0,0,0,0,0,0,0,0,0,0,0,0,0,0,0,0,0,0,0,0,0,0,0,0,0,0,0,0,0,0,0,0,0,0,0,0,0,0,0,0,0,0,0,0,0,0,0,0,0,0,0,0,0,0,0,0,0,0,0,0,0],"sum_hessian":[1.463E3,7.77E2,6.86E2,4.18E2,3.59E2,4.27E2,2.59E2,1.25E2,2.93E2,1.13E2,2.46E2,1.89E2,2.38E2,1.93E2,6.6E1,2.6E1,9.9E1,8E1,2.13E2,8.2E1,3.1E1,1.49E2,9.7E1,6.5E1,1.24E2,1.59E2,7.9E1,1.29E2,6.4E1,3.6E1,3E1,4.5E1,5.4E1,4.4E1,3.6E1,1.25E2,8.8E1,3.7E1,4.5E1,1E1,2.1E1,1.23E2,2.6E1,6.6E1,3.1E1,2.7E1,3.8E1,2.9E1,9.5E1,9.3E1,6.6E1,2.5E1,5.4E1,5.6E1,7.3E1,8E0,5.6E1,1.9E1,2.5E1,2.7E1,9E0,1.18E2,7E0,3.8E1,5E1,3.1E1,1.4E1,1.2E1,9E0,8.5E1,3.8E1,2.1E1,5E0,2.2E1,4.4E1,1.8E1,1.3E1,1.6E1,1.1E1,2.4E1,1.4E1,2E1,9E0,4E1,5.5E1,2.1E1,7.2E1,3.2E1,3.4E1,6E0,1.9E1,8E0,4.6E1,8E0,4.8E1,9E0,6.4E1,3.6E1,2E1],"tree_param":{"num_deleted":"0","num_feature":"16","num_nodes":"99","size_leaf_vector":"1"}},{"base_weights":[1.129146E0,-9.093883E2,6.6891394E2,-1.4768129E3,-6.213288E2,2.291229E2,1.2976201E3,-2.168255E3,-1.310635E3,-7.206318E2,-1.747857E2,-9.581354E0,3.9434964E2,1.082259E3,1.9139344E3,-1.1327222E2,-6.361598E1,-7.759067E1,-1.081828E3,-8.886072E2,-5.523657E2,-4.9341916E2,-8.690203E1,-1.7541096E2,2.4342732E2,2.508244E2,5.972771E2,8.428784E2,1.2791036E3,1.6224034E3,1.11556946E2,-1.1511687E3,-2.7047628E1,-1.0406893E3,-7.6428235E2,-7.057986E2,-4.0140067E2,-1.461085E1,-2.9245438E1,-3.3103622E2,-5.4016986E0,-3.633418E2,-4.4286972E1,-1.0254736E1,3.0212863E2,1.5464902E2,4.8047385E2,3.7794998E2,7.0354333E2,7.346855E2,5.7479073E1,1.1699464E3,8.245188E1,6.623202E1,8.992069E1,-5.989811E1,-3.7861996E1,-5.556609E1,-3.5145E1,-3.9698025E1,-1.9787992E1,-4.0642372E1,-2.8946089E1,-2.2015152E1,-4.629202E0,-2.0949696E1,-6.4625373E0,6.466443E0,-8.597925E0,-2.0208826E1,-6.6198654E0,-1.2872141E1,2.9455788E0,-4.1652637E0,6.268185E0,1.2283216E1,2.6551619E1,-3.7106159E0,1.1023803E1,9.1354656E-1,2.6571075E1,7.636448E0,2.5798914E1,2.097837E1,3.932373E1,2.812299E1,4.0571117E1,4.4482586E1,6.418171E1],"categories":[],"categories_nodes":[],"categories_segments":[],"categories_sizes":[],"default_left":[0,0,0,0,0,0,0,0,0,0,0,0,0,0,0,0,0,0,0,0,0,0,0,0,0,0,0,0,0,0,0,0,0,0,0,0,0,0,0,0,0,0,0,0,0,0,0,0,0,0,0,0,0,0,0,0,0,0,0,0,0,0,0,0,0,0,0,0,0,0,0,0,0,0,0,0,0,0,0,0,0,0,0,0,0,0,0,0,0],"id":16,"left_children":[1,3,5,7,9,11,13,15,17,19,21,23,25,27,29,-1,-1,-1,31,33,35,37,39,41,43,45,47,49,51,53,-1,55,-1,57,59,61,63,-1,-1,65,67,69,71,73,75,77,79,81,83,85,-1,87,-1,-1,-1,-1,-1,-1,-1,-1,-1,-1,-1,-1,-1,-1,-1,-1,-1,-1,-1,-1,-1,-1,-1,-1,-1,-1,-1,-1,-1,-1,-1,-1,-1,-1,-1,-1,-1],"loss_changes":[8.737389E8,9.846102E7,2.2892048E8,2.0597952E7,1.783288E7,1.9290136E7,4.318931E7,4.26144E5,7.536544E6,8.864592E6,2.0572638E6,8.475916E6,8.267288E6,1.093744E7,4.425152E6,0E0,0E0,0E0,2.715024E6,2.30528E6,3.60796E6,1.235185E5,1.1919992E6,2.990221E6,1.194445E6,3.702444E6,2.507528E6,3.070832E6,3.643024E6,1.85496E5,0E0,5.30456E5,0E0,9.12648E5,7.13748E5,6.43012E5,1.004374E6,0E0,0E0,2.1201875E5,1.0544968E6,4.179625E5,1.6209945E6,1.6895127E5,7.095845E5,1.8543385E6,1.167643E6,1.1956905E6,1.530388E6,7.32916E5,0E0,2.363056E6,0E0,0E0,0E0,0E0,0E0,0E0,0E0,0E0,0E0,0E0,0E0,0E0,0E0,0E0,0E0,0E0,0E0,0E0,0E0,0E0,0E0,0E0,0E0,0E0,0E0,0E0,0E0,0E0,0E0,0E0,0E0,0E0,0E0,0E0,0E0,0E0,0E0],"parents":[2147483647,0,0,1,1,2,2,3,3,4,4,5,5,6,6,7,7,8,8,9,9,10,10,11,11,12,12,13,13,14,14,18,18,19,19,20,20,21,21,22,22,23,23,24,24,25,25,26,26,27,27,28,28,29,29,31,31,33,33,34,34,35,35,36,36,39,39,40,40,41,41,42,42,43,43,44,44,45,45,46,46,47,47,48,48,49,49,51,51],"right_children":[2,4,6,8,10,12,14,16,18,20,22,24,26,28,30,-1,-1,-1,32,34,36,38,40,42,44,46,48,50,52,54,-1,56,-1,58,60,62,64,-1,-1,66,68,70,72,74,76,78,80,82,84,86,-1,88,-1,-1,-1,-1,-1,-1,-1,-1,-1,-1,-1,-1,-1,-1,-1,-1,-1,-1,-1,-1,-1,-1,-1,-1,-1,-1,-1,-1,-1,-1,-1,-1,-1,-1,-1,-1,-1],"split_conditions":[1.2745E4,1.0797E4,1.4815E4,9.122E3,3.72E2,-1.15E2,1.6811E4,2.1E1,-9.7E1,1.1749E4,1.1036E4,1.384E4,1.3967E4,-8.5E1,1.64E2,-1.1327222E2,-6.361598E1,-7.759067E1,2.2E1,1.1247E4,-2.7E2,3E0,1.153E4,1.3256042E4,1.3056E4,1.4249E4,1.2921083E4,1.6206E4,2.2E1,1.7307E4,1.11556946E2,1.2901E4,-2.7047628E1,1.2048458E4,2.4E2,1.2268375E4,2.1E1,-1.461085E1,-2.9245438E1,1.3139E4,4E0,1.3631E4,-6.47E2,1.4173E4,1.8E1,-9E1,1.3035E4,2.92E2,1.3874E4,1.5182E4,5.7479073E1,1.5258E4,8.245188E1,6.623202E1,8.992069E1,-5.989811E1,-3.7861996E1,-5.556609E1,-3.5145E1,-3.9698025E1,-1.9787992E1,-4.0642372E1,-2.8946089E1,-2.2015152E1,-4.629202E0,-2.0949696E1,-6.4625373E0,6.466443E0,-8.597925E0,-2.0208826E1,-6.6198654E0,-1.2872141E1,2.9455788E0,-4.1652637E0,6.268185E0,1.2283216E1,2.6551619E1,-3.7106159E0,1.1023803E1,9.1354656E-1,2.6571075E1,7.636448E0,2.5798914E1,2.097837E1,3.932373E1,2.812299E1,4.0571117E1,4.4482586E1,6.418171E1],"split_indices":[4,4,4,4,14,14,4,0,14,4,7,4,4,14,14,0,0,0,0,7,14,1,4,11,11,7,11,4,0,4,0,9,0,11,14,11,0,0,0,7,1,4,14,4,0,15,9,14,9,4,0,4,0,0,0,0,0,0,0,0,0,0,0,0,0,0,0,0,0,0,0,0,0,0,0,0,0,0,0,0,0,0,0,0,0,0,0,0,0],"split_type":[0,0,0,0,0,0,0,0,0,0,0,0,0,0,0,0,0,0,0,0,0,0,0,0,0,0,0,0,0,0,0,0,0,0,0,0,0,0,0,0,0,0,0,0,0,0,0,0,0,0,0,0,0,0,0,0,0,0,0,0,0,0,0,0,0,0,0,0,0,0,0,0,0,0,0,0,0,0,0,0,0,0,0,0,0,0,0,0,0],"sum_hessian":[1.435E3,6.07E2,8.28E2,2.03E2,4.04E2,4.88E2,3.4E2,3.7E1,1.66E2,3.3E2,7.4E1,2E2,2.88E2,2.54E2,8.6E1,3.2E1,5E0,7.8E1,8.8E1,1.63E2,1.67E2,1.5E1,5.9E1,1.21E2,7.9E1,1.7E2,1.18E2,1.17E2,1.37E2,4.8E1,3.8E1,7.7E1,1.1E1,7E1,9.3E1,8.1E1,8.6E1,6E0,9E0,1.4E1,4.5E1,4.9E1,7.2E1,1.5E1,6.4E1,1.21E2,4.9E1,4E1,7.8E1,8.9E1,2.8E1,1.09E2,2.8E1,2.1E1,2.7E1,6.7E1,1E1,5.6E1,1.4E1,8.5E1,8E0,4.1E1,4E1,7.6E1,1E1,9E0,5E0,2.5E1,2E1,4.1E1,8E0,2.3E1,4.9E1,1E1,5E0,5.3E1,1.1E1,2.7E1,9.4E1,5E0,4.4E1,1.6E1,2.4E1,1.9E1,5.9E1,3E1,5.9E1,3.4E1,7.5E1],"tree_param":{"num_deleted":"0","num_feature":"16","num_nodes":"89","size_leaf_vector":"1"}},{"base_weights":[6.4247828E0,-8.081088E2,7.1530383E2,-1.3999403E3,-5.317072E2,3.289564E2,1.3514471E3,-1.9866703E3,-1.2398453E3,-6.4455023E2,-1.0393603E2,1.8866351E2,6.2280615E2,1.1212139E3,1.8295638E3,-1.052562E2,-5.952378E1,-1.3067976E3,-7.3003467E2,-8.6213513E2,-4.726446E2,-4.8249823E2,-1.7459078E1,3.1234182E1,4.151749E2,4.995745E2,8.643046E2,9.630295E2,1.4184857E3,1.6456827E3,2.289648E3,-1.4151473E3,-1.0774674E3,-8.3645074E2,-1.912465E1,-5.5012E1,-7.8350006E2,-7.489246E2,-4.0322324E2,-1.5619559E1,-3.0894205E1,-3.9490054E2,8.3070045E1,-1.7271259E2,1.4018887E2,-8.6604303E-1,4.4645395E2,3.7237695E2,6.7431335E2,6.3323553E2,5.3106365E1,8.267284E2,1.1199695E3,7.37415E1,4.7491528E1,6.2504585E1,8.894577E1,7.3847145E1,1.2392458E2,-7.462654E1,-5.3998787E1,-6.716411E1,-4.820692E1,-4.7144264E1,-2.509478E1,-4.4626072E1,-3.229655E1,-4.0327496E1,-2.3040482E1,-2.377902E1,-1.1037217E1,-1.2585429E1,-2.817439E1,9.754832E0,-6.255383E0,-1.0972183E1,1.0259421E1,-3.8655934E0,1.0713357E1,1.3805339E1,2.6168394E1,9.193128E0,2.1902306E1,9.43176E0,3.6662582E1,1.4814072E1,3.7088875E1,3.53166E1,4.7927654E1,3.6881535E1,5.961097E1],"categories":[],"categories_nodes":[],"categories_segments":[],"categories_sizes":[],"default_left":[0,0,0,0,0,0,0,0,0,0,0,0,0,0,0,0,0,0,0,0,0,0,0,0,0,0,0,0,0,0,0,0,0,0,0,0,0,0,0,0,0,0,0,0,0,0,0,0,0,0,0,0,0,0,0,0,0,0,0,0,0,0,0,0,0,0,0,0,0,0,0,0,0,0,0,0,0,0,0,0,0,0,0,0,0,0,0,0,0,0,0],"id":17,"left_children":[1,3,5,7,9,11,13,15,17,19,21,23,25,27,29,-1,-1,31,33,35,37,39,41,43,45,47,49,51,53,55,57,59,61,63,-1,-1,65,67,69,-1,-1,71,73,75,77,-1,79,81,83,85,-1,87,89,-1,-1,-1,-1,-1,-1,-1,-1,-1,-1,-1,-1,-1,-1,-1,-1,-1,-1,-1,-1,-1,-1,-1,-1,-1,-1,-1,-1,-1,-1,-1,-1,-1,-1,-1,-1,-1,-1],"loss_changes":[8.3261984E8,1.0901978E8,1.8904573E8,1.7544128E7,2.2089304E7,1.9711656E7,2.9981216E7,1.643296E6,4.8484E6,1.3170064E7,3.1670058E6,1.1647657E7,4.180916E6,7.991424E6,4.099424E6,0E0,0E0,2.177312E6,4.9359E5,2.114792E6,3.629748E6,2.2142725E5,3.0683445E6,4.3350745E6,1.820536E6,2.082564E6,1.658504E6,1.91892E6,3.68128E5,1.465296E6,2.2392E4,9.29664E5,2.7114E5,9.6357E4,0E0,0E0,1.268096E6,2.92316E5,2.086756E6,0E0,0E0,2.684695E5,1.5169872E6,1.2458898E6,2.062813E6,0E0,1.493172E6,6.99311E5,1.092468E6,7.31037E5,0E0,5.13116E5,7.50192E5,0E0,0E0,0E0,0E0,0E0,0E0,0E0,0E0,0E0,0E0,0E0,0E0,0E0,0E0,0E0,0E0,0E0,0E0,0E0,0E0,0E0,0E0,0E0,0E0,0E0,0E0,0E0,0E0,0E0,0E0,0E0,0E0,0E0,0E0,0E0,0E0,0E0,0E0],"parents":[2147483647,0,0,1,1,2,2,3,3,4,4,5,5,6,6,7,7,8,8,9,9,10,10,11,11,12,12,13,13,14,14,17,17,18,18,19,19,20,20,21,21,22,22,23,23,24,24,25,25,26,26,27,27,28,28,29,29,30,30,31,31,32,32,33,33,36,36,37,37,38,38,41,41,42,42,43,43,44,44,46,46,47,47,48,48,49,49,51,51,52,52],"right_children":[2,4,6,8,10,12,14,16,18,20,22,24,26,28,30,-1,-1,32,34,36,38,40,42,44,46,48,50,52,54,56,58,60,62,64,-1,-1,66,68,70,-1,-1,72,74,76,78,-1,80,82,84,86,-1,88,90,-1,-1,-1,-1,-1,-1,-1,-1,-1,-1,-1,-1,-1,-1,-1,-1,-1,-1,-1,-1,-1,-1,-1,-1,-1,-1,-1,-1,-1,-1,-1,-1,-1,-1,-1,-1,-1,-1],"split_conditions":[1.304E4,1.0797E4,1.5182E4,9.122E3,3.72E2,1.4349E4,1.6811E4,2.1E1,2.1E1,1.1749E4,1.1432E4,1.07E2,3.33E2,2.4E2,1.7965E4,-1.052562E2,-5.952378E1,1.0504E4,1.054E4,-7.12E2,-7.22E2,1.1083E4,1.1208E4,1.328975E4,1.1357417E4,1.4808792E4,1.3910083E4,1.5963E4,1.4246962E3,-2.47E2,1.7603E4,7.9E1,-5.39E2,1.076E3,-1.912465E1,-5.5012E1,1.2065E4,1.2789E4,1.327325E4,-1.5619559E1,-3.0894205E1,3E0,5E0,1.897E3,-6.1E2,-8.6604303E-1,1.3482E4,1.4566E4,-8.37E2,1.0606086E3,5.3106365E1,1.5E1,-5.29E2,7.37415E1,4.7491528E1,6.2504585E1,8.894577E1,7.3847145E1,1.2392458E2,-7.462654E1,-5.3998787E1,-6.716411E1,-4.820692E1,-4.7144264E1,-2.509478E1,-4.4626072E1,-3.229655E1,-4.0327496E1,-2.3040482E1,-2.377902E1,-1.1037217E1,-1.2585429E1,-2.817439E1,9.754832E0,-6.255383E0,-1.0972183E1,1.0259421E1,-3.8655934E0,1.0713357E1,1.3805339E1,2.6168394E1,9.193128E0,2.1902306E1,9.43176E0,3.6662582E1,1.4814072E1,3.7088875E1,3.53166E1,4.7927654E1,3.6881535E1,5.961097E1],"split_indices":[4,4,4,4,14,4,4,0,0,4,4,14,14,14,4,0,0,4,4,14,14,4,8,11,11,11,11,4,13,14,9,14,14,14,0,0,8,4,11,0,0,1,1,15,14,0,4,4,14,13,0,0,14,0,0,0,0,0,0,0,0,0,0,0,0,0,0,0,0,0,0,0,0,0,0,0,0,0,0,0,0,0,0,0,0,0,0,0,0,0,0],"split_type":[0,0,0,0,0,0,0,0,0,0,0,0,0,0,0,0,0,0,0,0,0,0,0,0,0,0,0,0,0,0,0,0,0,0,0,0,0,0,0,0,0,0,0,0,0,0,0,0,0,0,0,0,0,0,0,0,0,0,0,0,0,0,0,0,0,0,0,0,0,0,0,0,0,0,0,0,0,0,0,0,0,0,0,0,0,0,0,0,0,0,0],"sum_hessian":[1.44E3,6.7E2,7.7E2,2.12E2,4.58E2,4.8E2,2.9E2,4.3E1,1.69E2,3.62E2,9.6E1,3.26E2,1.54E2,1.98E2,9.2E1,3.6E1,7E0,1.48E2,2.1E1,1.58E2,2.04E2,1.7E1,7.9E1,1.93E2,1.33E2,1.04E2,5E1,1.32E2,6.6E1,6.9E1,2.3E1,9.7E1,5.1E1,1.5E1,6E0,3.6E1,1.22E2,3.9E1,1.65E2,9E0,8E0,1.6E1,6.3E1,6.7E1,1.26E2,9E0,1.24E2,6.2E1,4.2E1,2.5E1,2.5E1,7.4E1,5.8E1,5.7E1,9E0,2E1,4.9E1,6E0,1.7E1,7.6E1,2.1E1,1.2E1,3.9E1,1E1,5E0,6.5E1,5.7E1,3.1E1,8E0,1.17E2,4.8E1,1E1,6E0,4.1E1,2.2E1,6E1,7E0,3.2E1,9.4E1,4E1,8.4E1,1.7E1,4.5E1,5E0,3.7E1,7E0,1.8E1,4.2E1,3.2E1,1.1E1,4.7E1],"tree_param":{"num_deleted":"0","num_feature":"16","num_nodes":"91","size_leaf_vector":"1"}},{"base_weights":[7.8707047E0,-7.009699E2,7.352515E2,-1.3582281E3,-4.506205E2,4.3017975E2,1.4395488E3,-1.03606865E2,-1.2141974E3,-6.813503E2,-2.1993027E2,2.3721036E2,7.189401E2,1.2104619E3,1.8302021E3,-7.4338745E1,-1.0485516E3,-7.5000336E2,-2.4246547E2,-4.649796E2,4.3791356E0,8.540549E1,4.0517642E2,6.3781903E2,1.1175057E3,9.947275E2,1.4617708E3,8.175029E1,1.1046991E2,-1.1057677E3,-5.3216394E2,-6.1553234E1,-7.0400214E2,-3.5760406E2,-4.2072697E1,-5.8477765E2,-3.1988223E2,-1.7649252E2,2.2414194E2,-2.602414E1,1.1204595E2,3.5507416E2,7.8692755E2,4.138897E2,7.2436456E2,2.9686285E1,5.9491493E1,3.2583324E1,1.0464434E3,3.895732E1,7.535912E1,-5.9289684E1,-4.4598602E1,-3.235484E1,-1.7059673E1,-3.9645405E1,-2.779553E1,-2.4600164E1,-1.0301377E1,-1.1300101E1,7.355161E0,-3.3377644E1,-2.0453808E1,-2.3509363E1,-6.297052E0,-1.3099738E1,5.3649197E0,8.805484E0,2.7217283E1,-2.0053902E0,1.0002789E1,1.5324782E1,2.9631E1,2.0784056E1,4.5893883E1,1.1529798E1,2.506615E1,1.1995075E1,3.8510612E1,4.630633E1,6.1817196E1],"categories":[],"categories_nodes":[],"categories_segments":[],"categories_sizes":[],"default_left":[0,0,0,0,0,0,0,0,0,0,0,0,0,0,0,0,0,0,0,0,0,0,0,0,0,0,0,0,0,0,0,0,0,0,0,0,0,0,0,0,0,0,0,0,0,0,0,0,0,0,0,0,0,0,0,0,0,0,0,0,0,0,0,0,0,0,0,0,0,0,0,0,0,0,0,0,0,0,0,0,0],"id":18,"left_children":[1,3,5,7,9,11,13,-1,15,17,19,21,23,25,27,-1,29,31,33,35,37,39,41,43,45,47,49,-1,-1,51,53,-1,55,57,59,61,63,65,67,-1,69,71,73,75,77,-1,-1,-1,79,-1,-1,-1,-1,-1,-1,-1,-1,-1,-1,-1,-1,-1,-1,-1,-1,-1,-1,-1,-1,-1,-1,-1,-1,-1,-1,-1,-1,-1,-1,-1,-1],"loss_changes":[7.5844314E8,1.2197318E8,1.553698E8,1.8562816E7,2.8645928E7,2.8136104E7,1.7383392E7,0E0,6.251968E6,7.953376E6,1.4953072E7,7.767754E6,5.850472E6,6.190144E6,2.23464E6,0E0,2.690952E6,4.28928E6,8.616865E5,2.072558E6,5.7236515E6,2.6731428E6,2.493826E6,3.014072E6,5.43492E5,7.19496E5,7.78384E5,0E0,0E0,6.3592E5,6.445E4,0E0,2.389816E6,3.874865E5,5.551785E5,7.44872E5,1.718895E6,1.9450425E6,9.037705E5,0E0,2.0970396E6,1.318425E6,3.96159E5,6.85622E5,2.524924E6,0E0,0E0,0E0,3.85608E5,0E0,0E0,0E0,0E0,0E0,0E0,0E0,0E0,0E0,0E0,0E0,0E0,0E0,0E0,0E0,0E0,0E0,0E0,0E0,0E0,0E0,0E0,0E0,0E0,0E0,0E0,0E0,0E0,0E0,0E0,0E0,0E0],"parents":[2147483647,0,0,1,1,2,2,3,3,4,4,5,5,6,6,8,8,9,9,10,10,11,11,12,12,13,13,14,14,16,16,17,17,18,18,19,19,20,20,21,21,22,22,23,23,24,24,25,25,26,26,29,29,30,30,32,32,33,33,34,34,35,35,36,36,37,37,38,38,40,40,41,41,42,42,43,43,44,44,48,48],"right_children":[2,4,6,8,10,12,14,-1,16,18,20,22,24,26,28,-1,30,32,34,36,38,40,42,44,46,48,50,-1,-1,52,54,-1,56,58,60,62,64,66,68,-1,70,72,74,76,78,-1,-1,-1,80,-1,-1,-1,-1,-1,-1,-1,-1,-1,-1,-1,-1,-1,-1,-1,-1,-1,-1,-1,-1,-1,-1,-1,-1,-1,-1,-1,-1,-1,-1,-1,-1],"split_conditions":[1.3331E4,1.0749E4,1.5691E4,8.901E3,1.2039E4,1.4485E4,1.7035E4,-1.03606865E2,-2.18E2,2.1E1,-8.5E1,3.2E1,7.1E2,1.07E2,1.7965E4,-7.4338745E1,2.2E1,-9.67E2,1.358534E3,-4.77E2,1.3421E4,1.3191E4,2.2E1,6E0,1.4589E4,-7.03E2,1.4202077E4,8.175029E1,1.1046991E2,1.0504E4,1.0155E4,-6.1553234E1,1.1558E4,-5.82E2,1.1417E4,1.4185E4,1.3281E4,2E1,1.4823E4,-2.602414E1,-5.69E2,1.096E3,1.3919E4,1.4844E4,1.3635E4,2.9686285E1,5.9491493E1,3.2583324E1,1.6555684E4,3.895732E1,7.535912E1,-5.9289684E1,-4.4598602E1,-3.235484E1,-1.7059673E1,-3.9645405E1,-2.779553E1,-2.4600164E1,-1.0301377E1,-1.1300101E1,7.355161E0,-3.3377644E1,-2.0453808E1,-2.3509363E1,-6.297052E0,-1.3099738E1,5.3649197E0,8.805484E0,2.7217283E1,-2.0053902E0,1.0002789E1,1.5324782E1,2.9631E1,2.0784056E1,4.5893883E1,1.1529798E1,2.506615E1,1.1995075E1,3.8510612E1,4.630633E1,6.1817196E1],"split_indices":[4,4,4,4,4,4,4,0,14,0,14,14,14,14,4,0,0,14,13,14,9,6,0,0,4,14,12,0,0,4,4,0,4,15,4,6,6,0,7,0,14,14,7,4,6,0,0,0,12,0,0,0,0,0,0,0,0,0,0,0,0,0,0,0,0,0,0,0,0,0,0,0,0,0,0,0,0,0,0,0,0],"split_type":[0,0,0,0,0,0,0,0,0,0,0,0,0,0,0,0,0,0,0,0,0,0,0,0,0,0,0,0,0,0,0,0,0,0,0,0,0,0,0,0,0,0,0,0,0,0,0,0,0,0,0,0,0,0,0,0,0,0,0,0,0,0,0,0,0,0,0,0,0,0,0,0,0,0,0,0,0,0,0,0,0],"sum_hessian":[1.469E3,7.44E2,7.25E2,2.04E2,5.4E2,5.07E2,2.18E2,3.2E1,1.72E2,2.69E2,2.71E2,3.05E2,2.02E2,1.4E2,7.8E1,6.2E1,1.1E2,2.32E2,3.7E1,1.29E2,1.42E2,1.61E2,1.44E2,1.7E2,3.2E1,7.8E1,6.2E1,5.5E1,2.3E1,9.8E1,1.2E1,1.8E1,2.14E2,2.3E1,1.4E1,6.9E1,6E1,7.8E1,6.4E1,6E0,1.55E2,1.29E2,1.5E1,4.9E1,1.21E2,5E0,2.7E1,1.2E1,6.6E1,5E0,5.7E1,6.8E1,3E1,6E0,6E0,1.31E2,8.3E1,1.1E1,1.2E1,7E0,7E0,4.5E1,2.4E1,3.3E1,2.7E1,6E1,1.8E1,5.7E1,7E0,5.7E1,9.8E1,1.09E2,2E1,5E0,1E1,1.7E1,3.2E1,1.1E1,1.1E2,4.4E1,2.2E1],"tree_param":{"num_deleted":"0","num_feature":"16","num_nodes":"81","size_leaf_vector":"1"}},{"base_weights":[-6.49007E0,-7.1881165E2,6.533531E2,-1.1715016E3,-4.0991748E2,2.984352E2,1.1906174E3,-1.6311556E3,-9.965497E2,-5.7669507E2,-1.684674E2,8.861409E1,5.143627E2,9.9603406E2,1.7005225E3,-2.0235985E3,-7.132641E1,-1.0637257E3,-5.429111E2,-6.8681635E2,-4.201783E2,-3.5511362E2,3.6205313E0,-1.2502428E2,2.2060678E2,3.6416406E2,7.252461E2,8.4010944E2,1.2403372E3,5.769306E1,9.291263E1,-1.0925436E2,-5.8746735E1,-6.2376026E1,-9.393556E2,-6.8366534E2,-2.5042538E2,-8.781774E2,-5.7886926E2,-5.0618546E2,-1.6557707E2,-3.8580286E2,5.150762E0,-4.5590823E2,7.9194626E1,-2.6229193E2,-9.9623165E0,1.6062634E2,4.8895087E2,2.4229485E2,5.1967554E2,3.6274557E2,8.1341724E2,6.669935E2,9.940766E2,4.7818615E1,1.4143037E3,-4.2267025E1,-6.0890575E1,-3.9082066E1,-2.0201462E1,-1.5183982E1,-7.770847E0,-4.640109E1,-2.7399206E1,-3.0050604E1,-1.5024596E1,-3.1175034E1,-1.4884725E1,-1.705907E1,4.6760613E-1,-2.6630924E1,-1.5324945E1,-6.0574512E0,-3.2498833E1,-1.801356E-1,1.6181597E1,-1.6439894E1,-4.687431E0,-1.6833822E1,2.1119535E0,4.154121E-1,1.1693044E1,1.9085527E1,3.627437E1,5.6024414E-1,1.5136164E1,1.9703434E1,3.1584518E1,2.651533E1,1.2652377E1,2.3949728E1,4.3520844E1,2.7342432E1,3.6004826E1,5.1717224E1,2.7383055E1,5.6066463E1,7.788469E1],"categories":[],"categories_nodes":[],"categories_segments":[],"categories_sizes":[],"default_left":[0,0,0,0,0,0,0,0,0,0,0,0,0,0,0,0,0,0,0,0,0,0,0,0,0,0,0,0,0,0,0,0,0,0,0,0,0,0,0,0,0,0,0,0,0,0,0,0,0,0,0,0,0,0,0,0,0,0,0,0,0,0,0,0,0,0,0,0,0,0,0,0,0,0,0,0,0,0,0,0,0,0,0,0,0,0,0,0,0,0,0,0,0,0,0,0,0,0,0],"id":19,"left_children":[1,3,5,7,9,11,13,15,17,19,21,23,25,27,29,31,-1,33,35,37,39,41,43,45,47,49,51,53,55,-1,-1,-1,-1,-1,57,59,61,63,65,67,69,71,-1,73,75,77,79,81,83,85,87,89,91,93,95,-1,97,-1,-1,-1,-1,-1,-1,-1,-1,-1,-1,-1,-1,-1,-1,-1,-1,-1,-1,-1,-1,-1,-1,-1,-1,-1,-1,-1,-1,-1,-1,-1,-1,-1,-1,-1,-1,-1,-1,-1,-1,-1,-1],"loss_changes":[6.8810963E8,9.796224E7,1.4456493E8,2.1293152E7,1.6815528E7,2.074988E7,2.8270144E7,3.296384E6,5.791328E6,3.985784E6,5.5580045E6,6.626087E6,6.894196E6,7.376288E6,4.925968E6,7.2152E5,0E0,2.965328E6,1.02259E6,2.466088E6,2.21536E6,1.206721E6,3.1963588E6,1.4188456E6,2.255229E6,2.413584E6,2.677296E6,3.015064E6,2.7968E6,0E0,0E0,0E0,0E0,0E0,1.902376E6,2.04629E5,8.41275E3,3.14228E5,4.04898E5,1.72211E6,8.6333706E5,7.44827E5,0E0,7.6573925E5,1.6000598E6,4.287075E5,8.669968E5,1.3366265E6,3.824855E5,1.071836E6,5.67018E5,2.3335125E5,9.93524E5,3.9932E4,7.09688E5,0E0,3.5352E5,0E0,0E0,0E0,0E0,0E0,0E0,0E0,0E0,0E0,0E0,0E0,0E0,0E0,0E0,0E0,0E0,0E0,0E0,0E0,0E0,0E0,0E0,0E0,0E0,0E0,0E0,0E0,0E0,0E0,0E0,0E0,0E0,0E0,0E0,0E0,0E0,0E0,0E0,0E0,0E0,0E0,0E0],"parents":[2147483647,0,0,1,1,2,2,3,3,4,4,5,5,6,6,7,7,8,8,9,9,10,10,11,11,12,12,13,13,14,14,15,15,17,17,18,18,19,19,20,20,21,21,22,22,23,23,24,24,25,25,26,26,27,27,28,28,34,34,35,35,36,36,37,37,38,38,39,39,40,40,41,41,43,43,44,44,45,45,46,46,47,47,48,48,49,49,50,50,51,51,52,52,53,53,54,54,56,56],"right_children":[2,4,6,8,10,12,14,16,18,20,22,24,26,28,30,32,-1,34,36,38,40,42,44,46,48,50,52,54,56,-1,-1,-1,-1,-1,58,60,62,64,66,68,70,72,-1,74,76,78,80,82,84,86,88,90,92,94,96,-1,98,-1,-1,-1,-1,-1,-1,-1,-1,-1,-1,-1,-1,-1,-1,-1,-1,-1,-1,-1,-1,-1,-1,-1,-1,-1,-1,-1,-1,-1,-1,-1,-1,-1,-1,-1,-1,-1,-1,-1,-1,-1,-1],"split_conditions":[1.3068E4,1.1176E4,1.5162E4,9.674E3,7.3E1,1.399E4,1.6944E4,8.901E3,2.67E2,1.2211E4,1.2784E4,-1.66E2,1.86E2,1.6264E4,1.6972E4,1.9E1,-7.132641E1,1.0504E4,1.0683E4,-5.69E2,8.76E2,1.2667E4,1.1592E4,1.328975E4,8.79E2,1.4589E4,1.247825E4,-1.11E2,3.13E2,5.769306E1,9.291263E1,-1.0925436E2,-5.8746735E1,-6.2376026E1,1.1531E4,1.5889916E3,-1.006E3,1.33365E4,1.4394E4,1.3216333E4,1.201525E4,-2.01E2,5.150762E0,1.1106167E4,1.4389E4,1.3669E4,1.0419467E3,1.3030833E4,1.2530833E4,1.3835167E4,1.4758042E4,1.4055E4,1.3849E4,-6.41E2,1.5004272E3,4.7818615E1,-4.1E1,-4.2267025E1,-6.0890575E1,-3.9082066E1,-2.0201462E1,-1.5183982E1,-7.770847E0,-4.640109E1,-2.7399206E1,-3.0050604E1,-1.5024596E1,-3.1175034E1,-1.4884725E1,-1.705907E1,4.6760613E-1,-2.6630924E1,-1.5324945E1,-6.0574512E0,-3.2498833E1,-1.801356E-1,1.6181597E1,-1.6439894E1,-4.687431E0,-1.6833822E1,2.1119535E0,4.154121E-1,1.1693044E1,1.9085527E1,3.627437E1,5.6024414E-1,1.5136164E1,1.9703434E1,3.1584518E1,2.651533E1,1.2652377E1,2.3949728E1,4.3520844E1,2.7342432E1,3.6004826E1,5.1717224E1,2.7383055E1,5.6066463E1,7.788469E1],"split_indices":[4,4,4,4,14,4,7,7,14,4,9,14,14,4,9,15,0,4,4,14,15,5,4,11,14,4,11,14,15,0,0,0,0,0,5,13,15,10,9,11,11,15,0,10,7,4,13,10,11,10,11,9,9,14,13,0,14,0,0,0,0,0,0,0,0,0,0,0,0,0,0,0,0,0,0,0,0,0,0,0,0,0,0,0,0,0,0,0,0,0,0,0,0,0,0,0,0,0,0],"split_type":[0,0,0,0,0,0,0,0,0,0,0,0,0,0,0,0,0,0,0,0,0,0,0,0,0,0,0,0,0,0,0,0,0,0,0,0,0,0,0,0,0,0,0,0,0,0,0,0,0,0,0,0,0,0,0,0,0,0,0,0,0,0,0,0,0,0,0,0,0,0,0,0,0,0,0,0,0,0,0,0,0,0,0,0,0,0,0,0,0,0,0,0,0,0,0,0,0,0,0],"sum_hessian":[1.462E3,7.03E2,7.59E2,2.84E2,4.19E2,4.58E2,3.01E2,7.6E1,2.08E2,2.47E2,1.72E2,2.33E2,2.25E2,2.2E2,8.1E1,2.3E1,5.3E1,1.8E2,2.8E1,1.43E2,1.04E2,8.2E1,9E1,8.9E1,1.44E2,1.33E2,9.2E1,1.37E2,8.3E1,2E1,6.1E1,1.8E1,5E0,6.9E1,1.11E2,1.8E1,1E1,4.9E1,9.4E1,7.7E1,2.7E1,7.7E1,5E0,1.2E1,7.8E1,4E1,4.9E1,1.19E2,2.5E1,7.6E1,5.7E1,1.9E1,7.3E1,6.7E1,7E1,3.4E1,4.9E1,8.6E1,2.5E1,1.2E1,6E0,5E0,5E0,4.1E1,8E0,8.6E1,8E0,4.8E1,2.9E1,1.3E1,1.4E1,2.5E1,5.2E1,5E0,7E0,5.9E1,1.9E1,2.8E1,1.2E1,6E0,4.3E1,3.9E1,8E1,1.9E1,6E0,1.6E1,6E1,2.9E1,2.8E1,6E0,1.3E1,1.2E1,6.1E1,2.4E1,4.3E1,6.3E1,7E0,1.9E1,3E1],"tree_param":{"num_deleted":"0","num_feature":"16","num_nodes":"99","size_leaf_vector":"1"}},{"base_weights":[-2.474709E0,-5.6269965E2,6.101259E2,-1.0912681E3,-3.5539362E2,3.5789636E2,1.3237445E3,-1.2028278E3,-2.2546678E2,-5.8780853E2,-3.5422966E1,7.1084015E1,5.675465E2,9.292457E2,1.5263993E3,-1.8968444E3,-1.1156414E3,-2.3685759E1,-4.0698097E1,-7.427847E2,-3.5018613E2,-2.2915765E2,2.3303133E2,-7.967714E1,4.5284277E2,3.8058203E2,9.4140796E2,1.0586821E1,1.01218933E3,1.3579614E3,9.408484E1,-1.0393639E2,-5.629894E1,-1.2340607E3,-8.946746E2,-1.0349704E1,3.9884453E0,-5.613735E1,-6.4608765E2,-6.441041E2,-3.204659E1,-3.572469E2,3.0591504E2,1.0025684E2,6.6740106E2,-4.9271844E2,7.877251E0,2.5414687E2,7.258236E2,1.1107297E2,5.067191E2,7.6109454E2,1.0869463E3,8.401687E2,6.277418E1,4.9675E1,7.347312E1,-6.75024E1,-5.0296604E1,-4.6913124E1,-1.5846572E1,-4.3229496E1,-2.766775E1,-4.106066E1,-1.8404192E1,-1.3181519E1,4.932273E0,-4.182427E1,-1.3386344E1,-6.112907E0,2.3094677E1,-2.889341E0,2.06246E1,1.7813627E1,4.3965874E1,-3.675997E1,-1.1677417E1,-1.8167929E1,4.236496E0,5.128675E0,2.5332655E1,4.0597683E1,2.3645262E1,-8.704068E0,1.3382405E1,1.2608794E1,3.413638E1,2.256664E1,4.204925E1,3.9584103E1,5.9133083E1,2.3409487E1,4.418282E1],"categories":[],"categories_nodes":[],"categories_segments":[],"categories_sizes":[],"default_left":[0,0,0,0,0,0,0,0,0,0,0,0,0,0,0,0,0,0,0,0,0,0,0,0,0,0,0,0,0,0,0,0,0,0,0,0,0,0,0,0,0,0,0,0,0,0,0,0,0,0,0,0,0,0,0,0,0,0,0,0,0,0,0,0,0,0,0,0,0,0,0,0,0,0,0,0,0,0,0,0,0,0,0,0,0,0,0,0,0,0,0,0,0],"id":20,"left_children":[1,3,5,7,9,11,13,15,17,19,21,23,25,27,29,31,33,-1,35,37,39,41,43,45,47,49,51,-1,53,55,-1,-1,-1,57,59,-1,-1,-1,61,63,65,67,69,71,73,75,77,79,81,83,85,87,89,91,-1,-1,-1,-1,-1,-1,-1,-1,-1,-1,-1,-1,-1,-1,-1,-1,-1,-1,-1,-1,-1,-1,-1,-1,-1,-1,-1,-1,-1,-1,-1,-1,-1,-1,-1,-1,-1,-1,-1],"loss_changes":[5.0724106E8,8.420424E7,1.2660304E8,2.0688416E7,4.1326584E7,3.1407716E7,1.3291616E7,9.501184E6,1.1732506E6,1.1597704E7,1.2275493E7,1.2813194E7,2.0751032E7,3.653896E6,4.625888E6,4.63224E5,3.422544E6,0E0,3.3705525E5,6.402224E6,1.2041684E7,9.498868E6,5.642659E6,5.7901025E6,3.232567E6,6.844658E6,1.796792E6,0E0,1.372368E6,1.994048E6,0E0,0E0,0E0,1.552304E6,1.314196E6,0E0,0E0,0E0,2.702616E6,2.972948E6,1.9327902E6,4.537997E6,1.8597215E6,3.8235745E6,1.203065E6,1.587826E6,3.8253112E6,1.402352E6,1.82275E5,2.9933752E6,6.010384E6,8.08162E5,5.61364E5,1.84676E5,0E0,0E0,0E0,0E0,0E0,0E0,0E0,0E0,0E0,0E0,0E0,0E0,0E0,0E0,0E0,0E0,0E0,0E0,0E0,0E0,0E0,0E0,0E0,0E0,0E0,0E0,0E0,0E0,0E0,0E0,0E0,0E0,0E0,0E0,0E0,0E0,0E0,0E0,0E0],